<?xml version="1.0"?>
<opencv_storage>
<opencv_ml_svm>
  <format>3</format>
  <svmType>C_SVC</svmType>
  <kernel>
    <type>RBF</type>
    <gamma>8.4094451209711207e-01</gamma></kernel>
  <C>1.1698585600000002e-02</C>
  <term_criteria><epsilon>1.1920928955078125e-07</epsilon>
    <iterations>1000</iterations></term_criteria>
  <var_count>108</var_count>
  <class_count>2</class_count>
  <class_labels type_id="opencv-matrix">
    <rows>2</rows>
    <cols>1</cols>
    <dt>i</dt>
    <data>
      0 1</data></class_labels>
  <class_weights type_id="opencv-matrix">
    <rows>2</rows>
    <cols>1</cols>
    <dt>f</dt>
    <data>
      401. 241.</data></class_weights>
  <sv_total>207</sv_total>
  <support_vectors>
    <_>
      7.00000003e-02 1.19999997e-01 7.00000003e-02 5.99999987e-02
      1.70000002e-01 1.00000001e-01 5.00000007e-02 1.50000006e-01
      2.09999993e-01 2.40963846e-02 7.22891539e-02 4.81927693e-02
      4.81927693e-02 1.68674693e-01 1.80722892e-01 4.81927693e-02
      1.56626508e-01 2.53012061e-01 4.76190485e-02 1.42857149e-01
      7.14285746e-02 8.33333358e-02 1.66666672e-01 2.38095243e-02
      7.14285746e-02 1.54761910e-01 2.38095239e-01 9.78260860e-02
      9.78260860e-02 4.34782617e-02 5.43478243e-02 2.50000000e-01
      1.30434781e-01 1.08695654e-02 1.41304344e-01 1.73913047e-01
      9.41176489e-02 4.70588244e-02 8.23529437e-02 5.88235296e-02
      2.35294119e-01 2.35294122e-02 2.35294122e-02 2.11764708e-01
      2.23529413e-01 9.89011005e-02 8.79120901e-02 8.79120901e-02
      1.09890111e-01 2.52747267e-01 7.69230798e-02 3.29670347e-02
      1.86813191e-01 6.59340695e-02 1.01265825e-01 1.89873412e-01
      2.53164563e-02 2.53164563e-02 2.27848098e-01 5.06329127e-02
      6.32911399e-02 1.77215189e-01 1.39240503e-01 6.74157292e-02
      5.61797768e-02 3.37078646e-02 0. 2.47191012e-01 5.61797768e-02
      5.61797768e-02 2.02247187e-01 2.80898869e-01 4.93827164e-02
      1.85185179e-01 1.23456791e-02 4.93827164e-02 1.35802463e-01
      4.93827164e-02 2.46913582e-02 1.72839507e-01 3.20987642e-01
      1.31578952e-01 9.21052620e-02 3.94736826e-02 0. 2.50000000e-01
      6.57894760e-02 5.26315793e-02 1.18421055e-01 2.50000000e-01
      8.79120901e-02 1.20879121e-01 2.19780225e-02 4.39560451e-02
      1.86813191e-01 6.59340695e-02 3.29670347e-02 2.30769232e-01
      2.08791211e-01 7.89473653e-02 1.71052635e-01 1.31578948e-02
      3.94736826e-02 1.31578952e-01 2.63157897e-02 2.63157897e-02
      1.97368428e-01 3.15789461e-01</_>
    <_>
      0. 8.40336177e-03 1.68067235e-02 8.40336159e-02 1.17647059e-01
      3.94957989e-01 8.40336159e-02 7.56302550e-02 2.18487397e-01
      8.84955749e-03 6.19469024e-02 1.76991150e-02 2.65486725e-02
      9.73451361e-02 2.12389380e-01 1.50442481e-01 1.06194690e-01
      3.18584085e-01 0. 9.48275849e-02 1.72413792e-02 4.31034490e-02
      7.75862038e-02 9.48275849e-02 1.37931034e-01 1.55172408e-01
      3.79310340e-01 0. 5.26315793e-02 1.75438598e-02 3.50877196e-02
      1.22807018e-01 2.28070170e-01 7.01754391e-02 1.31578952e-01
      3.42105269e-01 0. 0. 0. 7.81250000e-03 7.03125000e-02
      6.48437500e-01 2.34375000e-02 1.56250000e-02 2.34375000e-01
      8.54700897e-03 8.54700897e-03 2.56410260e-02 6.83760718e-02
      1.28205135e-01 2.39316240e-01 1.62393168e-01 8.54700878e-02
      2.73504287e-01 0. 3.33333351e-02 1.66666675e-02 2.50000004e-02
      8.33333358e-02 1.58333331e-01 1.50000006e-01 1.74999997e-01
      3.58333319e-01 9.99999978e-03 9.99999978e-03 1.99999996e-02
      5.00000007e-02 5.00000007e-02 2.70000011e-01 1.00000001e-01
      1.29999995e-01 3.60000014e-01 0. 0. 0. 6.61156997e-02
      9.09090936e-02 4.54545468e-01 9.91735533e-02 2.47933883e-02
      2.64462799e-01 1.73913036e-02 5.21739125e-02 1.73913036e-02
      7.82608688e-02 8.69565234e-02 2.78260857e-01 5.21739125e-02
      6.95652142e-02 3.47826093e-01 0. 6.89655170e-02 2.58620698e-02
      3.44827585e-02 9.48275849e-02 1.03448279e-01 1.81034476e-01
      1.89655170e-01 3.01724136e-01 0. 3.77358496e-02 9.43396240e-03
      7.54716992e-02 1.22641511e-01 2.45283023e-01 1.60377353e-01
      1.60377353e-01 1.88679248e-01</_>
    <_>
      6.42201826e-02 4.58715595e-02 9.17431153e-03 2.75229365e-02
      4.77064222e-01 8.25688094e-02 4.58715595e-02 1.19266056e-01
      1.28440365e-01 3.09278350e-02 6.18556701e-02 6.18556701e-02
      5.15463911e-02 1.75257728e-01 1.75257728e-01 9.27835032e-02
      1.34020612e-01 2.16494843e-01 8.92857183e-03 1.78571437e-02
      3.57142873e-02 7.14285746e-02 1.07142858e-01 1.33928567e-01
      1.87500000e-01 2.05357149e-01 2.32142851e-01 2.56410260e-02
      1.70940179e-02 8.54700897e-03 1.02564104e-01 4.61538464e-01
      1.45299152e-01 8.54700878e-02 1.36752144e-01 1.70940179e-02 0.
      2.43902430e-02 8.13008100e-03 5.69105707e-02 4.63414639e-01
      3.08943093e-01 8.13008100e-03 9.75609720e-02 3.25203240e-02 0.
      2.75229365e-02 4.58715595e-02 3.66972461e-02 3.66972461e-02
      9.17431191e-02 1.74311921e-01 2.01834857e-01 3.85321110e-01
      1.63934417e-02 0. 1.63934417e-02 7.37704933e-02 5.16393423e-01
      1.55737698e-01 1.06557377e-01 1.63934417e-02 9.83606577e-02
      4.76190485e-02 9.52380989e-03 2.85714287e-02 5.71428575e-02
      3.52380961e-01 9.52380970e-02 5.71428575e-02 1.71428576e-01
      1.80952385e-01 0. 2.47933883e-02 8.26446246e-03 8.26446265e-02
      2.72727281e-01 3.38842988e-01 6.61156997e-02 1.40495867e-01
      6.61156997e-02 9.09090880e-03 2.72727273e-02 3.63636352e-02
      5.45454547e-02 1.72727272e-01 1.72727272e-01 1.54545456e-01
      1.72727272e-01 2.00000003e-01 8.84955749e-03 3.53982300e-02
      8.84955749e-03 5.30973449e-02 6.01769924e-01 1.23893805e-01 0.
      8.84955749e-02 7.96460211e-02 4.04040404e-02 1.81818187e-01
      1.01010101e-02 4.04040404e-02 2.52525240e-01 4.04040404e-02
      3.03030312e-02 1.51515156e-01 2.52525240e-01</_>
    <_>
      1.68067235e-02 3.36134471e-02 3.36134471e-02 6.72268942e-02
      2.85714298e-01 2.01680675e-01 1.42857149e-01 7.56302550e-02
      1.42857149e-01 0. 0. 4.06504050e-02 1.13821141e-01 4.22764242e-01
      3.08943093e-01 3.25203240e-02 2.43902430e-02 5.69105707e-02
      9.43396240e-03 3.77358496e-02 2.83018872e-02 7.54716992e-02
      4.33962256e-01 8.49056616e-02 4.71698120e-02 1.50943398e-01
      1.32075474e-01 8.84955749e-03 1.76991150e-02 6.19469024e-02
      1.15044251e-01 2.92035401e-01 1.85840711e-01 3.53982300e-02
      1.76991150e-01 1.06194690e-01 8.62068962e-03 8.62068962e-03
      1.12068966e-01 1.46551728e-01 2.50000000e-01 1.63793102e-01
      1.12068966e-01 1.03448279e-01 9.48275849e-02 0. 4.54545468e-02 0.
      1.36363640e-01 4.72727269e-01 1.90909088e-01 1.81818176e-02
      8.18181783e-02 5.45454547e-02 9.00900923e-03 1.80180185e-02
      3.60360369e-02 6.30630627e-02 3.78378391e-01 1.62162155e-01
      1.26126125e-01 9.00900885e-02 1.17117114e-01 7.00000003e-02
      2.99999993e-02 3.99999991e-02 7.00000003e-02 3.89999986e-01
      1.29999995e-01 1.99999996e-02 1.40000001e-01 1.09999999e-01 0.
      1.66666675e-02 2.50000004e-02 1.58333331e-01 2.83333331e-01
      2.16666669e-01 5.83333336e-02 1.08333334e-01 1.33333340e-01
      1.78571437e-02 5.35714291e-02 1.78571437e-02 7.14285746e-02
      2.50000000e-01 1.96428567e-01 1.07142858e-01 1.87500000e-01
      9.82142836e-02 4.04040404e-02 5.05050495e-02 4.04040404e-02
      1.21212125e-01 2.82828271e-01 1.51515156e-01 6.06060624e-02
      1.41414136e-01 1.11111112e-01 5.49450554e-02 1.20879121e-01
      1.09890113e-02 9.89011005e-02 1.42857149e-01 1.20879121e-01
      1.31868139e-01 1.64835170e-01 1.53846160e-01</_>
    <_>
      1.94174759e-02 1.65048540e-01 9.70873795e-03 1.74757287e-01
      2.33009711e-01 1.55339807e-01 5.82524277e-02 1.45631075e-01
      3.88349518e-02 8.62068962e-03 8.62068962e-03 7.75862038e-02
      2.24137932e-01 3.79310340e-01 1.12068966e-01 5.17241396e-02
      5.17241396e-02 8.62068981e-02 0. 2.85714287e-02 9.52380970e-02
      2.09523812e-01 3.23809534e-01 1.14285715e-01 9.52380989e-03
      1.23809524e-01 9.52380970e-02 6.18556701e-02 7.21649453e-02
      8.24742243e-02 1.44329891e-01 2.98969060e-01 8.24742243e-02
      4.12371121e-02 1.34020612e-01 8.24742243e-02 8.54700897e-03
      2.56410260e-02 8.54700897e-03 6.83760718e-02 4.95726496e-01
      2.22222224e-01 1.70940179e-02 1.11111112e-01 4.27350439e-02
      1.73913036e-02 0. 1.73913036e-02 1.30434781e-01 2.86956519e-01
      2.08695650e-01 5.21739125e-02 1.30434781e-01 1.56521738e-01
      1.60000008e-02 0. 8.00000038e-03 1.04000002e-01 4.32000011e-01
      3.44000012e-01 8.00000038e-03 3.99999991e-02 4.80000004e-02
      1.81818176e-02 8.18181783e-02 5.45454547e-02 1.18181817e-01
      2.81818181e-01 1.00000001e-01 5.45454547e-02 1.63636357e-01
      1.27272725e-01 8.19672085e-03 2.45901644e-02 1.63934417e-02
      9.83606577e-02 4.09836054e-01 2.04918027e-01 1.63934417e-02
      1.31147534e-01 9.01639313e-02 0. 0. 1.63934417e-02 1.31147534e-01
      3.03278685e-01 2.45901644e-01 5.73770478e-02 1.06557377e-01
      1.39344260e-01 0. 2.47933883e-02 8.26446246e-03 1.40495867e-01
      5.04132211e-01 1.81818187e-01 2.47933883e-02 9.91735533e-02
      1.65289249e-02 3.88349518e-02 1.65048540e-01 2.91262139e-02
      1.06796116e-01 3.00970882e-01 1.35922328e-01 2.91262139e-02
      1.16504855e-01 7.76699036e-02</_>
    <_>
      7.14285746e-02 1.90476194e-01 4.76190485e-02 2.38095243e-02
      1.19047619e-01 4.76190485e-02 2.38095243e-02 1.54761910e-01
      3.21428567e-01 1.26436785e-01 8.04597735e-02 2.29885057e-02
      6.89655170e-02 1.60919547e-01 4.59770113e-02 6.89655170e-02
      1.95402294e-01 2.29885057e-01 9.78260860e-02 7.60869533e-02
      3.26086953e-02 1.08695654e-02 1.84782609e-01 5.43478243e-02
      8.69565234e-02 2.60869563e-01 1.95652172e-01 9.09090936e-02
      1.16883114e-01 3.89610380e-02 7.79220760e-02 1.16883114e-01
      3.89610380e-02 1.29870130e-02 2.59740263e-01 2.46753246e-01
      5.95238097e-02 1.54761910e-01 2.38095243e-02 2.38095243e-02
      9.52380970e-02 9.52380970e-02 7.14285746e-02 2.73809522e-01
      2.02380955e-01 7.31707290e-02 1.82926834e-01 1.21951215e-02
      4.87804860e-02 1.82926834e-01 3.65853645e-02 3.65853645e-02
      2.19512194e-01 2.07317069e-01 9.41176489e-02 1.29411772e-01
      2.35294122e-02 8.23529437e-02 2.70588249e-01 7.05882385e-02
      3.52941193e-02 1.64705887e-01 1.29411772e-01 6.18556701e-02
      1.34020612e-01 6.18556701e-02 1.44329891e-01 1.23711340e-01
      3.09278350e-02 7.21649453e-02 2.26804122e-01 1.44329891e-01
      1.05882354e-01 1.52941182e-01 3.52941193e-02 3.52941193e-02
      2.47058824e-01 8.23529437e-02 4.70588244e-02 1.41176477e-01
      1.52941182e-01 5.47945201e-02 1.64383560e-01 9.58904102e-02
      5.47945201e-02 1.23287670e-01 1.36986300e-02 5.47945201e-02
      1.78082198e-01 2.60273963e-01 9.41176489e-02 1.17647059e-01
      3.52941193e-02 4.70588244e-02 1.29411772e-01 1.05882354e-01
      5.88235296e-02 2.00000003e-01 2.11764708e-01 1.17647059e-01
      1.76470593e-01 3.52941193e-02 1.17647061e-02 2.35294119e-01
      7.05882385e-02 7.05882385e-02 1.41176477e-01 1.41176477e-01</_>
    <_>
      5.05050495e-02 1.21212125e-01 4.04040404e-02 1.01010099e-01
      2.12121218e-01 1.11111112e-01 1.21212125e-01 1.51515156e-01
      9.09090936e-02 1.88679248e-02 4.71698120e-02 1.88679248e-02
      8.49056616e-02 2.54716992e-01 1.32075474e-01 1.03773586e-01
      1.98113203e-01 1.41509429e-01 3.80952395e-02 2.85714287e-02
      1.90476198e-02 1.71428576e-01 1.80952385e-01 2.47619048e-01
      1.14285715e-01 1.14285715e-01 8.57142881e-02 3.84615399e-02
      1.25000000e-01 0. 1.15384616e-01 2.50000000e-01 1.73076928e-01
      4.80769239e-02 1.53846160e-01 9.61538479e-02 5.99999987e-02
      1.00000001e-01 3.99999991e-02 3.99999991e-02 1.70000002e-01
      2.89999992e-01 3.99999991e-02 1.29999995e-01 1.29999995e-01
      8.84955749e-03 0. 8.84955749e-03 6.19469024e-02 1.32743359e-01
      3.80530983e-01 7.96460211e-02 1.23893805e-01 2.03539819e-01
      4.16666679e-02 5.20833321e-02 4.16666679e-02 1.14583336e-01
      1.04166664e-01 1.77083328e-01 1.14583336e-01 1.45833328e-01
      2.08333328e-01 7.31707290e-02 6.09756112e-02 4.87804860e-02
      4.87804860e-02 3.65853645e-02 3.65853645e-02 8.53658542e-02
      3.41463417e-01 2.68292695e-01 3.60360369e-02 1.17117114e-01
      1.80180185e-02 9.90990996e-02 3.78378391e-01 1.44144148e-01
      6.30630627e-02 7.20720738e-02 7.20720738e-02 9.00900923e-03
      1.80180185e-02 3.60360369e-02 9.00900885e-02 1.98198199e-01
      3.42342347e-01 2.70270277e-02 1.35135129e-01 1.44144148e-01
      3.84615399e-02 1.92307699e-02 6.73076957e-02 1.15384616e-01
      1.92307696e-01 1.34615391e-01 8.65384638e-02 1.82692304e-01
      1.63461536e-01 4.80769239e-02 1.34615391e-01 9.61538497e-03
      8.65384638e-02 2.11538464e-01 1.44230768e-01 4.80769239e-02
      1.34615391e-01 1.82692304e-01</_>
    <_>
      0. 6.36363626e-02 9.09090880e-03 0. 2.45454550e-01 4.00000006e-01
      1.81818176e-02 4.54545468e-02 2.18181819e-01 1.73913036e-02
      1.73913036e-02 4.34782617e-02 4.34782617e-02 3.82608682e-01
      1.91304341e-01 4.34782617e-02 6.95652142e-02 1.91304341e-01 0.
      5.88235296e-02 8.40336177e-03 3.36134471e-02 3.44537824e-01
      2.01680675e-01 4.20168079e-02 9.24369767e-02 2.18487397e-01 0.
      4.27350439e-02 0. 3.41880359e-02 3.33333343e-01 3.58974367e-01
      2.56410260e-02 5.12820520e-02 1.53846160e-01 0. 5.55555560e-02
      7.40740746e-02 4.62962948e-02 2.96296299e-01 2.31481478e-01
      3.70370373e-02 7.40740746e-02 1.85185179e-01 8.33333377e-03
      2.50000004e-02 1.00000001e-01 8.33333358e-02 5.33333361e-01
      1.00000001e-01 8.33333377e-03 9.16666687e-02 5.00000007e-02
      8.26446246e-03 8.26446265e-02 2.47933883e-02 5.78512400e-02
      6.11570239e-01 9.91735533e-02 4.95867766e-02 4.95867766e-02
      1.65289249e-02 0. 9.56521705e-02 6.95652142e-02 6.95652142e-02
      2.52173901e-01 2.17391297e-01 5.21739125e-02 1.04347825e-01
      1.39130428e-01 0. 9.91735533e-02 1.65289249e-02 4.95867766e-02
      3.38842988e-01 2.89256185e-01 9.09090936e-02 4.13223132e-02
      7.43801668e-02 8.00000038e-03 5.60000017e-02 2.40000002e-02
      9.60000008e-02 4.88000005e-01 1.43999994e-01 1.12000003e-01
      4.80000004e-02 2.40000002e-02 0. 5.55555560e-02 3.17460336e-02
      2.06349209e-01 3.88888896e-01 1.50793657e-01 4.76190485e-02
      1.19047619e-01 0. 8.84955749e-03 4.42477874e-02 5.30973449e-02
      7.07964599e-02 1.15044251e-01 3.89380544e-01 1.15044251e-01
      7.07964599e-02 1.32743359e-01</_>
    <_>
      5.31914905e-02 6.38297871e-02 1.06382975e-02 6.38297871e-02
      2.02127665e-01 9.57446843e-02 9.57446843e-02 1.70212761e-01
      2.44680852e-01 5.05050495e-02 5.05050495e-02 2.02020202e-02
      1.01010099e-01 2.22222224e-01 1.41414136e-01 1.11111112e-01
      1.21212125e-01 1.81818187e-01 7.60869533e-02 5.43478243e-02
      9.78260860e-02 4.34782617e-02 7.60869533e-02 1.08695649e-01
      1.19565219e-01 2.17391297e-01 2.06521735e-01 7.60869533e-02
      7.60869533e-02 2.17391308e-02 5.43478243e-02 1.19565219e-01
      1.19565219e-01 9.78260860e-02 1.30434781e-01 3.04347813e-01
      9.27835032e-02 5.15463911e-02 3.09278350e-02 1.03092782e-01
      1.44329891e-01 1.44329891e-01 1.44329891e-01 1.03092782e-01
      1.85567006e-01 4.76190485e-02 2.85714287e-02 0. 6.66666701e-02
      1.61904767e-01 7.61904791e-02 1.52380958e-01 2.76190490e-01
      1.90476194e-01 7.86516890e-02 4.49438207e-02 4.49438207e-02
      1.12359554e-01 1.79775283e-01 1.12359554e-01 5.61797768e-02
      1.79775283e-01 1.91011235e-01 5.88235296e-02 1.05882354e-01
      5.88235296e-02 5.88235296e-02 1.52941182e-01 4.70588244e-02
      1.05882354e-01 1.88235298e-01 2.23529413e-01 6.09756112e-02
      6.09756112e-02 1.21951215e-02 3.65853645e-02 1.58536583e-01
      1.09756097e-01 7.31707290e-02 2.31707320e-01 2.56097555e-01
      5.55555560e-02 1.11111112e-01 1.11111112e-01 5.55555560e-02
      1.77777782e-01 1.00000001e-01 7.77777806e-02 1.33333340e-01
      1.77777782e-01 5.71428575e-02 5.71428575e-02 7.61904791e-02
      1.33333340e-01 1.52380958e-01 1.14285715e-01 7.61904791e-02
      1.90476194e-01 1.42857149e-01 2.24719103e-02 8.98876414e-02
      2.24719103e-02 4.49438207e-02 2.24719107e-01 1.34831458e-01
      5.61797768e-02 1.57303378e-01 2.47191012e-01</_>
    <_>
      5.49450554e-02 8.79120901e-02 2.19780225e-02 4.39560451e-02
      5.49450554e-02 8.79120901e-02 1.09890111e-01 1.64835170e-01
      3.73626381e-01 6.52173907e-02 8.69565234e-02 3.26086953e-02
      3.26086953e-02 1.08695649e-01 9.78260860e-02 1.19565219e-01
      2.50000000e-01 2.06521735e-01 4.30107526e-02 8.60215053e-02
      4.30107526e-02 1.07526883e-01 2.04301074e-01 1.29032254e-01
      1.18279569e-01 1.07526883e-01 1.61290318e-01 3.15789469e-02
      3.15789469e-02 1.05263162e-02 5.26315793e-02 2.21052632e-01
      1.57894731e-01 7.36842081e-02 2.21052632e-01 2.00000003e-01
      9.41176489e-02 1.29411772e-01 5.88235296e-02 8.23529437e-02
      5.88235296e-02 5.88235296e-02 9.41176489e-02 1.88235298e-01
      2.35294119e-01 1.07142858e-01 5.95238097e-02 2.38095243e-02
      4.76190485e-02 1.07142858e-01 1.54761910e-01 5.95238097e-02
      1.66666672e-01 2.73809522e-01 5.43478243e-02 1.08695649e-01
      7.60869533e-02 7.60869533e-02 1.95652172e-01 4.34782617e-02
      1.41304344e-01 1.41304344e-01 1.63043484e-01 7.77777806e-02
      1.33333340e-01 6.66666701e-02 1.11111112e-01 1.44444451e-01
      6.66666701e-02 5.55555560e-02 1.44444451e-01 2.00000003e-01
      6.59340695e-02 8.79120901e-02 0. 5.49450554e-02 1.42857149e-01
      1.31868139e-01 1.31868139e-01 1.53846160e-01 2.30769232e-01
      8.04597735e-02 1.14942528e-01 3.44827585e-02 6.89655170e-02
      1.14942528e-01 1.14942528e-01 9.19540226e-02 1.83908045e-01
      1.95402294e-01 9.30232555e-02 3.48837227e-02 5.81395365e-02
      1.04651161e-01 1.39534891e-01 9.30232555e-02 5.81395365e-02
      1.86046511e-01 2.32558146e-01 7.44680837e-02 7.44680837e-02
      4.25531901e-02 9.57446843e-02 1.38297871e-01 4.25531901e-02
      1.48936167e-01 1.80851057e-01 2.02127665e-01</_>
    <_>
      8.13008100e-03 0. 8.13008100e-03 4.06504050e-02 1.13821141e-01
      3.82113814e-01 1.05691060e-01 1.13821141e-01 2.27642283e-01
      8.06451589e-03 4.03225794e-02 1.61290318e-02 9.67741907e-02
      3.22580636e-01 1.69354841e-01 1.29032254e-01 8.06451589e-02
      1.37096778e-01 0. 2.50000004e-02 8.33333377e-03 1.00000001e-01
      3.83333325e-01 2.58333325e-01 1.25000000e-01 5.00000007e-02
      5.00000007e-02 8.84955749e-03 2.65486725e-02 8.84955749e-03
      2.65486725e-02 1.23893805e-01 1.23893805e-01 7.96460211e-02
      1.68141589e-01 4.33628321e-01 0. 8.26446246e-03 1.65289249e-02
      9.09090936e-02 2.23140493e-01 2.47933879e-01 1.57024801e-01
      1.48760334e-01 1.07438013e-01 1.76991150e-02 3.53982300e-02
      7.07964599e-02 4.42477874e-02 2.21238941e-01 1.68141589e-01
      1.06194690e-01 1.85840711e-01 1.50442481e-01 8.40336177e-03
      1.68067235e-02 5.04201688e-02 1.09243698e-01 2.85714298e-01
      2.35294119e-01 1.59663871e-01 7.56302550e-02 5.88235296e-02 0.
      3.25203240e-02 2.43902430e-02 1.78861782e-01 2.76422769e-01
      2.27642283e-01 1.21951222e-01 6.50406480e-02 7.31707290e-02 0.
      1.68067235e-02 2.52100844e-02 1.00840338e-01 1.26050428e-01
      2.18487397e-01 1.42857149e-01 1.34453788e-01 2.35294119e-01 0. 0.
      2.45901644e-02 1.22950822e-01 1.47540987e-01 2.21311480e-01
      2.04918027e-01 1.72131151e-01 1.06557377e-01 1.60000008e-02
      1.60000008e-02 4.80000004e-02 1.12000003e-01 3.12000006e-01
      1.75999999e-01 1.43999994e-01 1.04000002e-01 7.19999969e-02
      1.72413792e-02 3.44827585e-02 1.72413792e-02 1.37931034e-01
      2.84482747e-01 2.32758626e-01 1.12068966e-01 6.89655170e-02
      9.48275849e-02</_>
    <_>
      0. 1.73913036e-02 8.69565178e-03 2.60869563e-02 2.00000003e-01
      2.43478253e-01 9.56521705e-02 1.65217385e-01 2.43478253e-01 0.
      1.58730168e-02 0. 0. 2.38095243e-02 3.17460336e-02 1.11111112e-01
      8.73015895e-02 7.30158746e-01 0. 1.57480314e-02 0. 2.36220472e-02
      4.72440943e-02 1.10236220e-01 1.02362208e-01 8.66141766e-02
      6.14173234e-01 0. 1.62601620e-02 8.13008100e-03 4.06504050e-02
      5.69105707e-02 2.19512194e-01 8.94308910e-02 8.94308910e-02
      4.79674786e-01 8.00000038e-03 0. 8.00000038e-03 1.12000003e-01
      4.88000005e-01 1.84000000e-01 4.80000004e-02 1.19999997e-01
      3.20000015e-02 0. 0. 1.63934417e-02 8.19672123e-02 3.11475396e-01
      3.03278685e-01 1.22950822e-01 5.73770478e-02 1.06557377e-01
      7.93650839e-03 0. 0. 3.96825410e-02 2.06349209e-01 3.57142866e-01
      1.34920642e-01 7.93650821e-02 1.74603179e-01 0. 0. 0.
      5.04201688e-02 3.61344546e-01 2.01680675e-01 1.34453788e-01
      1.17647059e-01 1.34453788e-01 0. 1.65289249e-02 2.47933883e-02
      1.98347107e-01 1.98347107e-01 1.90082639e-01 1.32231399e-01
      1.32231399e-01 1.07438013e-01 8.77192989e-03 8.77192989e-03
      8.77192989e-03 9.64912251e-02 2.98245609e-01 3.15789461e-01
      8.77192989e-02 1.14035085e-01 6.14035092e-02 8.92857183e-03
      8.92857183e-03 4.46428582e-02 8.03571418e-02 3.21428567e-01
      2.05357149e-01 8.92857164e-02 1.33928567e-01 1.07142858e-01 0.
      4.13223132e-02 1.65289249e-02 4.95867766e-02 1.07438013e-01
      1.15702480e-01 9.91735533e-02 2.31404960e-01 3.38842988e-01</_>
    <_>
      8.77192989e-03 0. 4.38596494e-02 7.01754391e-02 4.91228074e-01
      2.19298244e-01 3.50877196e-02 8.77192989e-02 4.38596494e-02
      9.09090880e-03 5.45454547e-02 2.72727273e-02 1.36363640e-01
      2.81818181e-01 3.27272713e-01 7.27272704e-02 4.54545468e-02
      4.54545468e-02 1.13636367e-01 1.25000000e-01 9.09090936e-02
      4.54545468e-02 5.68181835e-02 6.81818202e-02 5.68181835e-02
      2.04545453e-01 2.38636360e-01 1.00000001e-01 1.85714290e-01
      7.14285746e-02 7.14285746e-02 1.42857144e-02 1.42857144e-02
      8.57142881e-02 2.57142872e-01 2.00000003e-01 3.19148935e-02
      7.44680837e-02 8.51063803e-02 5.31914905e-02 3.61702114e-01
      8.51063803e-02 4.25531901e-02 9.57446843e-02 1.70212761e-01 0.
      2.80373823e-02 1.86915882e-02 1.12149529e-01 4.67289716e-01
      1.40186921e-01 8.41121525e-02 9.34579447e-02 5.60747646e-02
      1.88679248e-02 9.43396240e-03 9.43396240e-02 1.41509429e-01
      2.35849053e-01 2.16981128e-01 1.41509429e-01 8.49056616e-02
      5.66037744e-02 1.90476198e-02 4.76190485e-02 3.80952395e-02
      1.52380958e-01 2.00000003e-01 2.09523812e-01 1.42857149e-01
      1.23809524e-01 6.66666701e-02 1.88679248e-02 4.71698120e-02
      5.66037744e-02 2.07547173e-01 1.79245278e-01 2.64150947e-01
      1.03773586e-01 4.71698120e-02 7.54716992e-02 2.91262139e-02
      6.79611638e-02 9.70873795e-03 1.26213595e-01 2.71844655e-01
      2.81553388e-01 4.85436879e-02 7.76699036e-02 8.73786435e-02
      3.88349518e-02 6.79611638e-02 5.82524277e-02 9.70873758e-02
      3.59223306e-01 5.82524277e-02 8.73786435e-02 1.45631075e-01
      8.73786435e-02 3.44827585e-02 5.17241396e-02 0. 1.63793102e-01
      2.67241389e-01 2.67241389e-01 3.44827585e-02 7.75862038e-02
      1.03448279e-01</_>
    <_>
      0. 0. 0. 1.10236220e-01 4.01574790e-01 3.38582665e-01
      1.25984251e-01 1.57480314e-02 7.87401572e-03 0. 0. 0.
      9.52380970e-02 6.19047642e-01 2.22222224e-01 4.76190485e-02 0.
      1.58730168e-02 0. 8.00000038e-03 0. 1.04000002e-01 6.15999997e-01
      2.08000004e-01 3.99999991e-02 1.60000008e-02 8.00000038e-03
      8.69565178e-03 3.47826071e-02 3.47826071e-02 1.73913036e-02
      3.21739137e-01 3.21739137e-01 9.56521705e-02 1.04347825e-01
      6.08695634e-02 0. 0. 0. 6.25000000e-02 5.93750000e-01
      2.57812500e-01 4.68750000e-02 3.12500000e-02 7.81250000e-03 0.
      7.81250000e-03 0. 1.17187500e-01 5.46875000e-01 2.50000000e-01
      5.46875000e-02 7.81250000e-03 1.56250000e-02 0. 3.38983051e-02
      8.47457629e-03 1.01694912e-01 3.22033912e-01 2.96610177e-01
      1.35593221e-01 3.38983051e-02 6.77966103e-02 8.19672085e-03 0.
      8.19672085e-03 5.73770478e-02 5.49180329e-01 1.72131151e-01
      9.01639313e-02 9.83606577e-02 1.63934417e-02 8.00000038e-03
      8.00000038e-03 0. 1.28000006e-01 4.32000011e-01 2.39999995e-01
      4.80000004e-02 8.79999995e-02 4.80000004e-02 8.19672085e-03
      8.19672085e-03 0. 9.01639313e-02 3.03278685e-01 3.44262302e-01
      9.83606577e-02 5.73770478e-02 9.01639313e-02 0. 1.60000008e-02
      1.60000008e-02 5.60000017e-02 6.24000013e-01 1.59999996e-01
      3.99999991e-02 5.60000017e-02 3.20000015e-02 8.47457629e-03
      4.23728824e-02 4.23728824e-02 8.47457647e-02 2.96610177e-01
      2.20338985e-01 8.47457647e-02 1.94915250e-01 2.54237279e-02</_>
    <_>
      2.88461540e-02 1.53846160e-01 4.80769239e-02 1.05769232e-01
      1.25000000e-01 1.63461536e-01 9.61538497e-03 2.11538464e-01
      1.53846160e-01 0. 8.19672085e-03 0. 8.19672123e-02 4.50819671e-01
      3.85245889e-01 1.63934417e-02 3.27868834e-02 2.45901644e-02
      8.19672085e-03 8.19672085e-03 8.19672085e-03 1.55737698e-01
      1.96721315e-01 4.42622960e-01 7.37704933e-02 2.45901644e-02
      8.19672123e-02 1.88679248e-02 4.71698120e-02 9.43396240e-03
      7.54716992e-02 9.43396240e-02 1.98113203e-01 7.54716992e-02
      1.79245278e-01 3.01886797e-01 6.52173907e-02 5.43478243e-02
      4.34782617e-02 2.17391308e-02 2.50000000e-01 9.78260860e-02
      4.34782617e-02 2.39130437e-01 1.84782609e-01 9.80392192e-03
      4.90196086e-02 1.96078438e-02 6.86274543e-02 4.80392158e-01
      8.82352963e-02 6.86274543e-02 1.27450988e-01 8.82352963e-02 0. 0.
      3.30578499e-02 9.91735533e-02 4.46280986e-01 2.64462799e-01
      1.23966940e-01 2.47933883e-02 8.26446246e-03 0. 2.52100844e-02
      4.20168079e-02 1.42857149e-01 2.43697479e-01 1.76470593e-01
      1.51260510e-01 1.59663871e-01 5.88235296e-02 3.99999991e-02
      1.00000001e-01 1.99999996e-02 9.00000036e-02 2.59999990e-01
      1.29999995e-01 1.29999995e-01 1.00000001e-01 1.29999995e-01
      4.44444455e-02 1.00000001e-01 3.33333351e-02 1.00000001e-01
      3.00000012e-01 1.22222222e-01 4.44444455e-02 1.22222222e-01
      1.33333340e-01 1.76991150e-02 1.76991150e-02 0. 1.41592920e-01
      4.33628321e-01 2.30088502e-01 6.19469024e-02 6.19469024e-02
      3.53982300e-02 0. 0. 8.00000038e-03 1.84000000e-01 4.56000000e-01
      1.84000000e-01 1.04000002e-01 6.40000030e-02 0.</_>
    <_>
      2.88461540e-02 1.05769232e-01 2.88461540e-02 4.80769239e-02
      2.11538464e-01 6.73076957e-02 3.84615399e-02 1.15384616e-01
      3.55769217e-01 3.92156877e-02 6.86274543e-02 4.90196086e-02
      1.17647059e-01 3.13725501e-01 1.07843138e-01 6.86274543e-02
      9.80392173e-02 1.37254909e-01 7.50000030e-02 1.12499997e-01
      1.25000002e-02 5.00000007e-02 1.00000001e-01 1.00000001e-01
      3.75000015e-02 3.00000012e-01 2.12500006e-01 3.09278350e-02
      8.24742243e-02 5.15463911e-02 2.06185561e-02 3.91752571e-01
      9.27835032e-02 5.15463911e-02 1.75257728e-01 1.03092782e-01
      3.84615399e-02 1.25000000e-01 2.88461540e-02 5.76923080e-02
      3.75000000e-01 1.15384616e-01 3.84615399e-02 1.25000000e-01
      9.61538479e-02 2.91262139e-02 3.88349518e-02 1.94174759e-02
      3.88349518e-02 8.73786435e-02 1.74757287e-01 1.84466019e-01
      1.94174752e-01 2.33009711e-01 3.15789469e-02 4.21052650e-02
      2.10526325e-02 1.05263159e-01 2.84210533e-01 1.26315787e-01
      1.26315787e-01 1.47368416e-01 1.15789473e-01 2.77777780e-02
      8.33333358e-02 1.85185187e-02 2.77777780e-02 3.61111104e-01
      4.62962948e-02 6.48148134e-02 1.38888896e-01 2.31481478e-01
      1.86915882e-02 1.21495329e-01 1.86915882e-02 9.34579410e-03
      1.30841121e-01 1.40186921e-01 6.54205605e-02 2.42990658e-01
      2.52336442e-01 1.85185187e-02 1.85185187e-02 0. 6.48148134e-02
      1.38888896e-01 1.48148149e-01 1.48148149e-01 1.38888896e-01
      3.24074060e-01 3.92156877e-02 1.07843138e-01 0. 4.90196086e-02
      4.70588237e-01 7.84313753e-02 5.88235296e-02 8.82352963e-02
      1.07843138e-01 3.92156877e-02 5.88235296e-02 3.92156877e-02
      4.90196086e-02 8.82352963e-02 1.47058830e-01 1.66666672e-01
      1.47058830e-01 2.64705896e-01</_>
    <_>
      8.82352963e-02 6.86274543e-02 9.80392192e-03 1.47058830e-01
      3.62745106e-01 1.17647059e-01 3.92156877e-02 7.84313753e-02
      8.82352963e-02 3.66972461e-02 6.42201826e-02 2.75229365e-02
      1.19266056e-01 2.75229365e-01 2.29357794e-01 1.10091746e-01
      8.25688094e-02 5.50458729e-02 6.12244904e-02 1.22448981e-01
      6.12244904e-02 1.22448981e-01 2.65306115e-01 1.22448981e-01
      3.06122452e-02 1.02040820e-01 1.12244897e-01 4.65116277e-02
      8.13953504e-02 6.97674453e-02 6.97674453e-02 3.02325577e-01
      2.32558139e-02 6.97674453e-02 1.74418598e-01 1.62790701e-01
      9.90098994e-03 6.93069324e-02 1.98019799e-02 4.95049506e-02
      1.28712878e-01 1.88118815e-01 1.18811883e-01 1.68316826e-01
      2.47524753e-01 6.89655170e-02 1.14942528e-01 2.29885057e-02
      2.29885057e-02 3.10344815e-01 5.74712642e-02 8.04597735e-02
      1.72413796e-01 1.49425283e-01 1.99999996e-02 7.00000003e-02
      1.19999997e-01 7.99999982e-02 3.40000004e-01 1.00000001e-01
      2.99999993e-02 1.50000006e-01 9.00000036e-02 5.66037744e-02
      1.03773586e-01 5.66037744e-02 1.13207549e-01 3.01886797e-01
      1.32075474e-01 1.88679248e-02 1.50943398e-01 6.60377368e-02
      1.90476198e-02 3.80952395e-02 3.80952395e-02 8.57142881e-02
      9.52380970e-02 9.52380970e-02 1.90476194e-01 2.00000003e-01
      2.38095239e-01 2.70270277e-02 3.60360369e-02 5.40540554e-02
      4.50450443e-02 9.90990996e-02 2.07207203e-01 1.62162155e-01
      1.98198199e-01 1.71171173e-01 7.84313753e-02 6.86274543e-02
      6.86274543e-02 8.82352963e-02 1.76470593e-01 1.07843138e-01
      1.47058830e-01 1.66666672e-01 9.80392173e-02 6.52173907e-02
      9.78260860e-02 4.34782617e-02 8.69565234e-02 2.39130437e-01
      1.19565219e-01 6.52173907e-02 1.52173907e-01 1.30434781e-01</_>
    <_>
      8.69565234e-02 5.43478243e-02 6.52173907e-02 1.63043484e-01
      1.95652172e-01 6.52173907e-02 4.34782617e-02 1.73913047e-01
      1.52173907e-01 8.84955749e-03 8.84955749e-03 4.42477874e-02
      1.94690272e-01 4.24778759e-01 1.50442481e-01 3.53982300e-02
      7.07964599e-02 6.19469024e-02 8.92857183e-03 2.67857146e-02
      6.25000000e-02 1.69642851e-01 3.75000000e-01 1.69642851e-01
      3.57142873e-02 8.92857164e-02 6.25000000e-02 1.14942528e-02
      8.04597735e-02 5.74712642e-02 1.26436785e-01 2.87356317e-01
      1.26436785e-01 4.59770113e-02 1.37931034e-01 1.26436785e-01
      8.40336177e-03 1.68067235e-02 2.52100844e-02 1.42857149e-01
      3.44537824e-01 2.26890758e-01 4.20168079e-02 1.26050428e-01
      6.72268942e-02 1.70940179e-02 8.54700897e-03 8.54700897e-03
      1.70940179e-02 2.56410260e-02 7.69230798e-02 7.69230798e-02
      1.02564104e-01 6.66666687e-01 2.85714287e-02 4.76190485e-02
      9.52380989e-03 4.76190485e-02 4.76190485e-02 1.04761906e-01
      1.04761906e-01 2.38095239e-01 3.71428579e-01 1.81818176e-02 0.
      1.81818176e-02 1.63636357e-01 4.18181807e-01 1.90909088e-01
      9.09090880e-03 1.00000001e-01 8.18181783e-02 4.71698120e-02
      7.54716992e-02 9.43396240e-03 1.41509429e-01 3.96226406e-01
      1.41509429e-01 4.71698120e-02 7.54716992e-02 6.60377368e-02
      1.92307699e-02 5.76923080e-02 5.76923080e-02 5.76923080e-02
      2.88461536e-01 1.25000000e-01 4.80769239e-02 1.63461536e-01
      1.82692304e-01 3.92156877e-02 6.86274543e-02 2.94117648e-02
      1.37254909e-01 3.23529422e-01 1.47058830e-01 6.86274543e-02
      6.86274543e-02 1.17647059e-01 7.84313753e-02 4.90196086e-02
      9.80392192e-03 1.66666672e-01 4.21568632e-01 1.17647059e-01
      2.94117648e-02 8.82352963e-02 3.92156877e-02</_>
    <_>
      3.88349518e-02 6.79611638e-02 3.88349518e-02 7.76699036e-02
      1.94174752e-01 1.16504855e-01 1.06796116e-01 1.06796116e-01
      2.52427191e-01 5.37634417e-02 1.07526883e-01 5.37634417e-02
      7.52688199e-02 2.04301074e-01 8.60215053e-02 9.67741907e-02
      1.61290318e-01 1.61290318e-01 2.04081628e-02 4.08163257e-02
      5.10204099e-02 6.12244904e-02 2.04081640e-01 1.53061226e-01
      1.02040820e-01 1.53061226e-01 2.14285716e-01 4.25531901e-02
      3.19148935e-02 3.19148935e-02 8.51063803e-02 1.70212761e-01
      5.31914905e-02 1.17021278e-01 1.27659574e-01 3.40425521e-01
      9.19540226e-02 1.14942528e-01 3.44827585e-02 4.59770113e-02
      1.95402294e-01 1.03448279e-01 5.74712642e-02 1.37931034e-01
      2.18390808e-01 3.60360369e-02 1.80180185e-02 2.70270277e-02
      3.60360369e-02 2.79279292e-01 9.00900885e-02 1.08108111e-01
      1.26126125e-01 2.79279292e-01 5.10204099e-02 3.06122452e-02
      1.02040814e-02 1.32653058e-01 2.34693885e-01 1.93877548e-01
      8.16326514e-02 1.12244897e-01 1.53061226e-01 6.18556701e-02
      1.03092782e-01 7.21649453e-02 8.24742243e-02 1.34020612e-01
      7.21649453e-02 1.23711340e-01 1.44329891e-01 2.06185564e-01
      3.19148935e-02 4.25531901e-02 2.12765951e-02 7.44680837e-02
      2.44680852e-01 1.38297871e-01 4.25531901e-02 1.80851057e-01
      2.23404258e-01 4.39560451e-02 7.69230798e-02 4.39560451e-02
      9.89011005e-02 1.75824180e-01 1.09890111e-01 4.39560451e-02
      1.97802201e-01 2.08791211e-01 5.68181835e-02 1.25000000e-01
      4.54545468e-02 1.02272727e-01 1.13636367e-01 4.54545468e-02
      7.95454532e-02 1.81818187e-01 2.50000000e-01 5.26315793e-02
      5.26315793e-02 2.10526325e-02 8.42105299e-02 1.57894731e-01
      1.05263159e-01 5.26315793e-02 2.52631575e-01 2.21052632e-01</_>
    <_>
      2.60869563e-02 0. 1.73913036e-02 1.21739127e-01 3.39130431e-01
      2.78260857e-01 8.69565234e-02 8.69565234e-02 4.34782617e-02
      3.77358496e-02 2.83018872e-02 4.71698120e-02 1.22641511e-01
      3.01886797e-01 2.45283023e-01 7.54716992e-02 7.54716992e-02
      6.60377368e-02 3.40909101e-02 1.36363640e-01 5.68181835e-02
      4.54545468e-02 2.72727281e-01 6.81818202e-02 9.09090936e-02
      1.47727266e-01 1.47727266e-01 4.49438207e-02 1.46067411e-01
      3.37078646e-02 7.86516890e-02 2.92134821e-01 7.86516890e-02
      1.12359552e-02 1.91011235e-01 1.23595506e-01 0. 3.33333351e-02
      3.33333351e-02 1.00000001e-01 1.50000006e-01 3.08333337e-01
      1.25000000e-01 1.33333340e-01 1.16666667e-01 0. 2.43902430e-02
      4.87804860e-02 1.46341458e-01 2.27642283e-01 2.76422769e-01
      1.54471546e-01 5.69105707e-02 6.50406480e-02 0. 8.47457629e-03
      5.08474559e-02 1.10169493e-01 4.74576265e-01 1.77966103e-01
      1.18644066e-01 4.23728824e-02 1.69491526e-02 6.12244904e-02
      8.16326514e-02 3.06122452e-02 6.12244904e-02 4.08163279e-01
      6.12244904e-02 6.12244904e-02 1.02040820e-01 1.32653058e-01 0. 0.
      0. 1.69491526e-02 3.38983051e-02 1.61016956e-01 1.10169493e-01
      1.35593221e-01 5.42372882e-01 0. 1.68067235e-02 2.52100844e-02
      5.04201688e-02 1.76470593e-01 4.70588237e-01 7.56302550e-02
      3.36134471e-02 1.51260510e-01 7.81250000e-03 0. 0. 5.46875000e-02
      3.04687500e-01 5.54687500e-01 3.12500000e-02 2.34375000e-02
      2.34375000e-02 0. 2.41935477e-02 8.06451589e-03 5.64516112e-02
      5.08064508e-01 2.58064508e-01 0. 6.45161271e-02 8.06451589e-02</_>
    <_>
      1.86915882e-02 6.54205605e-02 3.73831764e-02 4.67289723e-02
      3.17757010e-01 2.14953274e-01 2.80373823e-02 1.77570090e-01
      9.34579447e-02 3.06122452e-02 7.14285746e-02 6.12244904e-02
      1.73469394e-01 2.44897962e-01 1.53061226e-01 7.14285746e-02
      7.14285746e-02 1.22448981e-01 1.80180185e-02 7.20720738e-02
      3.60360369e-02 1.26126125e-01 3.33333343e-01 1.62162155e-01
      9.90990996e-02 7.20720738e-02 8.10810775e-02 1.78571437e-02
      5.35714291e-02 5.35714291e-02 1.07142858e-01 2.32142851e-01
      2.41071433e-01 8.03571418e-02 1.42857149e-01 7.14285746e-02
      3.77358496e-02 2.83018872e-02 9.43396240e-03 1.41509429e-01
      4.52830195e-01 9.43396240e-02 2.83018872e-02 1.22641511e-01
      8.49056616e-02 2.58620698e-02 3.44827585e-02 5.17241396e-02
      1.20689653e-01 3.62068951e-01 1.72413796e-01 9.48275849e-02
      7.75862038e-02 6.03448264e-02 0. 0. 3.25203240e-02 1.05691060e-01
      1.70731708e-01 2.11382121e-01 2.03252032e-01 1.21951222e-01
      1.54471546e-01 8.54700897e-03 2.56410260e-02 0. 5.12820520e-02
      1.19658120e-01 2.56410271e-01 8.54700878e-02 1.02564104e-01
      3.50427359e-01 0. 8.40336177e-03 3.36134471e-02 1.42857149e-01
      3.02521020e-01 3.19327742e-01 5.04201688e-02 8.40336159e-02
      5.88235296e-02 3.06122452e-02 5.10204099e-02 5.10204099e-02
      6.12244904e-02 3.16326529e-01 1.83673471e-01 1.12244897e-01
      8.16326514e-02 1.12244897e-01 3.50877196e-02 2.63157897e-02
      1.75438598e-02 4.38596494e-02 9.64912251e-02 2.10526317e-01
      1.66666672e-01 1.14035085e-01 2.89473683e-01 8.33333377e-03 0. 0.
      3.33333351e-02 0. 8.33333358e-02 5.00000007e-02 1.25000000e-01
      6.99999988e-01</_>
    <_>
      8.84955749e-03 4.42477874e-02 1.76991150e-02 4.42477874e-02
      7.96460211e-02 9.73451361e-02 8.84955749e-02 2.47787610e-01
      3.71681422e-01 0. 8.54700897e-03 1.70940179e-02 1.02564104e-01
      2.90598303e-01 2.82051295e-01 1.53846160e-01 7.69230798e-02
      6.83760718e-02 7.93650839e-03 0. 7.93650839e-03 6.34920672e-02
      4.28571433e-01 4.04761910e-01 2.38095243e-02 3.96825410e-02
      2.38095243e-02 0. 2.54237279e-02 0. 8.47457647e-02 5.33898294e-01
      2.37288132e-01 0. 5.08474559e-02 6.77966103e-02 0. 2.47933883e-02
      2.47933883e-02 8.26446265e-02 1.73553720e-01 3.30578506e-01
      1.65289253e-01 9.91735533e-02 9.91735533e-02 0. 8.47457629e-03
      5.08474559e-02 1.69491529e-01 2.62711853e-01 2.88135588e-01
      1.18644066e-01 4.23728824e-02 5.93220331e-02 8.54700897e-03
      8.54700897e-03 3.41880359e-02 1.45299152e-01 4.70085472e-01
      2.05128208e-01 8.54700878e-02 2.56410260e-02 1.70940179e-02
      3.84615399e-02 8.65384638e-02 0. 2.88461540e-02 4.90384609e-01
      1.25000000e-01 2.88461540e-02 7.69230798e-02 1.25000000e-01
      3.50877196e-02 1.75438598e-02 2.63157897e-02 1.66666672e-01
      3.59649122e-01 2.01754391e-01 7.89473653e-02 6.14035092e-02
      5.26315793e-02 1.88679248e-02 3.77358496e-02 8.49056616e-02
      1.50943398e-01 3.01886797e-01 1.41509429e-01 5.66037744e-02
      9.43396240e-02 1.13207549e-01 2.99999993e-02 9.00000036e-02
      1.99999996e-02 1.29999995e-01 2.70000011e-01 1.40000001e-01
      1.09999999e-01 1.29999995e-01 7.99999982e-02 4.25531901e-02
      7.44680837e-02 5.31914905e-02 6.38297871e-02 3.51063818e-01
      1.06382981e-01 1.17021278e-01 7.44680837e-02 1.17021278e-01</_>
    <_>
      6.74157292e-02 1.57303378e-01 1.12359552e-02 1.46067411e-01
      2.69662917e-01 0. 6.74157292e-02 1.46067411e-01 1.34831458e-01
      4.25531901e-02 1.06382981e-01 4.25531901e-02 1.59574464e-01
      2.65957445e-01 1.17021278e-01 4.25531901e-02 1.06382981e-01
      1.17021278e-01 4.30107526e-02 7.52688199e-02 2.15053763e-02
      1.18279569e-01 3.33333343e-01 1.07526883e-01 2.15053763e-02
      1.82795703e-01 9.67741907e-02 5.50458729e-02 0. 3.66972461e-02
      1.74311921e-01 3.48623842e-01 1.74311921e-01 9.17431153e-03
      8.25688094e-02 1.19266056e-01 1.11111112e-01 1.11111112e-01
      6.94444478e-02 2.77777780e-02 1.66666672e-01 6.94444478e-02
      2.77777780e-02 1.11111112e-01 3.05555552e-01 1.96078438e-02
      6.86274543e-02 1.96078438e-02 8.82352963e-02 4.01960790e-01
      1.17647059e-01 6.86274543e-02 1.27450988e-01 8.82352963e-02
      5.99999987e-02 7.99999982e-02 7.99999982e-02 1.09999999e-01
      2.19999999e-01 1.89999998e-01 7.99999982e-02 7.99999982e-02
      1.00000001e-01 4.04040404e-02 7.07070678e-02 5.05050495e-02
      1.51515156e-01 1.81818187e-01 1.91919193e-01 1.21212125e-01
      9.09090936e-02 1.01010099e-01 2.83018872e-02 3.77358496e-02
      4.71698120e-02 8.49056616e-02 3.20754707e-01 2.54716992e-01
      1.88679248e-02 1.32075474e-01 7.54716992e-02 8.13008100e-03
      8.13008100e-03 3.25203240e-02 1.46341458e-01 3.73983741e-01
      3.17073166e-01 6.50406480e-02 4.06504050e-02 8.13008100e-03
      8.43373463e-02 1.20481931e-01 7.22891539e-02 1.20481931e-01
      3.61445770e-02 7.22891539e-02 9.63855386e-02 2.16867477e-01
      1.80722892e-01 1.05882354e-01 1.05882354e-01 3.52941193e-02
      2.35294122e-02 1.17647061e-02 1.05882354e-01 1.05882354e-01
      2.58823544e-01 2.47058824e-01</_>
    <_>
      2.72727273e-02 3.63636352e-02 1.81818176e-02 1.00000001e-01
      3.63636374e-01 2.00000003e-01 1.81818176e-02 9.09090936e-02
      1.45454541e-01 2.88461540e-02 2.88461540e-02 3.84615399e-02
      9.61538479e-02 4.03846145e-01 1.63461536e-01 2.88461540e-02
      7.69230798e-02 1.34615391e-01 1.92307699e-02 5.76923080e-02
      8.65384638e-02 1.34615391e-01 3.84615391e-01 1.05769232e-01
      1.92307699e-02 5.76923080e-02 1.34615391e-01 3.15789469e-02
      1.05263159e-01 1.05263159e-01 1.36842102e-01 1.89473689e-01
      6.31578937e-02 1.15789473e-01 1.15789473e-01 1.36842102e-01
      2.99999993e-02 7.00000003e-02 5.00000007e-02 1.80000007e-01
      1.29999995e-01 1.70000002e-01 1.09999999e-01 1.19999997e-01
      1.40000001e-01 4.04040404e-02 6.06060624e-02 6.06060624e-02
      1.41414136e-01 2.12121218e-01 1.91919193e-01 8.08080807e-02
      1.31313130e-01 8.08080807e-02 1.73913036e-02 2.60869563e-02
      5.21739125e-02 1.21739127e-01 3.82608682e-01 1.65217385e-01
      1.91304341e-01 3.47826071e-02 8.69565178e-03 6.31578937e-02
      8.42105299e-02 5.26315793e-02 3.15789469e-02 3.05263162e-01
      4.21052650e-02 4.21052650e-02 1.57894731e-01 2.21052632e-01
      1.48648649e-01 9.45945978e-02 4.05405387e-02 4.05405387e-02
      2.70270277e-02 4.05405387e-02 5.40540554e-02 3.10810804e-01
      2.43243247e-01 4.16666679e-02 1.14583336e-01 4.16666679e-02
      1.04166664e-01 1.25000000e-01 1.56250000e-01 1.14583336e-01
      2.18750000e-01 8.33333358e-02 0. 3.44827585e-02 3.44827585e-02
      1.12068966e-01 2.15517238e-01 3.79310340e-01 7.75862038e-02
      8.62068981e-02 6.03448264e-02 1.81818176e-02 1.18181817e-01
      1.81818176e-02 6.36363626e-02 3.18181813e-01 1.81818187e-01
      5.45454547e-02 1.45454541e-01 8.18181783e-02</_>
    <_>
      6.97674453e-02 1.62790701e-01 2.32558139e-02 5.81395365e-02
      3.48837197e-01 4.65116277e-02 2.32558139e-02 1.51162788e-01
      1.16279073e-01 8.86075944e-02 5.06329127e-02 2.53164563e-02
      1.26582280e-01 3.29113930e-01 1.39240503e-01 1.26582282e-02
      1.01265825e-01 1.26582280e-01 1.83486231e-02 2.75229365e-02
      3.66972461e-02 1.28440365e-01 3.39449555e-01 1.92660555e-01
      9.17431191e-02 9.17431191e-02 7.33944923e-02 0. 2.54237279e-02
      3.38983051e-02 1.44067794e-01 2.96610177e-01 2.20338985e-01
      6.77966103e-02 1.44067794e-01 6.77966103e-02 2.02020202e-02
      9.09090936e-02 3.03030312e-02 2.02020202e-02 4.84848499e-01
      7.07070678e-02 5.05050495e-02 1.41414136e-01 9.09090936e-02 0.
      4.13223132e-02 3.30578499e-02 1.07438013e-01 3.22314054e-01
      1.98347107e-01 1.81818187e-01 6.61156997e-02 4.95867766e-02
      8.33333377e-03 0. 4.16666679e-02 1.16666667e-01 2.75000006e-01
      2.33333334e-01 1.50000006e-01 1.16666667e-01 5.83333336e-02
      8.69565178e-03 4.34782617e-02 2.60869563e-02 1.21739127e-01
      1.47826090e-01 2.86956519e-01 8.69565234e-02 1.47826090e-01
      1.30434781e-01 8.62068962e-03 3.44827585e-02 8.62068962e-03
      5.17241396e-02 4.48275864e-01 2.32758626e-01 1.72413792e-02
      1.12068966e-01 8.62068981e-02 0. 2.43902430e-02 1.62601620e-02
      7.31707290e-02 2.03252032e-01 3.73983741e-01 8.13008100e-02
      1.30081296e-01 9.75609720e-02 0. 0. 1.65289249e-02 1.07438013e-01
      1.65289253e-01 2.56198347e-01 1.90082639e-01 1.57024801e-01
      1.07438013e-01 1.88679248e-02 1.88679248e-02 9.43396240e-03
      6.60377368e-02 3.77358496e-02 9.43396240e-02 1.69811323e-01
      1.41509429e-01 4.43396240e-01</_>
    <_>
      4.25531901e-02 1.17021278e-01 5.31914905e-02 2.12765951e-02
      8.51063803e-02 9.57446843e-02 1.17021278e-01 1.91489369e-01
      2.76595742e-01 4.08163257e-02 3.06122452e-02 5.10204099e-02
      9.18367356e-02 1.73469394e-01 1.53061226e-01 1.12244897e-01
      2.04081640e-01 1.42857149e-01 9.00900923e-03 1.80180185e-02
      6.30630627e-02 1.35135129e-01 3.33333343e-01 1.98198199e-01
      1.08108111e-01 8.10810775e-02 5.40540554e-02 0. 1.39130428e-01
      4.34782617e-02 1.30434781e-01 3.04347813e-01 1.73913047e-01
      7.82608688e-02 7.82608688e-02 5.21739125e-02 2.99999993e-02
      3.99999991e-02 2.99999993e-02 9.00000036e-02 2.09999993e-01
      1.09999999e-01 1.09999999e-01 1.80000007e-01 2.00000003e-01
      2.94117648e-02 6.86274543e-02 7.84313753e-02 1.37254909e-01
      1.47058830e-01 1.27450988e-01 1.17647059e-01 1.47058830e-01
      1.47058830e-01 1.68067235e-02 8.40336177e-03 4.20168079e-02
      4.20168079e-02 4.78991598e-01 2.43697479e-01 5.04201688e-02
      6.72268942e-02 5.04201688e-02 0. 1.03174604e-01 2.38095243e-02
      1.03174604e-01 5.95238090e-01 1.34920642e-01 1.58730168e-02
      7.93650839e-03 1.58730168e-02 5.82524277e-02 1.16504855e-01
      5.82524277e-02 8.73786435e-02 1.16504855e-01 5.82524277e-02
      1.16504855e-01 1.55339807e-01 2.33009711e-01 9.80392192e-03
      1.96078438e-02 1.96078438e-02 8.82352963e-02 4.31372553e-01
      5.88235296e-02 7.84313753e-02 7.84313753e-02 2.15686277e-01 0.
      1.58730168e-02 7.93650839e-03 1.98412701e-01 5.79365075e-01
      1.19047619e-01 6.34920672e-02 7.93650839e-03 7.93650839e-03 0. 0.
      2.45901644e-02 5.73770478e-02 7.37704933e-02 2.13114753e-01
      1.06557377e-01 1.63934425e-01 3.60655725e-01</_>
    <_>
      1.78571437e-02 9.82142836e-02 1.78571437e-02 1.42857149e-01
      3.83928567e-01 2.05357149e-01 5.35714291e-02 8.03571418e-02 0.
      1.94174759e-02 2.91262139e-02 5.82524277e-02 2.03883499e-01
      2.52427191e-01 1.94174752e-01 2.91262139e-02 1.55339807e-01
      5.82524277e-02 2.91262139e-02 6.79611638e-02 8.73786435e-02
      1.26213595e-01 2.71844655e-01 1.45631075e-01 9.70873758e-02
      7.76699036e-02 9.70873758e-02 2.65486725e-02 5.30973449e-02
      7.07964599e-02 1.85840711e-01 2.56637156e-01 2.12389380e-01
      4.42477874e-02 8.84955749e-02 6.19469024e-02 3.66972461e-02
      1.46788985e-01 2.75229365e-02 3.66972461e-02 3.57798159e-01
      1.00917429e-01 7.33944923e-02 1.19266056e-01 1.00917429e-01
      3.52941193e-02 1.29411772e-01 5.88235296e-02 7.05882385e-02
      1.88235298e-01 1.29411772e-01 7.05882385e-02 2.23529413e-01
      9.41176489e-02 1.81818176e-02 8.18181783e-02 1.81818176e-02
      1.27272725e-01 3.27272713e-01 1.63636357e-01 4.54545468e-02
      1.09090909e-01 1.09090909e-01 1.72413792e-02 1.72413792e-02
      3.44827585e-02 1.81034476e-01 2.58620679e-01 2.67241389e-01
      5.17241396e-02 1.03448279e-01 6.89655170e-02 5.99999987e-02
      5.99999987e-02 1.99999996e-02 1.00000001e-01 3.19999993e-01
      1.89999998e-01 3.99999991e-02 1.19999997e-01 9.00000036e-02 0.
      1.66666675e-02 3.33333351e-02 1.58333331e-01 3.08333337e-01
      2.83333331e-01 1.00000001e-01 7.50000030e-02 2.50000004e-02 0. 0.
      1.58730168e-02 5.55555560e-02 3.57142866e-01 2.53968269e-01
      9.52380970e-02 8.73015895e-02 1.34920642e-01 0. 8.47457629e-03
      3.38983051e-02 5.93220331e-02 1.69491529e-01 2.45762706e-01
      9.32203382e-02 1.18644066e-01 2.71186441e-01</_>
    <_>
      3.57142873e-02 8.92857183e-03 2.67857146e-02 1.16071425e-01
      3.03571433e-01 1.87500000e-01 1.07142858e-01 1.07142858e-01
      1.07142858e-01 2.88461540e-02 2.88461540e-02 1.92307699e-02
      9.61538479e-02 1.92307696e-01 1.15384616e-01 1.44230768e-01
      1.53846160e-01 2.21153840e-01 2.94117648e-02 7.84313753e-02
      7.84313753e-02 7.84313753e-02 2.74509817e-01 1.07843138e-01
      7.84313753e-02 1.56862751e-01 1.17647059e-01 3.88349518e-02
      3.88349518e-02 2.91262139e-02 1.26213595e-01 1.26213595e-01
      1.16504855e-01 1.45631075e-01 2.33009711e-01 1.45631075e-01
      8.33333377e-03 4.16666679e-02 3.33333351e-02 7.50000030e-02
      1.25000000e-01 1.66666672e-01 1.74999997e-01 1.66666672e-01
      2.08333328e-01 8.54700897e-03 8.54700897e-03 3.41880359e-02
      1.19658120e-01 3.24786335e-01 1.79487184e-01 1.28205135e-01
      6.83760718e-02 1.28205135e-01 1.68067235e-02 7.56302550e-02
      5.04201688e-02 5.04201688e-02 1.42857149e-01 2.18487397e-01
      1.51260510e-01 1.42857149e-01 1.51260510e-01 3.33333351e-02
      2.50000004e-02 8.33333377e-03 7.50000030e-02 4.66666669e-01
      1.25000000e-01 4.16666679e-02 1.33333340e-01 9.16666687e-02
      8.54700897e-03 2.56410260e-02 8.54700897e-03 4.27350439e-02
      6.83760718e-02 3.07692319e-01 8.54700878e-02 1.45299152e-01
      3.07692319e-01 1.73913036e-02 6.08695634e-02 8.69565178e-03
      6.95652142e-02 7.82608688e-02 1.21739127e-01 1.47826090e-01
      2.34782606e-01 2.60869563e-01 0. 1.70940179e-02 8.54700897e-03
      9.40170959e-02 2.90598303e-01 2.90598303e-01 8.54700878e-02
      1.28205135e-01 8.54700878e-02 9.34579410e-03 5.60747646e-02
      2.80373823e-02 3.73831764e-02 2.42990658e-01 2.52336442e-01
      5.60747646e-02 1.49532706e-01 1.68224305e-01</_>
    <_>
      1.66666675e-02 0. 1.66666675e-02 4.16666679e-02 2.50000004e-02
      1.33333340e-01 1.66666672e-01 2.16666669e-01 3.83333325e-01
      9.17431153e-03 1.83486231e-02 3.66972461e-02 2.75229365e-02
      1.28440365e-01 2.38532111e-01 1.55963302e-01 1.65137619e-01
      2.20183492e-01 8.54700897e-03 0. 1.70940179e-02 1.28205135e-01
      2.56410271e-01 2.99145311e-01 7.69230798e-02 1.36752144e-01
      7.69230798e-02 1.88679248e-02 2.83018872e-02 2.83018872e-02
      1.22641511e-01 3.77358496e-01 2.92452842e-01 2.83018872e-02
      6.60377368e-02 3.77358496e-02 8.69565178e-03 1.73913036e-02
      3.47826071e-02 3.47826071e-02 3.13043475e-01 2.17391297e-01
      1.21739127e-01 1.04347825e-01 1.47826090e-01 0. 0. 0.
      1.10236220e-01 6.92913413e-01 1.25984251e-01 3.93700786e-02
      3.14960629e-02 0. 1.76991150e-02 3.53982300e-02 3.53982300e-02
      1.15044251e-01 2.74336278e-01 2.12389380e-01 8.84955749e-02
      8.84955749e-02 1.32743359e-01 3.09278350e-02 8.24742243e-02
      3.09278350e-02 1.44329891e-01 1.54639170e-01 1.03092782e-01
      1.13402061e-01 2.16494843e-01 1.23711340e-01 1.61290318e-02
      6.45161271e-02 0. 1.20967738e-01 5.64516127e-01 1.45161286e-01
      3.22580636e-02 3.22580636e-02 2.41935477e-02 1.60000008e-02
      4.80000004e-02 8.00000038e-03 7.19999969e-02 2.80000001e-01
      1.19999997e-01 9.60000008e-02 9.60000008e-02 2.63999999e-01
      1.12359552e-02 6.74157292e-02 3.37078646e-02 1.01123594e-01
      2.80898869e-01 1.23595506e-01 6.74157292e-02 7.86516890e-02
      2.35955060e-01 2.77777780e-02 2.77777780e-02 3.70370373e-02
      1.20370373e-01 5.09259284e-01 6.48148134e-02 5.55555560e-02
      7.40740746e-02 8.33333358e-02</_>
    <_>
      4.34782617e-02 1.08695649e-01 5.43478243e-02 7.60869533e-02
      1.95652172e-01 6.52173907e-02 1.08695654e-02 2.17391297e-01
      2.28260875e-01 2.58620698e-02 2.58620698e-02 2.58620698e-02
      7.75862038e-02 4.31034476e-01 1.63793102e-01 6.89655170e-02
      6.03448264e-02 1.20689653e-01 0. 1.65289249e-02 5.78512400e-02
      1.40495867e-01 2.14876026e-01 6.61156997e-02 2.06611574e-01
      1.48760334e-01 1.48760334e-01 0. 3.36134471e-02 1.68067235e-02
      1.00840338e-01 2.35294119e-01 2.10084036e-01 7.56302550e-02
      1.76470593e-01 1.51260510e-01 8.62068962e-03 1.72413792e-02
      3.44827585e-02 1.55172408e-01 2.06896558e-01 2.41379306e-01
      5.17241396e-02 1.12068966e-01 1.72413796e-01 2.94117648e-02
      3.92156877e-02 2.94117648e-02 5.88235296e-02 1.17647059e-01
      1.47058830e-01 9.80392173e-02 2.64705896e-01 2.15686277e-01 0.
      4.34782617e-02 4.34782617e-02 1.04347825e-01 2.00000003e-01
      2.17391297e-01 1.65217385e-01 1.21739127e-01 1.04347825e-01
      2.12765951e-02 8.51063803e-02 4.25531901e-02 7.44680837e-02
      3.72340411e-01 1.06382981e-01 3.19148935e-02 1.06382981e-01
      1.59574464e-01 2.80373823e-02 4.67289723e-02 9.34579447e-02
      6.54205605e-02 2.14953274e-01 1.49532706e-01 1.30841121e-01
      3.73831764e-02 2.33644858e-01 6.12244904e-02 5.10204099e-02
      3.06122452e-02 9.18367356e-02 2.75510192e-01 1.22448981e-01
      7.14285746e-02 1.73469394e-01 1.22448981e-01 3.65853645e-02
      6.09756112e-02 9.75609720e-02 8.53658542e-02 1.34146348e-01
      1.21951222e-01 8.53658542e-02 1.46341458e-01 2.31707320e-01
      4.54545468e-02 6.81818202e-02 1.02272727e-01 7.95454532e-02
      7.95454532e-02 9.09090936e-02 1.13636367e-01 2.04545453e-01
      2.15909094e-01</_>
    <_>
      6.45161271e-02 5.37634417e-02 1.07526882e-02 4.30107526e-02
      1.82795703e-01 1.50537640e-01 1.07526883e-01 2.15053767e-01
      1.72043011e-01 5.00000007e-02 1.09999999e-01 3.99999991e-02
      7.00000003e-02 2.70000011e-01 1.40000001e-01 5.99999987e-02
      1.00000001e-01 1.59999996e-01 2.17391308e-02 1.52173907e-01
      3.26086953e-02 6.52173907e-02 8.69565234e-02 1.08695649e-01
      1.08695649e-01 1.84782609e-01 2.39130437e-01 6.25000000e-02
      1.25000000e-01 2.08333340e-02 3.12500000e-02 3.95833343e-01
      3.12500000e-02 4.16666679e-02 1.66666672e-01 1.25000000e-01
      4.67289723e-02 1.12149529e-01 0. 1.86915882e-02 4.39252347e-01
      1.12149529e-01 2.80373823e-02 1.68224305e-01 7.47663528e-02
      2.06185561e-02 5.15463911e-02 4.12371121e-02 3.09278350e-02
      5.15463911e-02 1.23711340e-01 1.23711340e-01 1.95876285e-01
      3.60824734e-01 5.05050495e-02 1.21212125e-01 0. 6.06060624e-02
      2.92929292e-01 3.03030312e-02 8.08080807e-02 1.31313130e-01
      2.32323229e-01 2.94117648e-02 4.90196086e-02 0. 4.90196086e-02
      3.33333343e-01 1.17647059e-01 8.82352963e-02 1.76470593e-01
      1.56862751e-01 1.83486231e-02 8.25688094e-02 1.83486231e-02
      5.50458729e-02 1.37614682e-01 1.92660555e-01 6.42201826e-02
      2.01834857e-01 2.29357794e-01 2.15053763e-02 6.45161271e-02
      3.22580636e-02 3.22580636e-02 1.50537640e-01 1.39784947e-01
      9.67741907e-02 1.93548381e-01 2.68817216e-01 4.95049506e-02
      4.95049506e-02 3.96039598e-02 4.95049506e-02 4.55445558e-01
      3.96039598e-02 7.92079195e-02 1.48514852e-01 8.91089141e-02
      3.63636352e-02 5.45454547e-02 9.09090880e-03 8.18181783e-02
      1.45454541e-01 1.18181817e-01 1.09090909e-01 1.72727272e-01
      2.72727281e-01</_>
    <_>
      1.99999996e-02 9.00000036e-02 2.99999993e-02 1.99999996e-02
      1.59999996e-01 1.59999996e-01 3.99999991e-02 2.30000004e-01
      2.50000000e-01 7.52688199e-02 8.60215053e-02 4.30107526e-02
      1.07526882e-02 4.08602148e-01 6.45161271e-02 5.37634417e-02
      1.29032254e-01 1.29032254e-01 6.74157292e-02 8.98876414e-02
      7.86516890e-02 1.23595506e-01 1.23595506e-01 1.01123594e-01
      7.86516890e-02 1.79775283e-01 1.57303378e-01 6.86274543e-02
      7.84313753e-02 9.80392192e-03 1.07843138e-01 3.92156869e-01
      1.37254909e-01 3.92156877e-02 7.84313753e-02 8.82352963e-02
      3.70370373e-02 1.29629627e-01 5.55555560e-02 8.33333358e-02
      3.98148149e-01 2.77777780e-02 3.70370373e-02 1.48148149e-01
      8.33333358e-02 4.58715595e-02 8.25688094e-02 1.83486231e-02
      8.25688094e-02 4.31192666e-01 1.65137619e-01 1.10091746e-01
      3.66972461e-02 2.75229365e-02 8.84955749e-03 3.53982300e-02
      1.15044251e-01 1.59292042e-01 4.24778759e-01 6.19469024e-02
      6.19469024e-02 7.96460211e-02 5.30973449e-02 2.10526325e-02
      7.36842081e-02 6.31578937e-02 1.05263159e-01 1.57894731e-01
      7.36842081e-02 1.68421060e-01 1.15789473e-01 2.21052632e-01
      6.74157292e-02 1.23595506e-01 2.24719103e-02 3.37078646e-02
      1.68539330e-01 1.12359554e-01 6.74157292e-02 1.79775283e-01
      2.24719107e-01 4.21052650e-02 9.47368443e-02 0. 6.31578937e-02
      3.36842120e-01 1.47368416e-01 4.21052650e-02 1.15789473e-01
      1.57894731e-01 3.12500000e-02 9.37500000e-02 1.04166670e-02
      1.45833328e-01 1.66666672e-01 1.56250000e-01 8.33333358e-02
      1.87500000e-01 1.25000000e-01 2.58620698e-02 5.17241396e-02
      2.58620698e-02 2.58620698e-02 1.03448279e-01 2.58620679e-01
      7.75862038e-02 1.46551728e-01 2.84482747e-01</_>
    <_>
      0. 8.00000038e-03 0. 0. 8.79999995e-02 2.08000004e-01
      3.99999991e-02 9.60000008e-02 5.60000002e-01 0. 0. 0. 0. 0. 0. 0.
      0. 1. 0. 1.60000008e-02 0. 8.00000038e-03 2.40000002e-02
      3.99999991e-02 6.40000030e-02 6.40000030e-02 7.83999979e-01 0.
      8.00000038e-03 8.00000038e-03 3.99999991e-02 3.99999991e-02
      1.51999995e-01 1.12000003e-01 1.92000002e-01 4.48000014e-01 0. 0.
      2.40000002e-02 8.79999995e-02 4.79999989e-01 1.84000000e-01
      4.80000004e-02 1.04000002e-01 7.19999969e-02 0. 1.65289249e-02
      1.65289249e-02 4.13223132e-02 9.91735533e-02 3.05785120e-01
      1.57024801e-01 1.48760334e-01 2.14876026e-01 0. 0. 8.06451589e-03
      8.06451589e-02 8.87096748e-02 2.50000000e-01 1.77419350e-01
      1.61290318e-01 2.33870968e-01 8.26446246e-03 1.65289249e-02
      1.65289249e-02 4.95867766e-02 1.65289253e-01 1.90082639e-01
      1.98347107e-01 1.73553720e-01 1.81818187e-01 2.80373823e-02
      1.86915882e-02 4.67289723e-02 7.47663528e-02 2.52336442e-01
      2.33644858e-01 1.02803737e-01 9.34579447e-02 1.49532706e-01 0.
      4.13223132e-02 1.65289249e-02 1.07438013e-01 3.22314054e-01
      2.72727281e-01 9.91735533e-02 7.43801668e-02 6.61156997e-02
      8.92857183e-03 3.57142873e-02 4.46428582e-02 1.60714284e-01
      2.14285716e-01 1.60714284e-01 1.25000000e-01 1.60714284e-01
      8.92857164e-02 1.78571437e-02 4.46428582e-02 1.78571437e-02
      8.03571418e-02 1.96428567e-01 1.69642851e-01 1.07142858e-01
      8.92857164e-02 2.76785702e-01</_>
    <_>
      0. 3.09278350e-02 7.21649453e-02 6.18556701e-02 3.29896897e-01
      9.27835032e-02 7.21649453e-02 1.54639170e-01 1.85567006e-01
      6.31578937e-02 8.42105299e-02 3.15789469e-02 8.42105299e-02
      3.47368419e-01 5.26315793e-02 6.31578937e-02 1.47368416e-01
      1.26315787e-01 5.31914905e-02 8.51063803e-02 3.19148935e-02
      1.27659574e-01 2.44680852e-01 1.48936167e-01 1.06382981e-01
      1.06382981e-01 9.57446843e-02 6.74157292e-02 1.01123594e-01
      2.24719103e-02 1.46067411e-01 2.35955060e-01 1.23595506e-01
      6.74157292e-02 1.34831458e-01 1.01123594e-01 3.06122452e-02
      2.04081628e-02 3.06122452e-02 1.22448981e-01 2.85714298e-01
      2.85714298e-01 2.04081628e-02 1.22448981e-01 8.16326514e-02
      2.77777780e-02 1.85185187e-02 9.25925896e-02 1.20370373e-01
      2.96296299e-01 1.94444448e-01 1.29629627e-01 5.55555560e-02
      6.48148134e-02 9.80392192e-03 2.94117648e-02 4.90196086e-02
      1.47058830e-01 3.62745106e-01 1.76470593e-01 7.84313753e-02
      6.86274543e-02 7.84313753e-02 2.02020202e-02 7.07070678e-02
      1.01010099e-01 1.21212125e-01 3.43434334e-01 8.08080807e-02
      5.05050495e-02 1.31313130e-01 8.08080807e-02 1.72413792e-02 0. 0.
      0. 0. 3.44827585e-02 4.31034490e-02 1.29310340e-01 7.75862098e-01
      2.08333340e-02 4.16666679e-02 3.12500000e-02 7.29166642e-02
      6.25000000e-02 8.33333358e-02 1.04166664e-01 2.60416657e-01
      3.22916657e-01 6.12244904e-02 1.02040820e-01 5.10204099e-02
      1.02040820e-01 2.85714298e-01 1.32653058e-01 1.02040820e-01
      9.18367356e-02 7.14285746e-02 1.81818176e-02 3.63636352e-02 0.
      8.18181783e-02 5.54545462e-01 1.81818187e-01 0. 5.45454547e-02
      7.27272704e-02</_>
    <_>
      9.43396240e-03 3.77358496e-02 9.43396240e-03 5.66037744e-02
      7.54716992e-02 2.16981128e-01 1.32075474e-01 9.43396240e-02
      3.67924541e-01 0. 0. 1.66666675e-02 2.50000004e-02 1.74999997e-01
      2.75000006e-01 1.50000006e-01 1.66666672e-01 1.91666663e-01 0.
      1.61290318e-02 8.06451589e-03 8.06451589e-02 2.41935477e-01
      2.82258064e-01 1.37096778e-01 8.87096748e-02 1.45161286e-01
      8.33333377e-03 2.50000004e-02 4.16666679e-02 5.83333336e-02
      3.16666663e-01 2.33333334e-01 6.66666701e-02 1.33333340e-01
      1.16666667e-01 0. 5.30973449e-02 1.76991150e-02 1.50442481e-01
      2.03539819e-01 1.59292042e-01 1.94690272e-01 7.96460211e-02
      1.41592920e-01 0. 1.68067235e-02 5.04201688e-02 7.56302550e-02
      2.85714298e-01 2.18487397e-01 2.10084036e-01 6.72268942e-02
      7.56302550e-02 8.62068962e-03 3.44827585e-02 5.17241396e-02
      1.29310340e-01 2.15517238e-01 1.89655170e-01 1.89655170e-01
      1.12068966e-01 6.89655170e-02 8.84955749e-03 3.53982300e-02
      8.84955749e-03 1.41592920e-01 3.53982300e-01 1.59292042e-01
      1.23893805e-01 9.73451361e-02 7.07964599e-02 1.86915882e-02
      4.67289723e-02 2.80373823e-02 5.60747646e-02 1.21495329e-01
      1.86915889e-01 1.02803737e-01 1.49532706e-01 2.89719611e-01 0.
      3.60360369e-02 5.40540554e-02 9.00900885e-02 1.80180177e-01
      1.89189196e-01 1.17117114e-01 1.80180177e-01 1.53153151e-01
      9.61538497e-03 7.69230798e-02 1.92307699e-02 1.44230768e-01
      2.50000000e-01 2.01923072e-01 9.61538479e-02 1.15384616e-01
      8.65384638e-02 1.94174759e-02 1.55339807e-01 4.85436879e-02
      6.79611638e-02 8.73786435e-02 1.74757287e-01 1.26213595e-01
      1.35922328e-01 1.84466019e-01</_>
    <_>
      0. 1.78571437e-02 8.92857183e-03 6.25000000e-02 9.82142836e-02
      3.75000000e-01 8.92857164e-02 1.07142858e-01 2.41071433e-01 0. 0.
      1.56250000e-02 3.90625000e-02 2.96875000e-01 4.21875000e-01
      1.01562500e-01 8.59375000e-02 3.90625000e-02 0. 0. 0.
      3.99999991e-02 3.19999993e-01 5.19999981e-01 4.80000004e-02
      5.60000017e-02 1.60000008e-02 8.19672085e-03 3.27868834e-02 0.
      3.27868834e-02 5.00000000e-01 2.95081973e-01 0. 8.19672123e-02
      4.91803288e-02 0. 0. 3.27868834e-02 1.39344260e-01 2.78688520e-01
      2.78688520e-01 1.39344260e-01 9.01639313e-02 4.09836061e-02 0.
      8.47457629e-03 4.23728824e-02 1.44067794e-01 2.88135588e-01
      2.62711853e-01 1.44067794e-01 7.62711838e-02 3.38983051e-02 0. 0.
      1.60000008e-02 1.59999996e-01 4.79999989e-01 2.31999993e-01
      7.19999969e-02 1.60000008e-02 2.40000002e-02 3.92156877e-02
      7.84313753e-02 2.94117648e-02 2.94117648e-02 4.41176474e-01
      8.82352963e-02 2.94117648e-02 1.47058830e-01 1.17647059e-01
      8.54700897e-03 1.70940179e-02 1.70940179e-02 1.53846160e-01
      4.27350432e-01 2.39316240e-01 5.12820520e-02 5.12820520e-02
      3.41880359e-02 9.17431153e-03 3.66972461e-02 8.25688094e-02
      1.19266056e-01 3.02752286e-01 1.92660555e-01 6.42201826e-02
      1.55963302e-01 3.66972461e-02 3.06122452e-02 8.16326514e-02
      1.02040814e-02 1.42857149e-01 3.16326529e-01 1.93877548e-01
      2.04081628e-02 9.18367356e-02 1.12244897e-01 5.10204099e-02
      1.02040820e-01 1.02040814e-02 6.12244904e-02 2.85714298e-01
      8.16326514e-02 5.10204099e-02 1.73469394e-01 1.83673471e-01</_>
    <_>
      6.93069324e-02 3.96039598e-02 1.98019799e-02 1.08910888e-01
      3.26732665e-01 1.08910888e-01 4.95049506e-02 1.38613865e-01
      1.38613865e-01 8.40336177e-03 8.40336177e-03 3.36134471e-02
      1.68067232e-01 4.20168072e-01 2.01680675e-01 5.88235296e-02
      4.20168079e-02 5.88235296e-02 8.33333377e-03 8.33333377e-03
      3.33333351e-02 1.25000000e-01 4.41666663e-01 2.50000000e-01
      4.16666679e-02 2.50000004e-02 6.66666701e-02 1.88679248e-02
      7.54716992e-02 3.77358496e-02 1.22641511e-01 3.96226406e-01
      8.49056616e-02 3.77358496e-02 1.22641511e-01 1.03773586e-01 0. 0.
      0. 1.48437500e-01 4.06250000e-01 3.12500000e-01 0. 5.46875000e-02
      7.81250000e-02 7.93650839e-03 0. 7.93650839e-03 1.03174604e-01
      3.88888896e-01 4.12698418e-01 4.76190485e-02 2.38095243e-02
      7.93650839e-03 0. 2.56410260e-02 1.70940179e-02 1.11111112e-01
      1.79487184e-01 2.90598303e-01 8.54700878e-02 7.69230798e-02
      2.13675216e-01 0. 0. 8.13008100e-03 1.21951222e-01 3.73983741e-01
      3.49593490e-01 4.06504050e-02 8.94308910e-02 1.62601620e-02
      2.94117648e-02 3.92156877e-02 1.96078438e-02 7.84313753e-02
      4.80392158e-01 9.80392173e-02 1.96078438e-02 8.82352963e-02
      1.47058830e-01 0. 0. 1.75438598e-02 1.84210524e-01 4.47368413e-01
      1.84210524e-01 1.05263159e-01 5.26315793e-02 8.77192989e-03
      1.68067235e-02 1.68067235e-02 8.40336177e-03 9.24369767e-02
      4.70588237e-01 2.52100855e-01 5.04201688e-02 5.88235296e-02
      3.36134471e-02 3.09278350e-02 6.18556701e-02 3.09278350e-02
      1.23711340e-01 4.02061850e-01 8.24742243e-02 7.21649453e-02
      9.27835032e-02 1.03092782e-01</_>
    <_>
      8.26446246e-03 4.13223132e-02 2.47933883e-02 1.40495867e-01
      2.06611574e-01 3.55371892e-01 1.07438013e-01 4.95867766e-02
      6.61156997e-02 0. 2.54237279e-02 5.93220331e-02 1.35593221e-01
      3.30508471e-01 3.13559324e-01 5.08474559e-02 5.93220331e-02
      2.54237279e-02 0. 3.44827585e-02 3.44827585e-02 1.29310340e-01
      5.34482777e-01 1.37931034e-01 2.58620698e-02 4.31034490e-02
      6.03448264e-02 8.13008100e-03 1.21951222e-01 0. 8.13008100e-02
      6.26016259e-01 8.13008100e-02 8.13008100e-03 4.06504050e-02
      3.25203240e-02 8.40336177e-03 3.36134471e-02 8.40336177e-03
      5.04201688e-02 1.84873953e-01 2.43697479e-01 1.26050428e-01
      9.24369767e-02 2.52100855e-01 0. 0. 1.58730168e-02 1.58730168e-02
      3.57142866e-01 3.41269851e-01 1.26984134e-01 5.55555560e-02
      8.73015895e-02 0. 3.25203240e-02 2.43902430e-02 1.21951222e-01
      4.30894315e-01 1.95121944e-01 1.05691060e-01 4.06504050e-02
      4.87804860e-02 0. 2.38095243e-02 0. 8.73015895e-02 5.55555582e-01
      2.38095239e-01 2.38095243e-02 3.96825410e-02 3.17460336e-02 0.
      8.00000038e-03 0. 1.04000002e-01 4.23999995e-01 2.47999996e-01
      7.99999982e-02 1.12000003e-01 2.40000002e-02 8.06451589e-03
      3.22580636e-02 0. 4.83870953e-02 3.54838699e-01 3.46774191e-01
      7.25806430e-02 4.03225794e-02 9.67741907e-02 0. 0. 2.50000004e-02
      7.50000030e-02 2.24999994e-01 2.75000006e-01 1.33333340e-01
      1.25000000e-01 1.41666666e-01 0. 0. 0. 5.46875000e-02
      4.06250000e-01 3.43750000e-01 3.12500000e-02 1.09375000e-01
      5.46875000e-02</_>
    <_>
      1.70940179e-02 5.12820520e-02 4.27350439e-02 5.98290600e-02
      2.39316240e-01 2.56410271e-01 5.98290600e-02 1.70940176e-01
      1.02564104e-01 8.84955749e-03 2.65486725e-02 8.84955749e-03
      3.53982300e-02 7.96460211e-02 5.66371679e-01 9.73451361e-02
      1.76991150e-02 1.59292042e-01 0. 0. 8.06451589e-03 4.03225794e-02
      5.64516112e-02 2.90322572e-01 5.64516112e-02 7.25806430e-02
      4.75806445e-01 0. 5.98290600e-02 0. 5.12820520e-02 3.76068383e-01
      3.07692319e-01 4.27350439e-02 5.98290600e-02 1.02564104e-01
      1.63934417e-02 4.09836061e-02 1.63934417e-02 9.83606577e-02
      4.59016383e-01 1.72131151e-01 4.91803288e-02 8.19672123e-02
      6.55737668e-02 0. 0. 0. 2.34375000e-02 5.07812500e-01
      4.37500000e-01 2.34375000e-02 0. 7.81250000e-03 0. 0. 0.
      3.12500000e-02 1.40625000e-01 3.51562500e-01 1.01562500e-01
      6.25000000e-02 3.12500000e-01 0. 7.99999982e-02 0. 2.40000002e-02
      2.47999996e-01 2.96000004e-01 6.40000030e-02 3.99999991e-02
      2.47999996e-01 1.65289249e-02 7.43801668e-02 2.47933883e-02
      4.13223132e-02 2.72727281e-01 2.31404960e-01 1.23966940e-01
      7.43801668e-02 1.40495867e-01 8.40336177e-03 8.40336177e-03 0.
      1.00840338e-01 3.69747907e-01 2.94117659e-01 1.26050428e-01
      2.52100844e-02 6.72268942e-02 0. 1.72413792e-02 2.58620698e-02
      7.75862038e-02 3.10344815e-01 3.36206883e-01 9.48275849e-02
      6.03448264e-02 7.75862038e-02 0. 0. 0. 7.08661452e-02
      2.67716527e-01 3.07086617e-01 4.72440943e-02 9.44881886e-02
      2.12598428e-01</_>
    <_>
      8.13008100e-03 3.25203240e-02 1.62601620e-02 2.43902430e-02
      8.13008100e-02 3.33333343e-01 1.05691060e-01 1.05691060e-01
      2.92682916e-01 8.47457629e-03 1.69491526e-02 0. 1.69491526e-02
      1.10169493e-01 3.47457618e-01 4.23728824e-02 9.32203382e-02
      3.64406794e-01 0. 0. 0. 2.36220472e-02 4.80314970e-01
      4.40944880e-01 1.57480314e-02 0. 3.93700786e-02 2.52100844e-02
      3.36134471e-02 2.52100844e-02 6.72268942e-02 1.09243698e-01
      1.93277314e-01 1.26050428e-01 1.42857149e-01 2.77310938e-01 0. 0.
      0. 1.56250000e-02 2.96875000e-01 4.29687500e-01 9.37500000e-02
      4.68750000e-02 1.17187500e-01 8.06451589e-03 8.06451589e-03
      1.61290318e-02 6.45161271e-02 2.74193555e-01 3.70967746e-01
      1.04838707e-01 7.25806430e-02 8.06451589e-02 8.62068962e-03
      1.72413792e-02 1.72413792e-02 6.03448264e-02 4.65517253e-01
      2.41379306e-01 1.03448279e-01 5.17241396e-02 3.44827585e-02
      1.78571437e-02 3.57142873e-02 5.35714291e-02 1.25000000e-01
      2.50000000e-01 2.32142851e-01 9.82142836e-02 7.14285746e-02
      1.16071425e-01 0. 0. 8.00000038e-03 2.40000002e-02 2.31999993e-01
      3.60000014e-01 1.28000006e-01 7.19999969e-02 1.75999999e-01 0.
      8.19672085e-03 3.27868834e-02 5.73770478e-02 3.85245889e-01
      3.11475396e-01 9.83606577e-02 5.73770478e-02 4.91803288e-02 0.
      4.58715595e-02 4.58715595e-02 1.28440365e-01 1.92660555e-01
      2.47706428e-01 6.42201826e-02 1.37614682e-01 1.37614682e-01
      1.70940179e-02 3.41880359e-02 3.41880359e-02 5.98290600e-02
      1.02564104e-01 2.22222224e-01 1.28205135e-01 6.83760718e-02
      3.33333343e-01</_>
    <_>
      8.06451589e-03 4.83870953e-02 0. 4.03225794e-02 6.45161271e-01
      8.87096748e-02 8.06451589e-03 1.12903222e-01 4.83870953e-02
      8.40336177e-03 4.20168079e-02 4.20168079e-02 8.40336159e-02
      4.20168072e-01 3.27731103e-01 5.88235296e-02 0. 1.68067235e-02 0.
      2.36220472e-02 1.57480314e-02 1.25984251e-01 4.09448832e-01
      3.38582665e-01 5.51181100e-02 2.36220472e-02 7.87401572e-03 0. 0.
      7.93650839e-03 3.96825410e-02 4.52380955e-01 4.20634925e-01
      6.34920672e-02 0. 1.58730168e-02 8.33333377e-03 4.16666679e-02
      5.83333336e-02 6.66666701e-02 4.08333331e-01 2.50000000e-01
      1.66666675e-02 1.25000000e-01 2.50000004e-02 0. 0. 3.90625000e-02
      3.12500000e-02 5.85937500e-01 1.71875000e-01 1.09375000e-01
      4.68750000e-02 1.56250000e-02 8.40336177e-03 8.40336177e-03
      2.52100844e-02 8.40336177e-03 6.13445401e-01 3.36134464e-01 0. 0.
      0. 0. 8.06451589e-03 4.03225794e-02 2.41935477e-02 3.22580636e-01
      3.79032254e-01 1.12903222e-01 6.45161271e-02 4.83870953e-02
      8.33333377e-03 3.33333351e-02 3.33333351e-02 3.33333351e-02
      3.16666663e-01 4.08333331e-01 8.33333377e-03 5.00000007e-02
      1.08333334e-01 0. 0. 0. 5.46875000e-02 2.18750000e-01
      3.67187500e-01 8.59375000e-02 7.81250000e-02 1.95312500e-01 0. 0.
      0. 7.81250000e-03 2.73437500e-01 7.18750000e-01 0. 0. 0.
      1.61290318e-02 8.06451589e-03 2.41935477e-02 6.45161271e-02
      1.77419350e-01 5.80645144e-01 0. 3.22580636e-02 9.67741907e-02</_>
    <_>
      8.13953504e-02 9.30232555e-02 2.32558139e-02 2.32558139e-02
      2.55813956e-01 3.48837227e-02 3.48837227e-02 1.62790701e-01
      2.90697664e-01 8.92857183e-03 7.14285746e-02 6.25000000e-02
      1.07142858e-01 3.39285702e-01 1.69642851e-01 6.25000000e-02
      8.92857164e-02 8.92857164e-02 3.84615399e-02 1.92307699e-02
      2.88461540e-02 1.44230768e-01 1.05769232e-01 1.92307696e-01
      1.34615391e-01 1.25000000e-01 2.11538464e-01 1.80180185e-02
      1.44144148e-01 2.70270277e-02 2.70270277e-02 2.61261255e-01
      1.80180177e-01 1.53153151e-01 1.17117114e-01 7.20720738e-02
      3.80952395e-02 1.14285715e-01 9.52380989e-03 3.80952395e-02
      4.38095242e-01 8.57142881e-02 4.76190485e-02 1.14285715e-01
      1.14285715e-01 1.63934417e-02 4.09836061e-02 4.09836061e-02
      6.55737668e-02 1.14754096e-01 1.47540987e-01 1.80327863e-01
      1.96721315e-01 1.96721315e-01 1.98019799e-02 6.93069324e-02
      2.97029708e-02 5.94059415e-02 1.58415839e-01 1.38613865e-01
      9.90099013e-02 2.27722779e-01 1.98019803e-01 1.88679248e-02
      9.43396240e-02 0. 2.83018872e-02 5.37735820e-01 6.60377368e-02
      2.83018872e-02 1.13207549e-01 1.13207549e-01 1.80180185e-02
      9.90990996e-02 3.60360369e-02 3.60360369e-02 1.53153151e-01
      2.34234229e-01 9.00900885e-02 1.44144148e-01 1.89189196e-01
      2.47933883e-02 3.30578499e-02 8.26446246e-03 1.65289249e-02
      9.09090936e-02 1.98347107e-01 9.91735533e-02 1.23966940e-01
      4.04958665e-01 3.70370373e-02 5.55555560e-02 1.85185187e-02
      5.55555560e-02 4.90740746e-01 8.33333358e-02 7.40740746e-02
      9.25925896e-02 9.25925896e-02 2.70270277e-02 5.40540554e-02
      3.60360369e-02 8.10810775e-02 1.89189196e-01 1.71171173e-01
      9.90990996e-02 1.62162155e-01 1.80180177e-01</_>
    <_>
      0. 4.95867766e-02 3.30578499e-02 1.07438013e-01 3.63636374e-01
      1.98347107e-01 5.78512400e-02 1.40495867e-01 4.95867766e-02 0.
      8.00000038e-03 0. 8.79999995e-02 4.39999998e-01 2.47999996e-01
      1.36000007e-01 4.80000004e-02 3.20000015e-02 8.06451589e-03
      1.61290318e-02 1.61290318e-02 1.04838707e-01 6.04838729e-01
      2.17741936e-01 1.61290318e-02 0. 1.61290318e-02 0. 7.93650839e-03
      3.96825410e-02 5.55555560e-02 3.65079373e-01 3.80952388e-01
      1.58730168e-02 4.76190485e-02 8.73015895e-02 0. 3.20000015e-02
      1.60000008e-02 1.04000002e-01 2.80000001e-01 4.16000009e-01
      1.60000008e-02 7.99999982e-02 5.60000017e-02 0. 0. 1.57480314e-02
      4.72440943e-02 5.90551198e-01 2.67716527e-01 4.72440943e-02
      1.57480314e-02 1.57480314e-02 1.66666675e-02 5.83333336e-02 0.
      5.00000007e-02 3.00000012e-01 5.00000000e-01 1.66666675e-02
      3.33333351e-02 2.50000004e-02 0. 0. 0. 3.93700786e-02
      3.46456707e-01 4.96062994e-01 0. 2.36220472e-02 9.44881886e-02 0.
      4.95867766e-02 3.30578499e-02 2.47933883e-02 3.88429761e-01
      3.22314054e-01 3.30578499e-02 3.30578499e-02 1.15702480e-01 0.
      7.81250000e-03 7.81250000e-03 3.12500000e-02 3.43750000e-01
      3.98437500e-01 9.37500000e-02 5.46875000e-02 6.25000000e-02
      8.40336177e-03 5.88235296e-02 1.68067235e-02 1.00840338e-01
      2.94117659e-01 3.86554629e-01 5.88235296e-02 4.20168079e-02
      3.36134471e-02 0. 0. 0. 2.34375000e-02 2.65625000e-01
      5.85937500e-01 0. 7.81250000e-03 1.17187500e-01</_>
    <_>
      8.40336177e-03 4.20168079e-02 8.40336177e-03 1.68067235e-02
      3.44537824e-01 3.69747907e-01 3.36134471e-02 7.56302550e-02
      1.00840338e-01 0. 0. 0. 3.96825410e-02 3.73015881e-01
      3.73015881e-01 5.55555560e-02 7.14285746e-02 8.73015895e-02 0. 0.
      2.36220472e-02 2.36220472e-02 5.98425210e-01 3.54330719e-01 0. 0.
      0. 0. 7.93650839e-03 1.58730168e-02 1.19047619e-01 4.52380955e-01
      2.69841284e-01 3.96825410e-02 7.14285746e-02 2.38095243e-02
      8.00000038e-03 2.40000002e-02 1.60000008e-02 2.40000002e-02
      5.36000013e-01 1.84000000e-01 3.20000015e-02 1.28000006e-01
      4.80000004e-02 8.00000038e-03 0. 8.00000038e-03 4.80000004e-02
      4.88000005e-01 3.12000006e-01 6.40000030e-02 8.00000038e-03
      6.40000030e-02 1.63934417e-02 4.91803288e-02 1.63934417e-02
      7.37704933e-02 5.90163946e-01 2.13114753e-01 3.27868834e-02
      8.19672085e-03 0. 0. 9.60000008e-02 0. 3.99999991e-02
      6.24000013e-01 7.99999982e-02 1.04000002e-01 4.80000004e-02
      8.00000038e-03 0. 0. 7.81250000e-03 3.90625000e-02 6.48437500e-01
      1.25000000e-01 3.90625000e-02 1.01562500e-01 3.90625000e-02
      8.26446246e-03 0. 1.65289249e-02 1.90082639e-01 4.46280986e-01
      1.98347107e-01 8.26446265e-02 8.26446246e-03 4.95867766e-02 0. 0.
      0. 1.78861782e-01 5.44715464e-01 1.62601620e-01 8.13008100e-02 0.
      3.25203240e-02 1.63934417e-02 1.06557377e-01 2.45901644e-02
      6.55737668e-02 3.19672137e-01 1.96721315e-01 9.83606577e-02
      9.83606577e-02 7.37704933e-02</_>
    <_>
      1.72413792e-02 4.31034490e-02 4.31034490e-02 1.37931034e-01
      3.62068951e-01 1.37931034e-01 8.62068962e-03 6.89655170e-02
      1.81034476e-01 8.40336177e-03 4.20168079e-02 5.04201688e-02
      1.42857149e-01 4.11764711e-01 1.93277314e-01 2.52100844e-02
      6.72268942e-02 5.88235296e-02 1.60000008e-02 3.20000015e-02
      7.19999969e-02 1.12000003e-01 4.00000006e-01 1.75999999e-01
      4.80000004e-02 7.99999982e-02 6.40000030e-02 0. 2.45901644e-02
      4.91803288e-02 1.63934425e-01 3.77049178e-01 2.21311480e-01
      1.63934417e-02 9.83606577e-02 4.91803288e-02 0. 4.72440943e-02
      1.57480314e-02 6.29921257e-02 3.85826766e-01 3.70078743e-01 0.
      3.14960629e-02 8.66141766e-02 2.70270277e-02 9.00900885e-02
      2.70270277e-02 7.20720738e-02 3.96396399e-01 1.80180177e-01
      6.30630627e-02 1.17117114e-01 2.70270277e-02 8.33333377e-03
      3.33333351e-02 5.00000007e-02 8.33333358e-02 4.41666663e-01
      2.50000000e-01 3.33333351e-02 6.66666701e-02 3.33333351e-02
      8.33333377e-03 5.83333336e-02 8.33333377e-03 4.16666679e-02
      3.41666669e-01 3.24999988e-01 7.50000030e-02 1.00000001e-01
      4.16666679e-02 1.68067235e-02 5.04201688e-02 0. 4.20168079e-02
      3.27731103e-01 4.28571433e-01 0. 2.52100844e-02 1.09243698e-01
      2.56410260e-02 8.54700897e-03 5.98290600e-02 1.19658120e-01
      3.76068383e-01 2.82051295e-01 5.12820520e-02 5.12820520e-02
      2.56410260e-02 8.06451589e-03 6.45161271e-02 8.06451589e-03
      5.64516112e-02 5.08064508e-01 2.01612905e-01 1.61290318e-02
      1.12903222e-01 2.41935477e-02 1.61290318e-02 4.83870953e-02
      2.41935477e-02 1.12903222e-01 3.62903237e-01 2.50000000e-01
      4.83870953e-02 9.67741907e-02 4.03225794e-02</_>
    <_>
      4.80769239e-02 6.73076957e-02 2.88461540e-02 3.84615399e-02
      2.78846145e-01 4.80769239e-02 6.73076957e-02 1.92307696e-01
      2.30769232e-01 4.44444455e-02 1.11111112e-01 2.22222228e-02
      8.88888910e-02 1.77777782e-01 8.88888910e-02 5.55555560e-02
      1.88888893e-01 2.22222224e-01 4.08163257e-02 1.22448981e-01
      9.18367356e-02 1.12244897e-01 1.22448981e-01 8.16326514e-02
      9.18367356e-02 1.32653058e-01 2.04081640e-01 5.26315793e-02
      1.05263159e-01 2.10526325e-02 9.47368443e-02 3.15789461e-01
      1.05263159e-01 6.31578937e-02 1.26315787e-01 1.15789473e-01
      6.12244904e-02 1.22448981e-01 6.12244904e-02 1.42857149e-01
      1.42857149e-01 2.04081628e-02 1.02040820e-01 1.73469394e-01
      1.73469394e-01 5.15463911e-02 1.23711340e-01 5.15463911e-02
      1.23711340e-01 1.54639170e-01 1.64948449e-01 7.21649453e-02
      1.13402061e-01 1.44329891e-01 4.71698120e-02 1.88679248e-02
      3.77358496e-02 4.71698120e-02 2.35849053e-01 1.32075474e-01
      9.43396240e-02 1.98113203e-01 1.88679248e-01 4.65116277e-02
      8.13953504e-02 2.32558139e-02 9.30232555e-02 2.09302321e-01
      1.04651161e-01 9.30232555e-02 1.74418598e-01 1.74418598e-01
      2.94117648e-02 1.07843138e-01 1.96078438e-02 7.84313753e-02
      1.76470593e-01 1.07843138e-01 8.82352963e-02 1.56862751e-01
      2.35294119e-01 3.03030312e-02 1.01010099e-01 3.03030312e-02
      5.05050495e-02 3.03030312e-01 1.51515156e-01 8.08080807e-02
      9.09090936e-02 1.61616161e-01 6.59340695e-02 5.49450554e-02
      5.49450554e-02 5.49450554e-02 2.08791211e-01 5.49450554e-02
      6.59340695e-02 2.63736278e-01 1.75824180e-01 1.06382975e-02
      8.51063803e-02 2.12765951e-02 6.38297871e-02 1.17021278e-01
      1.17021278e-01 8.51063803e-02 1.27659574e-01 3.72340411e-01</_>
    <_>
      1.72413792e-02 8.62068962e-03 1.72413792e-02 9.48275849e-02
      1.63793102e-01 2.15517238e-01 1.55172408e-01 1.29310340e-01
      1.98275864e-01 0. 2.50000004e-02 3.33333351e-02 5.83333336e-02
      1.16666667e-01 3.66666675e-01 1.25000000e-01 1.16666667e-01
      1.58333331e-01 8.77192989e-03 8.77192989e-03 3.50877196e-02
      1.05263159e-01 2.54385978e-01 2.36842111e-01 1.40350878e-01
      1.14035085e-01 9.64912251e-02 1.72413792e-02 1.20689653e-01
      2.58620698e-02 7.75862038e-02 2.41379306e-01 2.58620679e-01
      1.03448279e-01 7.75862038e-02 7.75862038e-02 1.76991150e-02
      2.65486725e-02 4.42477874e-02 5.30973449e-02 1.32743359e-01
      2.21238941e-01 1.68141589e-01 1.50442481e-01 1.85840711e-01 0.
      4.16666679e-02 4.16666679e-02 7.50000030e-02 2.16666669e-01
      2.83333331e-01 1.83333337e-01 1.00000001e-01 5.83333336e-02 0.
      8.00000038e-03 3.20000015e-02 8.79999995e-02 4.16000009e-01
      2.47999996e-01 1.36000007e-01 5.60000017e-02 1.60000008e-02 0.
      1.42857149e-01 2.38095243e-02 1.34920642e-01 3.80952388e-01
      1.34920642e-01 1.26984134e-01 3.96825410e-02 1.58730168e-02
      1.76991150e-02 2.65486725e-02 3.53982300e-02 1.76991150e-01
      1.15044251e-01 2.74336278e-01 1.50442481e-01 1.15044251e-01
      8.84955749e-02 0. 6.72268942e-02 3.36134471e-02 1.00840338e-01
      2.35294119e-01 2.01680675e-01 1.00840338e-01 1.17647059e-01
      1.42857149e-01 0. 1.57480314e-02 1.57480314e-02 1.88976377e-01
      4.25196856e-01 2.28346452e-01 8.66141766e-02 2.36220472e-02
      1.57480314e-02 7.81250000e-03 1.17187500e-01 7.81250000e-03
      2.03125000e-01 3.98437500e-01 2.18750000e-01 4.68750000e-02 0. 0.</_>
    <_>
      1.81818176e-02 4.54545468e-02 4.54545468e-02 9.09090936e-02
      5.36363661e-01 6.36363626e-02 1.81818176e-02 1.18181817e-01
      6.36363626e-02 1.73913036e-02 7.82608688e-02 3.47826071e-02
      1.56521738e-01 2.60869563e-01 2.52173901e-01 8.69565234e-02
      6.95652142e-02 4.34782617e-02 2.88461540e-02 5.76923080e-02
      8.65384638e-02 1.53846160e-01 6.73076957e-02 1.73076928e-01
      1.53846160e-01 9.61538479e-02 1.82692304e-01 2.08333340e-02
      3.12500000e-02 6.25000000e-02 4.16666679e-02 4.16666679e-02
      1.45833328e-01 7.29166642e-02 2.08333328e-01 3.75000000e-01
      9.25925933e-03 1.85185187e-02 6.48148134e-02 1.94444448e-01
      2.68518507e-01 2.12962970e-01 1.01851851e-01 6.48148134e-02
      6.48148134e-02 0. 3.70370373e-02 1.85185187e-02 1.38888896e-01
      3.70370358e-01 1.48148149e-01 5.55555560e-02 1.29629627e-01
      1.01851851e-01 1.92307699e-02 2.88461540e-02 7.69230798e-02
      5.76923080e-02 3.26923072e-01 1.53846160e-01 9.61538479e-02
      1.34615391e-01 1.05769232e-01 1.80180185e-02 4.50450443e-02
      5.40540554e-02 1.26126125e-01 2.97297299e-01 1.62162155e-01
      7.20720738e-02 8.10810775e-02 1.44144148e-01 3.96039598e-02
      5.94059415e-02 4.95049506e-02 1.18811883e-01 8.91089141e-02
      8.91089141e-02 1.48514852e-01 2.07920790e-01 1.98019803e-01
      3.73831764e-02 6.54205605e-02 4.67289723e-02 9.34579447e-02
      1.30841121e-01 1.49532706e-01 5.60747646e-02 2.05607474e-01
      2.14953274e-01 2.80373823e-02 7.47663528e-02 5.60747646e-02
      9.34579447e-02 1.96261689e-01 1.40186921e-01 7.47663528e-02
      1.68224305e-01 1.68224305e-01 5.94059415e-02 4.95049506e-02
      1.98019799e-02 8.91089141e-02 2.57425755e-01 2.07920790e-01
      9.90099013e-02 1.08910888e-01 1.08910888e-01</_>
    <_>
      0. 2.41935477e-02 3.22580636e-02 3.22580636e-02 3.38709682e-01
      2.66129047e-01 8.87096748e-02 1.29032254e-01 8.87096748e-02 0. 0.
      7.03125000e-02 1.25000000e-01 3.75000000e-01 2.50000000e-01
      1.48437500e-01 2.34375000e-02 7.81250000e-03 0. 0. 1.56250000e-02
      1.17187500e-01 5.46875000e-01 2.42187500e-01 6.25000000e-02
      7.81250000e-03 7.81250000e-03 0. 2.38095243e-02 0. 1.26984134e-01
      3.88888896e-01 2.85714298e-01 6.34920672e-02 9.52380970e-02
      1.58730168e-02 0. 0. 0. 1.40625000e-01 4.21875000e-01
      3.75000000e-01 4.68750000e-02 1.56250000e-02 0. 0. 7.81250000e-03
      7.81250000e-03 1.79687500e-01 4.06250000e-01 3.67187500e-01
      3.12500000e-02 0. 0. 8.62068962e-03 6.89655170e-02 4.31034490e-02
      7.75862038e-02 3.62068951e-01 1.46551728e-01 1.46551728e-01
      9.48275849e-02 5.17241396e-02 8.06451589e-03 0. 4.83870953e-02
      1.04838707e-01 4.35483873e-01 2.25806445e-01 5.64516112e-02
      6.45161271e-02 5.64516112e-02 4.13223132e-02 8.26446246e-03
      8.26446246e-03 1.57024801e-01 2.14876026e-01 2.97520667e-01
      1.48760334e-01 7.43801668e-02 4.95867766e-02 1.69491526e-02
      2.54237279e-02 8.47457629e-03 1.27118647e-01 3.55932206e-01
      2.79661030e-01 1.18644066e-01 5.93220331e-02 8.47457629e-03 0. 0.
      1.60000008e-02 1.04000002e-01 4.56000000e-01 3.12000006e-01
      7.19999969e-02 1.60000008e-02 2.40000002e-02 8.19672085e-03
      8.19672085e-03 3.27868834e-02 1.55737698e-01 3.19672137e-01
      2.13114753e-01 6.55737668e-02 1.31147534e-01 6.55737668e-02</_>
    <_>
      0. 1.32653058e-01 4.08163257e-02 6.12244904e-02 5.10204099e-02
      1.12244897e-01 1.53061226e-01 1.73469394e-01 2.75510192e-01
      1.81818176e-02 2.72727273e-02 3.63636352e-02 6.36363626e-02
      4.27272737e-01 1.45454541e-01 4.54545468e-02 1.27272725e-01
      1.09090909e-01 1.70940179e-02 0. 8.54700897e-03 1.36752144e-01
      5.47008574e-01 1.88034192e-01 3.41880359e-02 2.56410260e-02
      4.27350439e-02 2.54237279e-02 1.69491526e-02 1.69491526e-02
      1.44067794e-01 4.15254235e-01 2.03389823e-01 8.47457629e-03
      9.32203382e-02 7.62711838e-02 0. 0. 1.65289249e-02 7.43801668e-02
      5.61983466e-01 1.57024801e-01 8.26446246e-03 2.47933883e-02
      1.57024801e-01 8.33333377e-03 1.66666675e-02 8.33333377e-03
      1.33333340e-01 6.25000000e-01 1.50000006e-01 5.83333336e-02 0. 0.
      2.43902430e-02 0. 3.25203240e-02 5.69105707e-02 7.15447128e-01
      1.62601620e-01 8.13008100e-03 0. 0. 8.13008100e-03 0.
      1.62601620e-02 8.13008100e-02 4.63414639e-01 2.52032518e-01
      3.25203240e-02 1.21951222e-01 2.43902430e-02 1.69491526e-02
      1.69491526e-02 0. 8.47457647e-02 5.33898294e-01 1.61016956e-01
      3.38983051e-02 2.54237279e-02 1.27118647e-01 0. 8.13008100e-03
      1.62601620e-02 1.62601620e-02 7.80487776e-01 1.30081296e-01
      1.62601620e-02 3.25203240e-02 0. 8.00000038e-03 0. 1.60000008e-02
      7.19999969e-02 6.00000024e-01 2.24000007e-01 3.99999991e-02
      2.40000002e-02 1.60000008e-02 0. 6.42201826e-02 6.42201826e-02
      1.19266056e-01 1.83486238e-01 2.84403682e-01 1.00917429e-01
      1.10091746e-01 7.33944923e-02</_>
    <_>
      0. 8.77192989e-03 8.77192989e-03 2.63157897e-02 1.57894731e-01
      2.71929830e-01 1.66666672e-01 1.66666672e-01 1.92982450e-01
      7.93650839e-03 1.58730168e-02 3.96825410e-02 6.34920672e-02
      1.90476194e-01 3.17460328e-01 1.34920642e-01 1.34920642e-01
      9.52380970e-02 9.00900923e-03 3.60360369e-02 6.30630627e-02
      6.30630627e-02 1.71171173e-01 2.88288295e-01 1.53153151e-01
      9.90990996e-02 1.17117114e-01 0. 8.19672085e-03 2.45901644e-02
      7.37704933e-02 1.55737698e-01 2.78688520e-01 2.29508191e-01
      1.06557377e-01 1.22950822e-01 1.61290318e-02 2.41935477e-02
      3.22580636e-02 8.06451589e-02 5.56451619e-01 1.93548381e-01 0.
      8.87096748e-02 8.06451589e-03 0. 2.45901644e-02 1.63934417e-02
      2.45901644e-02 6.14754081e-01 2.37704918e-01 2.45901644e-02
      4.09836061e-02 1.63934417e-02 8.13008100e-03 8.13008100e-03
      1.62601620e-02 1.86991870e-01 5.36585391e-01 6.50406480e-02
      9.75609720e-02 3.25203240e-02 4.87804860e-02 0. 6.55737668e-02
      2.45901644e-02 1.63934425e-01 2.86885232e-01 1.14754096e-01
      9.83606577e-02 1.31147534e-01 1.14754096e-01 8.47457629e-03
      3.38983051e-02 8.47457629e-03 1.86440676e-01 5.08474588e-01
      1.18644066e-01 3.38983051e-02 8.47457647e-02 1.69491526e-02 0.
      2.45901644e-02 4.09836061e-02 4.91803288e-02 6.31147563e-01
      1.96721315e-01 1.63934417e-02 3.27868834e-02 8.19672085e-03
      8.26446246e-03 2.47933883e-02 1.65289249e-02 1.48760334e-01
      5.20661175e-01 1.15702480e-01 9.09090936e-02 4.95867766e-02
      2.47933883e-02 1.70940179e-02 8.54700897e-03 1.70940179e-02
      9.40170959e-02 2.22222224e-01 3.16239327e-01 1.02564104e-01
      1.45299152e-01 7.69230798e-02</_>
    <_>
      0. 8.06451589e-03 8.06451589e-03 7.25806430e-02 1.85483873e-01
      2.74193555e-01 1.37096778e-01 1.12903222e-01 2.01612905e-01 0.
      1.56250000e-02 7.81250000e-03 5.46875000e-02 2.10937500e-01
      2.96875000e-01 6.25000000e-02 1.32812500e-01 2.18750000e-01 0.
      7.93650839e-03 7.93650839e-03 1.34920642e-01 1.98412701e-01
      2.77777791e-01 1.26984134e-01 7.14285746e-02 1.74603179e-01
      8.26446246e-03 6.61156997e-02 8.26446246e-03 6.61156997e-02
      1.57024801e-01 3.38842988e-01 1.07438013e-01 1.15702480e-01
      1.32231399e-01 0. 1.61290318e-02 1.61290318e-02 9.67741907e-02
      4.51612890e-01 3.14516127e-01 3.22580636e-02 4.03225794e-02
      3.22580636e-02 0. 4.87804860e-02 1.62601620e-02 9.75609720e-02
      4.95934963e-01 2.92682916e-01 1.62601620e-02 1.62601620e-02
      1.62601620e-02 8.06451589e-03 8.06451589e-03 8.06451589e-03
      1.69354841e-01 4.83870953e-01 1.85483873e-01 6.45161271e-02
      4.83870953e-02 2.41935477e-02 8.69565178e-03 1.73913036e-02 0.
      1.30434781e-01 1.56521738e-01 2.69565225e-01 2.52173901e-01
      7.82608688e-02 8.69565234e-02 8.13008100e-03 4.06504050e-02 0.
      8.13008100e-02 4.47154462e-01 2.43902445e-01 3.25203240e-02
      8.13008100e-02 6.50406480e-02 0. 7.43801668e-02 0. 2.47933883e-02
      4.38016534e-01 4.62809920e-01 0. 0. 0. 0. 8.19672085e-03 0.
      9.01639313e-02 2.45901644e-01 2.78688520e-01 1.22950822e-01
      8.19672123e-02 1.72131151e-01 8.00000038e-03 8.00000038e-03
      2.40000002e-02 7.19999969e-02 1.75999999e-01 3.68000001e-01
      7.99999982e-02 9.60000008e-02 1.67999998e-01</_>
    <_>
      8.62068962e-03 9.48275849e-02 1.72413792e-02 9.48275849e-02
      2.41379306e-01 2.75862068e-01 6.03448264e-02 8.62068981e-02
      1.20689653e-01 1.83486231e-02 2.75229365e-02 2.75229365e-02
      1.00917429e-01 2.01834857e-01 2.38532111e-01 7.33944923e-02
      1.74311921e-01 1.37614682e-01 9.25925933e-03 3.70370373e-02
      1.85185187e-02 8.33333358e-02 1.48148149e-01 2.87037045e-01
      7.40740746e-02 1.57407403e-01 1.85185179e-01 2.04081628e-02
      8.16326514e-02 2.04081628e-02 9.18367356e-02 1.42857149e-01
      1.83673471e-01 1.12244897e-01 1.83673471e-01 1.63265303e-01
      8.92857183e-03 9.82142836e-02 3.57142873e-02 5.35714291e-02
      1.69642851e-01 2.41071433e-01 8.03571418e-02 9.82142836e-02
      2.14285716e-01 1.69491526e-02 4.23728824e-02 2.54237279e-02
      1.61016956e-01 3.38983059e-01 2.37288132e-01 5.08474559e-02
      6.77966103e-02 5.93220331e-02 1.92307699e-02 4.80769239e-02
      5.76923080e-02 1.15384616e-01 1.53846160e-01 1.34615391e-01
      1.34615391e-01 2.21153840e-01 1.15384616e-01 3.73831764e-02
      1.02803737e-01 4.67289723e-02 8.41121525e-02 3.17757010e-01
      2.61682242e-01 5.60747646e-02 3.73831764e-02 5.60747646e-02
      1.80180185e-02 9.90990996e-02 2.70270277e-02 1.17117114e-01
      2.25225225e-01 1.53153151e-01 9.00900885e-02 1.26126125e-01
      1.44144148e-01 6.25000000e-02 4.46428582e-02 5.35714291e-02
      9.82142836e-02 3.30357134e-01 2.67857134e-01 1.78571437e-02
      3.57142873e-02 8.92857164e-02 9.43396240e-03 6.60377368e-02
      6.60377368e-02 2.45283023e-01 1.69811323e-01 3.77358496e-02
      9.43396240e-02 1.60377353e-01 1.50943398e-01 5.88235296e-02
      5.88235296e-02 3.92156877e-02 9.80392173e-02 2.84313738e-01
      1.96078435e-01 3.92156877e-02 1.17647059e-01 1.07843138e-01</_>
    <_>
      3.70370373e-02 6.48148134e-02 9.25925933e-03 1.38888896e-01
      3.24074060e-01 1.94444448e-01 4.62962948e-02 6.48148134e-02
      1.20370373e-01 3.66972461e-02 4.58715595e-02 9.17431153e-03
      5.50458729e-02 4.40366983e-01 1.37614682e-01 5.50458729e-02
      1.00917429e-01 1.19266056e-01 1.90476198e-02 1.14285715e-01
      2.85714287e-02 9.52380989e-03 3.61904770e-01 1.33333340e-01
      6.66666701e-02 1.14285715e-01 1.52380958e-01 3.22580636e-02
      1.18279569e-01 1.07526882e-02 1.18279569e-01 2.04301074e-01
      1.29032254e-01 9.67741907e-02 1.29032254e-01 1.61290318e-01
      9.70873795e-03 2.91262139e-02 1.94174759e-02 9.70873758e-02
      3.68932039e-01 2.03883499e-01 6.79611638e-02 1.16504855e-01
      8.73786435e-02 2.83018872e-02 3.77358496e-02 9.43396240e-03
      3.77358496e-02 3.96226406e-01 1.98113203e-01 7.54716992e-02
      1.13207549e-01 1.03773586e-01 1.88679248e-02 2.83018872e-02
      3.77358496e-02 6.60377368e-02 3.58490556e-01 2.45283023e-01
      5.66037744e-02 1.13207549e-01 7.54716992e-02 0. 3.73831764e-02 0.
      5.60747646e-02 4.11214948e-01 1.30841121e-01 8.41121525e-02
      1.49532706e-01 1.30841121e-01 0. 3.36134471e-02 0. 1.17647059e-01
      2.26890758e-01 2.94117659e-01 6.72268942e-02 1.09243698e-01
      1.51260510e-01 0. 8.54700897e-03 2.56410260e-02 1.02564104e-01
      4.35897440e-01 2.05128208e-01 1.02564104e-01 3.41880359e-02
      8.54700878e-02 2.08333340e-02 6.25000000e-02 4.16666679e-02
      5.20833321e-02 4.06250000e-01 8.33333358e-02 9.37500000e-02
      1.35416672e-01 1.04166664e-01 5.43478243e-02 9.78260860e-02
      1.08695654e-02 1.84782609e-01 3.04347813e-01 7.60869533e-02
      2.17391308e-02 1.08695649e-01 1.41304344e-01</_>
    <_>
      1.86915882e-02 1.02803737e-01 2.80373823e-02 1.40186921e-01
      1.86915889e-01 1.58878505e-01 8.41121525e-02 9.34579447e-02
      1.86915889e-01 2.72727273e-02 4.54545468e-02 2.72727273e-02
      3.63636352e-02 4.09090906e-01 1.72727272e-01 9.09090880e-03
      1.72727272e-01 1.00000001e-01 0. 6.89655170e-02 2.58620698e-02
      7.75862038e-02 3.79310340e-01 2.50000000e-01 5.17241396e-02
      6.89655170e-02 7.75862038e-02 1.88679248e-02 2.83018872e-02
      3.77358496e-02 1.60377353e-01 3.58490556e-01 1.60377353e-01
      6.60377368e-02 8.49056616e-02 8.49056616e-02 2.10526325e-02
      4.21052650e-02 2.10526325e-02 9.47368443e-02 2.94736832e-01
      1.15789473e-01 4.21052650e-02 1.05263159e-01 2.63157904e-01
      1.92307699e-02 6.73076957e-02 2.88461540e-02 8.65384638e-02
      3.46153855e-01 1.05769232e-01 1.15384616e-01 1.34615391e-01
      9.61538479e-02 3.22580636e-02 8.60215053e-02 9.67741907e-02
      9.67741907e-02 2.04301074e-01 1.39784947e-01 9.67741907e-02
      1.39784947e-01 1.07526883e-01 3.92156877e-02 6.86274543e-02
      3.92156877e-02 7.84313753e-02 1.56862751e-01 1.47058830e-01
      1.17647059e-01 1.86274514e-01 1.66666672e-01 1.72413792e-02
      1.72413792e-02 6.89655170e-02 1.03448279e-01 3.62068951e-01
      1.72413796e-01 8.62068981e-02 8.62068981e-02 8.62068981e-02
      9.61538497e-03 3.84615399e-02 9.61538497e-03 1.15384616e-01
      2.40384609e-01 2.50000000e-01 7.69230798e-02 1.25000000e-01
      1.34615391e-01 1.68067235e-02 0. 3.36134471e-02 1.34453788e-01
      2.26890758e-01 2.60504216e-01 1.09243698e-01 1.09243698e-01
      1.09243698e-01 1.76991150e-02 1.76991150e-02 2.65486725e-02
      9.73451361e-02 4.51327443e-01 2.30088502e-01 8.84955749e-03
      9.73451361e-02 5.30973449e-02</_>
    <_>
      2.88461540e-02 7.69230798e-02 1.92307699e-02 4.80769239e-02
      3.84615399e-02 1.05769232e-01 5.76923080e-02 1.34615391e-01
      4.90384609e-01 5.88235296e-02 8.82352963e-02 9.80392192e-03
      1.17647059e-01 9.80392173e-02 1.37254909e-01 1.07843138e-01
      1.47058830e-01 2.35294119e-01 1.73913036e-02 2.60869563e-02
      2.60869563e-02 1.47826090e-01 4.00000006e-01 2.43478253e-01
      6.95652142e-02 4.34782617e-02 2.60869563e-02 3.29670347e-02
      1.09890111e-01 1.09890113e-02 8.79120901e-02 3.95604402e-01
      4.39560451e-02 6.59340695e-02 1.20879121e-01 1.31868139e-01
      8.84955749e-03 7.07964599e-02 4.42477874e-02 1.41592920e-01
      3.27433616e-01 1.85840711e-01 4.42477874e-02 7.96460211e-02
      9.73451361e-02 1.83486231e-02 1.83486231e-02 3.66972461e-02
      1.00917429e-01 3.39449555e-01 2.11009175e-01 1.00917429e-01
      7.33944923e-02 1.00917429e-01 5.76923080e-02 2.88461540e-02
      4.80769239e-02 1.25000000e-01 1.73076928e-01 1.25000000e-01
      1.34615391e-01 1.73076928e-01 1.34615391e-01 5.81395365e-02
      6.97674453e-02 6.97674453e-02 9.30232555e-02 9.30232555e-02
      1.16279073e-01 1.04651161e-01 1.97674423e-01 1.97674423e-01
      3.38983051e-02 2.54237279e-02 8.47457629e-03 1.94915250e-01
      2.54237294e-01 2.11864412e-01 6.77966103e-02 9.32203382e-02
      1.10169493e-01 4.95049506e-02 2.97029708e-02 3.96039598e-02
      9.90099013e-02 2.47524753e-01 1.58415839e-01 9.90099013e-02
      9.90099013e-02 1.78217828e-01 4.30107526e-02 5.37634417e-02
      3.22580636e-02 5.37634417e-02 6.45161271e-02 1.07526883e-01
      1.18279569e-01 2.58064508e-01 2.68817216e-01 5.43478243e-02
      8.69565234e-02 4.34782617e-02 2.17391308e-02 3.26086953e-02
      4.34782617e-02 7.60869533e-02 2.82608688e-01 3.58695656e-01</_>
    <_>
      4.71698120e-02 1.32075474e-01 0. 8.49056616e-02 4.43396240e-01
      7.54716992e-02 4.71698120e-02 8.49056616e-02 8.49056616e-02
      2.08333340e-02 1.04166664e-01 7.29166642e-02 8.33333358e-02
      9.37500000e-02 9.37500000e-02 6.25000000e-02 1.77083328e-01
      2.91666657e-01 9.34579410e-03 5.60747646e-02 2.80373823e-02
      1.49532706e-01 4.85981315e-01 7.47663528e-02 1.86915882e-02
      9.34579447e-02 8.41121525e-02 0. 4.50450443e-02 3.60360369e-02
      1.62162155e-01 3.24324310e-01 1.44144148e-01 5.40540554e-02
      1.53153151e-01 8.10810775e-02 2.83018872e-02 1.03773586e-01
      9.43396240e-03 9.43396240e-03 3.30188692e-01 1.98113203e-01
      3.77358496e-02 8.49056616e-02 1.98113203e-01 3.26086953e-02
      9.78260860e-02 3.26086953e-02 5.43478243e-02 3.26086953e-02
      5.43478243e-02 1.41304344e-01 2.06521735e-01 3.47826093e-01
      1.96078438e-02 1.17647059e-01 4.90196086e-02 1.47058830e-01
      2.35294119e-01 1.17647059e-01 5.88235296e-02 8.82352963e-02
      1.66666672e-01 4.08163257e-02 5.10204099e-02 6.12244904e-02
      1.32653058e-01 7.14285746e-02 1.22448981e-01 5.10204099e-02
      2.34693885e-01 2.34693885e-01 1.90476198e-02 6.66666701e-02
      4.76190485e-02 8.57142881e-02 1.52380958e-01 1.33333340e-01
      1.04761906e-01 1.04761906e-01 2.85714298e-01 1.83486231e-02
      9.17431191e-02 9.17431153e-03 8.25688094e-02 3.21100920e-01
      1.65137619e-01 8.25688094e-02 1.10091746e-01 1.19266056e-01
      8.54700897e-03 5.98290600e-02 8.54700897e-03 1.19658120e-01
      4.87179488e-01 1.19658120e-01 4.27350439e-02 6.83760718e-02
      8.54700878e-02 1.65289249e-02 1.65289249e-02 8.26446246e-03
      1.32231399e-01 5.20661175e-01 1.57024801e-01 7.43801668e-02
      3.30578499e-02 4.13223132e-02</_>
    <_>
      3.92156877e-02 8.82352963e-02 6.86274543e-02 6.86274543e-02
      2.74509817e-01 7.84313753e-02 2.94117648e-02 1.76470593e-01
      1.76470593e-01 6.52173907e-02 8.69565234e-02 5.43478243e-02
      1.08695654e-02 2.06521735e-01 6.52173907e-02 4.34782617e-02
      2.60869563e-01 2.06521735e-01 2.97029708e-02 4.95049506e-02 0.
      9.90099013e-02 3.96039605e-01 1.68316826e-01 1.98019799e-02
      1.08910888e-01 1.28712878e-01 1.76991150e-02 1.76991150e-02
      8.84955749e-03 1.59292042e-01 3.89380544e-01 2.30088502e-01
      2.65486725e-02 7.96460211e-02 7.07964599e-02 8.47457629e-03
      3.38983051e-02 3.38983051e-02 2.11864412e-01 4.23728824e-01
      9.32203382e-02 1.69491526e-02 7.62711838e-02 1.01694912e-01
      3.80952395e-02 4.76190485e-02 1.90476198e-02 7.61904791e-02
      3.80952388e-01 1.61904767e-01 4.76190485e-02 1.04761906e-01
      1.23809524e-01 0. 1.78571437e-02 2.67857146e-02 1.42857149e-01
      3.75000000e-01 2.50000000e-01 8.03571418e-02 6.25000000e-02
      4.46428582e-02 8.19672085e-03 2.45901644e-02 3.27868834e-02
      1.22950822e-01 3.68852466e-01 2.78688520e-01 7.37704933e-02
      4.91803288e-02 4.09836061e-02 3.84615399e-02 6.73076957e-02
      4.80769239e-02 1.34615391e-01 2.69230783e-01 8.65384638e-02
      3.84615399e-02 1.44230768e-01 1.73076928e-01 1.98019799e-02
      7.92079195e-02 4.95049506e-02 1.18811883e-01 3.26732665e-01
      1.08910888e-01 6.93069324e-02 1.38613865e-01 8.91089141e-02
      5.55555560e-02 1.01851851e-01 2.77777780e-02 3.70370373e-02
      3.51851851e-01 1.38888896e-01 5.55555560e-02 1.38888896e-01
      9.25925896e-02 4.90196086e-02 1.96078438e-02 2.94117648e-02
      1.17647059e-01 3.52941185e-01 2.05882356e-01 1.96078438e-02
      9.80392173e-02 1.07843138e-01</_>
    <_>
      3.26086953e-02 6.52173907e-02 5.43478243e-02 1.84782609e-01
      2.17391297e-01 1.84782609e-01 7.60869533e-02 8.69565234e-02
      9.78260860e-02 2.06185561e-02 5.15463911e-02 1.03092782e-01
      1.44329891e-01 2.98969060e-01 1.34020612e-01 9.27835032e-02
      9.27835032e-02 6.18556701e-02 3.88349518e-02 4.85436879e-02
      9.70873758e-02 1.45631075e-01 2.71844655e-01 1.84466019e-01
      5.82524277e-02 6.79611638e-02 8.73786435e-02 4.46428582e-02
      6.25000000e-02 8.92857183e-03 1.25000000e-01 3.12500000e-01
