<?xml version="1.0"?>
<opencv_storage>
<opencv_ml_svm>
  <format>3</format>
  <svmType>C_SVC</svmType>
  <kernel>
    <type>LINEAR</type></kernel>
  <C>1.0940412504374969e-02</C>
  <term_criteria><epsilon>1.1920928955078125e-07</epsilon>
    <iterations>1000</iterations></term_criteria>
  <var_count>696</var_count>
  <class_count>2</class_count>
  <class_labels type_id="opencv-matrix">
    <rows>2</rows>
    <cols>1</cols>
    <dt>i</dt>
    <data>
      0 1</data></class_labels>
  <class_weights type_id="opencv-matrix">
    <rows>2</rows>
    <cols>1</cols>
    <dt>f</dt>
    <data>
      401. 241.</data></class_weights>
  <sv_total>1</sv_total>
  <support_vectors>
    <_>
      -4.78959262e-01 -2.80630887e-01 -9.58721042e-02 1.08765095e-01
      3.05241257e-01 -2.00176075e-01 -6.49043858e-01 3.83372419e-02
      -3.10736805e-01 5.84101081e-02 1.62620455e-01 -1.24628700e-01
      -1.77975699e-01 -3.68366331e-01 -2.44688705e-01 -9.98768508e-02
      -8.20380524e-02 4.26701717e-02 -8.48550856e-01 -6.06304169e-01
      5.18750906e-01 2.05605850e-01 2.90962487e-01 5.38762324e-02
      1.36626065e-01 5.28747857e-01 9.96996686e-02 1.43193245e-01
      2.07351804e-01 -1.04781194e-02 -6.68552369e-02 -1.10875674e-01
      4.26280141e-01 -2.09476450e-03 4.64211889e-02 -2.27221057e-01
      1.66352987e-01 2.29555354e-01 5.62876225e-01 -1.06826603e-01
      -4.02227193e-02 -2.72972044e-03 -6.52985424e-02 5.51957786e-01
      2.49753639e-01 -2.14097813e-01 -1.82460546e-01 -7.05708921e-01
      1.10665992e-01 3.85862797e-01 5.95874310e-01 -1.54690504e-01
      -9.47168171e-02 2.12553740e-01 -2.92169124e-01 2.60717958e-01
      -2.75691241e-01 4.20255601e-01 1.04591973e-01 -4.87818748e-01
      6.24853782e-02 2.03726273e-02 -1.09709181e-01 1.52790561e-01
      -9.14767385e-02 1.26286983e-01 8.28391612e-02 3.06230932e-02
      1.00655913e+00 -3.59114259e-01 -3.08497429e-01 2.39065606e-02
      4.15581703e-01 -6.98629439e-01 9.60295945e-02 9.96368974e-02
      9.16381031e-02 6.33229315e-01 1.07447517e+00 3.10343981e-01
      3.13035131e-01 1.16139844e-01 2.31430352e-01 3.96259129e-01
      2.20671996e-01 -5.04698083e-02 1.36338800e-01 3.53459641e-02
      -1.05437495e-01 -5.05756676e-01 -6.73096359e-01 -1.90525994e-01
      2.25140288e-01 2.90493462e-02 -3.83174652e-03 7.70217255e-02
      -9.97336432e-02 -3.36981803e-01 3.40095982e-02 3.17515016e-01
      -2.81129628e-01 -6.82371736e-01 9.76046398e-02 -1.89703703e-01
      -9.93099362e-02 -7.87209690e-01 -8.56268585e-01 -3.29919994e-01
      2.08592832e-01 6.44171759e-02 2.65339792e-01 3.42115045e-01
      -2.05619410e-01 2.37900868e-01 -2.90828913e-01 6.41234592e-02
      1.68723747e-01 -1.02640533e+00 8.03907365e-02 -1.91733286e-01
      1.79791510e-01 -4.92959060e-02 -6.47179842e-01 9.54183191e-02
      9.91221368e-02 -4.44510169e-02 -4.80097562e-01 -3.37915212e-01
      -1.85399473e-01 3.49891603e-01 -4.42281842e-01 -9.35310945e-02
      9.92586315e-02 -2.37314656e-01 -2.87280917e-01 3.78394008e-01
      4.12592709e-01 2.19255656e-01 -5.85348308e-02 1.26896380e-02
      3.35686386e-01 7.05048293e-02 -6.12077862e-02 2.17485614e-03
      3.61207902e-01 7.24259913e-02 -9.36485082e-02 2.11152777e-01
      7.25082517e-01 9.83407050e-02 3.28729510e-01 3.04383457e-01
      -2.21001562e-02 -1.82816714e-01 1.61086833e+00 4.31428850e-01
      1.95106372e-01 4.26627666e-01 1.59985945e-01 -4.10141945e-02
      1.81278273e-01 -3.69672924e-01 -4.29145932e-01 -7.97787756e-02
      -8.11575890e-01 1.49867997e-01 5.60976684e-01 -6.08536780e-01
      -3.45295638e-01 4.34406400e-01 -6.13744974e-01 1.44089505e-01
      -4.55736339e-01 -7.04157591e-01 -4.87345219e-01 -4.45789844e-01
      -2.86354106e-02 -6.14884615e-01 2.32119933e-01 -3.84619355e-01
      -9.13404822e-01 1.38125187e-02 -1.72653437e-01 -2.95516998e-01
      -1.84059453e+00 -4.09061555e-03 -1.38700321e-01 -2.67213374e-01
      1.44341993e+00 -4.15389806e-01 -7.24349096e-02 2.81479340e-02
      -2.78114736e-01 -3.75140831e-02 2.62541354e-01 1.72982439e-01
      6.96240589e-02 -4.16411785e-04 -2.88288921e-01 3.18805724e-01
      2.87867915e-02 -7.35903680e-02 -1.47807747e-02 6.65836856e-02
      -1.50950879e-01 -7.07590818e-01 2.59820789e-01 6.98702335e-01
      5.94277978e-02 -1.53448552e-01 -8.27693120e-02 -8.28861371e-02
      -8.60720098e-01 6.81138098e-01 1.36273727e-01 2.90430009e-01
      4.26188648e-01 -1.90516323e-01 -3.48939180e-01 3.65760744e-01
      -4.98401850e-01 1.55535603e+00 1.16082358e+00 -1.28652290e-01
      3.80456865e-01 -4.01698574e-02 1.45950094e-01 1.64181545e-01
      -1.64158195e-01 2.65077949e-01 -1.90233663e-01 1.14700329e+00
      -3.48443896e-01 -1.50886685e-01 -7.90309832e-02 -8.79414529e-02
      -6.44414052e-02 -3.06521803e-01 9.25051048e-02 7.84310922e-02
      -7.03188330e-02 4.76842523e-01 6.69022799e-01 -5.00429094e-01
      -2.72493243e-01 -1.34722376e+00 -2.66532391e-01 5.49792111e-01
      1.92300566e-02 -2.03737736e-01 -4.62422907e-01 6.95353508e-01
      -6.73210740e-01 -7.37752691e-02 2.79200617e-02 -1.15912244e-01
      -4.24209744e-01 1.50752294e+00 -1.25549585e-02 -2.68831074e-01
      1.78304076e-01 -1.21948056e-01 1.43571466e-01 -4.27800596e-01
      4.77372289e-01 3.44460279e-01 2.21321821e-01 -1.20029628e+00
      -9.67315584e-02 3.57009172e-01 5.70315123e-02 -4.88358349e-01
      -5.08085936e-02 2.48105973e-01 -3.29412162e-01 5.49181879e-01
      7.95001805e-01 1.85326517e-01 -1.01469003e-01 -7.07165778e-01
      5.16281307e-01 -4.88721989e-02 1.81445420e-01 1.49929479e-01
      -4.13832128e-01 8.10590982e-01 -2.53956378e-01 3.44092213e-02
      -3.54565948e-01 9.58171427e-01 3.54647309e-01 -6.24799192e-01
      5.79955429e-02 -3.91498618e-02 2.54453301e-01 2.11101361e-02
      -2.02393368e-01 6.23177625e-02 1.54822797e-01 -7.60848820e-01
      -4.93031114e-01 -3.35421026e-01 -6.64825812e-02 -2.46175587e-01
      -8.41238856e-01 -1.01259172e+00 1.33010179e-01 -2.99063504e-01
      -4.03711587e-01 1.59361914e-01 3.48668218e-01 2.66562641e-01
      2.27634162e-02 1.75041243e-01 -6.89462006e-01 2.27364063e-01
      3.07297967e-02 1.21338531e-01 4.44859207e-01 1.19521588e-01
      -6.50802478e-02 -1.16355650e-01 8.09267223e-01 -7.90646672e-02
      2.51338392e-01 2.98163742e-01 2.84166485e-01 6.57003760e-01
      5.54561496e-01 3.60856086e-01 7.02199638e-02 3.59846205e-01
      -5.16082942e-01 -1.13215357e-01 1.07850325e+00 -9.01110843e-02
      -7.05509186e-02 -5.37558615e-01 -1.38501418e+00 1.12278551e-01
      6.57502472e-01 1.12412468e-01 -4.31324989e-02 2.80433178e-01
      -1.09703299e-02 1.00799508e-01 1.06930658e-01 -7.34568387e-03
      2.20649347e-01 -3.80916536e-01 1.59826487e-01 -1.57900348e-01
      2.30151430e-01 -3.80102135e-02 -1.93167016e-01 8.57164338e-02
      6.62274938e-03 -3.53616685e-01 -4.31179851e-01 -1.69656113e-01
      -2.67811008e-02 -1.45737842e-01 2.38578275e-01 -3.70342493e-01
      6.58324882e-02 -1.40571937e-01 -6.33440793e-01 -6.05582237e-01
      -1.83767423e-01 1.40192717e-01 1.01128772e-01 3.23419988e-01
      2.19872415e-01 4.91218418e-01 -6.22461021e-01 9.14718807e-02
      6.61760509e-01 2.42578134e-01 -2.09534153e-01 -3.91200870e-01
      1.37667954e+00 5.97627640e-01 2.22047362e-02 1.48239985e-01
      1.12257197e-01 -4.25312728e-01 -9.40106213e-01 8.74683335e-02
      -1.42334357e-01 4.92773235e-01 -2.70621240e-01 -8.94077003e-01
      1.17950785e+00 1.86580122e-02 -2.71099031e-01 6.20677888e-01
      -6.33674979e-01 1.34654149e-01 2.39074454e-01 -4.88792807e-01
      1.57719657e-01 -4.00665356e-03 -5.35062812e-02 2.10089102e-01
      1.31114051e-01 3.69632185e-01 -6.97520852e-01 -2.46186271e-01
      -7.76879787e-02 -2.44776681e-01 2.22924620e-01 -8.21607113e-02
      -1.78945437e-01 -5.13988435e-02 -1.51773140e-01 -1.72488481e-01
      7.06453085e-01 -1.90136164e-01 -8.28833655e-02 3.04238871e-02
      3.18222433e-01 1.06291354e+00 7.91250989e-02 2.04394519e-01
      -2.70528257e-01 6.90840840e-01 6.04440749e-01 7.43209943e-02
      -4.05592829e-01 -2.18808815e-01 1.17668122e-01 -1.40112355e-01
      -1.69184536e-01 -1.05626531e-01 2.32875824e-01 8.31990317e-02
      -3.36715840e-02 -2.38681152e-01 -1.66272402e-01 2.34796017e-01
      4.68705706e-02 -5.56825846e-02 -4.85375077e-02 -1.44771826e+00
      4.87963051e-01 -1.03030637e-01 4.80734307e-04 3.26931417e-01
      -1.82327460e-02 -5.82042575e-01 -4.63943541e-01 -1.45737259e-02
      -3.83458197e-01 7.67134726e-01 -9.79111075e-01 -2.71846354e-01
      1.94073141e-01 1.65686890e-01 1.31097600e-01 5.28693199e-01
      6.96643367e-02 3.51139992e-01 7.59489834e-02 4.84330386e-01
      -5.96449435e-01 -1.29744798e-01 5.38016409e-02 1.53794829e-02
      -5.15841722e-01 1.59078360e-01 1.41030729e-01 4.02261093e-02
      9.79476981e-03 1.09210052e-01 1.22796738e+00 -3.40251595e-01
      -2.93833375e-01 2.03650951e-01 -3.07945818e-01 9.51742232e-02
      7.73173273e-02 -3.27720344e-01 -4.20974225e-01 -7.72585750e-01
      -3.08056414e-01 1.26407981e-01 -5.71347594e-01 1.39034316e-01
      -1.28350437e-01 1.64854658e+00 5.55491030e-01 1.48657158e-01
      9.76177305e-02 -3.65088843e-02 -1.43044367e-01 -1.53488457e-01
      2.00853780e-01 -2.96468586e-01 -3.90416175e-01 7.53461802e-03
      -1.60180867e-01 4.46507961e-01 -9.30171609e-01 1.32153094e-01
      5.46299815e-02 4.40647006e-02 5.33232763e-02 -1.15685016e-01
      9.50384259e-01 3.60407144e-01 -3.31847101e-01 -1.40806890e+00
      3.60392630e-02 2.57326216e-01 3.82566959e-01 6.47501230e-01
      2.57209659e-01 7.32203722e-02 4.29427102e-02 1.67858779e-01
      -1.13608491e+00 8.52157116e-01 3.34252343e-02 -3.93669933e-01
      5.64877726e-02 -9.74831581e-02 -8.46388470e-03 -2.50513166e-01
      5.77223450e-02 2.28838790e-02 2.09836021e-01 -4.05008346e-01
      3.60860735e-01 -3.68763268e-01 -1.65858537e-01 4.10610884e-02
      -9.59148645e-01 -2.19941664e+00 1.17546178e-01 -2.43240118e-01
      3.07050366e-02 7.79669285e-01 -1.19811818e-02 1.05071291e-01
      1.30739644e-01 2.28238210e-01 -3.27679589e-02 1.24916828e+00
      5.00485562e-02 -1.70120940e-01 4.47062403e-01 2.94331685e-02
      -1.03179850e-01 -1.72907099e-01 4.84150112e-01 8.92603472e-02
      -3.19451421e-01 4.13437575e-01 -4.78781126e-02 -9.52108741e-01
      4.55313236e-01 7.67579973e-01 2.10559759e-02 4.09219682e-01
      -1.53848112e-01 -5.36969751e-02 1.05118489e+00 -4.24608946e-01
      -6.03617549e-01 1.62564263e-01 -6.93388045e-01 4.60929304e-01
      3.35678548e-01 9.63577032e-01 1.25447035e-01 -6.45957440e-02
      -4.11811881e-02 2.37830967e-01 -7.14630961e-01 -2.75660247e-01
      1.25573546e-01 7.40182474e-02 1.26295447e-01 -1.87933877e-01
      1.05912313e-01 1.13030694e-01 -5.88175841e-02 7.28291795e-02
      -1.91956952e-01 -2.63445109e-01 1.09707177e+00 -4.28235888e-01
      -2.28451401e-01 3.15010501e-03 6.08508646e-01 -9.87539232e-01
      2.24346995e-01 -1.81575403e-01 1.36640936e-01 -5.06245673e-01
      -3.08257550e-01 -2.60772854e-01 3.97344977e-02 -8.19905698e-02
      -3.36792380e-01 -9.15262341e-01 -1.43092990e-01 1.58577189e-01
      1.75455064e-01 4.49868627e-02 -3.04634839e-01 -2.99322873e-01
      -2.20295176e-01 6.78671971e-02 3.44349504e-01 2.33230934e-01
      1.46504954e-01 -5.68304300e-01 5.16757727e-01 -3.42404664e-01
      4.78832386e-02 4.46186453e-01 2.07162738e-01 6.77714646e-01
      1.02361655e+00 -1.47209451e-01 -6.47074342e-01 6.82569221e-02
      -6.68700218e-01 1.93963293e-02 4.62578386e-01 5.15432119e-01
      2.12079570e-01 8.78185630e-02 9.45757851e-02 3.27961475e-01
      -6.19087338e-01 2.91898191e-01 -3.23007315e-01 -3.12703550e-01
      1.33650392e-01 -1.49237335e-01 4.21165615e-01 -8.40286911e-02
      -3.66521448e-01 1.37978211e-01 6.68324381e-02 2.20041856e-01
      -3.00254166e-01 -1.27607465e-01 -3.17642055e-02 2.42623970e-01
      1.70380569e+00 -6.86354816e-01 1.17054708e-01 5.29927528e-03
      7.68778101e-02 1.66771996e+00 3.13232124e-01 -6.73373789e-02
      -4.90908831e-01 -2.50690907e-01 -5.61735213e-01 3.15121353e-01
      4.59356099e-01 -1.21405199e-01 4.00250047e-01 1.20670706e-01
      -2.75307655e-01 -7.95429945e-01 7.63279259e-01 -3.56008738e-01
      -6.43760860e-02 3.96898955e-01 -1.65438697e-01 -5.18288612e-01
      -5.18035293e-01 5.41069686e-01 -4.21871960e-01 1.93242133e-01
      -6.86858222e-02 -1.08631492e+00 7.20966280e-01 -1.74226895e-01
      -4.60879415e-01 2.26083145e-01 -9.00441885e-01 -3.90967935e-01
      2.29944233e-02 -9.06593278e-02 2.13277396e-02 5.43137789e-01
      -6.44093752e-03 2.38565907e-01 -4.27318066e-01 5.25003374e-01</_></support_vectors>
  <uncompressed_sv_total>102</uncompressed_sv_total>
  <uncompressed_support_vectors>
    <_>
      2.77777780e-02 1.85185187e-02 0. 9.25925933e-03 1.85185187e-02 0.
      9.25925933e-03 0. 9.25925933e-03 2.77777780e-02 9.25925896e-02
      2.77777780e-02 0. 1.85185187e-02 1.01851851e-01 3.70370373e-02 0.
      0. 9.25925933e-03 4.62962948e-02 9.25925933e-03 9.25925933e-03
      2.77777780e-02 0. 1.85185187e-02 9.25925933e-03 4.62962948e-02
      2.77777780e-02 1.85185187e-02 0. 9.25925933e-03 0. 1.85185187e-02
      9.25925933e-03 0. 5.55555560e-02 0. 9.25925933e-03 9.25925933e-03
      1.85185187e-02 0. 0. 9.25925933e-03 0. 1.85185187e-02
      9.25925933e-03 9.25925933e-03 1.85185187e-02 9.25925933e-03
      1.85185187e-02 0. 1.85185187e-02 1.85185187e-02 9.25925933e-03
      1.85185187e-02 9.25925933e-03 0. 8.33333358e-02 1.85185187e-02 0.
      0. 0. 0. 9.25925933e-03 5.55555560e-02 9.25925933e-03 0.
      9.25925933e-03 1.85185187e-02 9.25925933e-03 0. 3.70370373e-02
      9.25925933e-03 0. 0. 9.25925933e-03 4.62962948e-02 4.62962948e-02
      2.77777780e-02 1.85185187e-02 9.25925933e-03 9.25925933e-03
      3.70370373e-02 3.70370373e-02 1.85185187e-02 9.25925933e-03
      9.25925933e-03 1.85185187e-02 0. 2.77777780e-02 8.33333358e-02
      9.25925933e-03 2.77777780e-02 1.85185187e-02 1.85185187e-02
      3.70370373e-02 3.70370373e-02 2.77777780e-02 1.85185187e-02
      9.25925933e-03 9.25925933e-03 0. 9.25925933e-03 0. 0. 0. 0. 0. 0.
      9.25925933e-03 9.25925933e-03 0. 0. 0. 0. 1.75925925e-01
      8.47457629e-03 8.47457629e-03 8.47457629e-03 8.47457629e-03
      1.69491526e-02 1.69491526e-02 8.47457629e-03 0. 8.47457629e-03
      2.54237279e-02 3.38983051e-02 8.47457629e-03 8.47457629e-03
      7.62711838e-02 7.62711838e-02 5.08474559e-02 8.47457629e-03
      8.47457629e-03 1.69491526e-02 6.77966103e-02 3.38983051e-02 0. 0.
      0. 1.69491526e-02 4.23728824e-02 3.38983051e-02 8.47457629e-03
      8.47457629e-03 0. 0. 0. 0. 0. 0. 1.69491526e-02 0. 0.
      5.08474559e-02 1.69491526e-02 1.69491526e-02 0. 0. 8.47457629e-03
      3.38983051e-02 0. 8.47457629e-03 1.69491526e-02 0. 0. 0.
      3.38983051e-02 0. 0. 2.54237279e-02 0. 8.47457629e-03
      1.52542368e-01 1.72413792e-02 8.62068962e-03 0. 0. 4.31034490e-02
      0. 2.58620698e-02 0. 8.62068962e-03 8.62068962e-03 3.44827585e-02
      0. 0. 8.62068962e-03 8.62068962e-03 0. 0. 0. 5.17241396e-02
      1.29310340e-01 1.72413792e-02 2.58620698e-02 5.17241396e-02 0.
      8.62068962e-03 1.03448279e-01 1.81034476e-01 2.58620698e-02 0. 0.
      0. 2.58620698e-02 0. 0. 0. 0. 0. 3.44827585e-02 1.72413792e-02 0.
      0. 0. 0. 8.62068962e-03 0. 0. 0. 1.72413792e-02 0. 8.62068962e-03
      0. 1.72413792e-02 0. 2.58620698e-02 8.62068962e-03 0. 0.
      7.75862038e-02 9.09090880e-03 0. 0. 0. 9.09090880e-03 0.
      2.72727273e-02 9.09090880e-03 0. 2.72727273e-02 6.36363626e-02 0.
      0. 0. 0. 2.72727273e-02 0. 1.81818176e-02 0. 9.09090880e-03
      2.72727273e-02 0. 9.09090880e-03 1.81818176e-02 6.36363626e-02
      5.45454547e-02 1.81818176e-02 9.09090880e-03 9.09090880e-03
      9.09090880e-03 1.81818176e-02 0. 2.72727273e-02 3.63636352e-02 0.
      0. 1.81818176e-02 0. 0. 0. 1.81818176e-02 0. 1.81818176e-02
      5.45454547e-02 9.09090880e-03 1.81818176e-02 0. 1.63636357e-01
      2.72727273e-02 9.09090880e-03 0. 4.54545468e-02 0. 4.54545468e-02
      9.09090880e-03 0. 0. 6.36363626e-02 2.72727273e-02 0. 0. 0.
      1.81818176e-02 1.81818176e-02 2.72727273e-02 0. 0. 9.09090880e-03
      0. 0. 0. 0. 0. 9.09090880e-03 0. 9.09090880e-03 9.09090880e-03
      9.09090880e-03 9.09090880e-03 9.09090880e-03 2.72727273e-02
      1.81818176e-02 0. 2.72727273e-02 9.09090880e-03 9.09090880e-03 0.
      0. 0. 1.81818176e-02 1.18181817e-01 9.09090880e-03 4.54545468e-02
      9.09090880e-03 1.81818176e-02 4.54545468e-02 7.27272704e-02
      1.81818176e-02 9.09090880e-03 0. 0. 2.72727273e-02 5.45454547e-02
      0. 0. 2.72727273e-02 2.72727273e-02 2.72727273e-02 9.09090880e-03
      9.09090880e-03 1.81818176e-02 2.72727273e-02 3.63636352e-02 0. 0.
      1.27272725e-01 8.06451589e-03 0. 0. 0. 8.06451589e-03
      8.06451589e-03 8.06451589e-03 0. 8.06451589e-03 0. 0. 0. 0.
      1.61290318e-02 0. 0. 0. 8.06451589e-03 2.41935477e-02
      8.87096748e-02 3.22580636e-02 0. 8.06451589e-03 3.22580636e-02
      4.83870953e-02 1.85483873e-01 6.45161271e-02 1.61290318e-02
      8.06451589e-03 0. 0. 0. 8.06451589e-02 0. 0. 0. 1.61290318e-02
      6.45161271e-02 1.12903222e-01 4.83870953e-02 0. 0. 8.06451589e-03
      1.61290318e-02 8.06451589e-03 0. 0. 8.06451589e-03 8.06451589e-03
      0. 0. 1.61290318e-02 8.06451589e-03 0. 8.06451589e-03
      8.06451589e-03 0. 1.61290318e-02 3.33333351e-02 0. 0. 0.
      7.50000030e-02 0. 2.50000004e-02 0. 0. 0. 8.33333377e-03 0. 0. 0.
      0. 8.33333377e-03 0. 0. 2.50000004e-02 1.25000000e-01
      2.50000004e-02 8.33333377e-03 4.16666679e-02 0. 8.33333377e-03
      1.33333340e-01 8.33333358e-02 1.66666675e-02 8.33333377e-03 0. 0.
      8.33333377e-03 3.33333351e-02 1.66666675e-02 0. 3.33333351e-02 0.
      8.33333377e-03 3.33333351e-02 0. 1.66666675e-02 1.66666675e-02 0.
      0. 0. 8.33333377e-03 0. 8.33333377e-03 0. 1.66666675e-02 0.
      2.50000004e-02 8.33333377e-03 2.50000004e-02 8.33333377e-03
      8.33333377e-03 8.33333377e-03 9.16666687e-02 1.83486231e-02 0. 0.
      9.17431153e-03 0. 9.17431153e-03 1.83486231e-02 0. 1.83486231e-02
      0. 1.83486231e-02 0. 0. 1.83486231e-02 0. 9.17431153e-03 0.
      9.17431153e-03 9.17431153e-03 6.42201826e-02 9.17431153e-03
      9.17431153e-03 9.17431153e-03 0. 4.58715595e-02 5.50458729e-02
      5.50458729e-02 1.83486231e-02 9.17431153e-03 0. 9.17431153e-03 0.
      9.17431153e-03 0. 9.17431153e-03 2.75229365e-02 9.17431153e-03
      2.75229365e-02 0. 4.58715595e-02 1.83486231e-02 0. 9.17431153e-03
      0. 9.17431153e-03 1.83486231e-02 0. 5.50458729e-02 0.
      1.83486231e-02 0. 3.66972461e-02 1.83486231e-02 6.42201826e-02
      2.75229365e-02 9.17431153e-03 0. 1.65137619e-01 8.40336177e-03 0.
      8.40336177e-03 8.40336177e-03 0. 0. 1.68067235e-02 0.
      2.52100844e-02 0. 0. 0. 0. 1.68067235e-02 0. 0. 8.40336177e-03 0.
      0. 4.20168079e-02 3.36134471e-02 8.40336177e-03 0. 2.52100844e-02
      2.52100844e-02 8.40336177e-03 5.04201688e-02 0. 4.20168079e-02 0.
      8.40336177e-03 8.40336177e-03 3.36134471e-02 1.68067235e-02 0.
      5.04201688e-02 0. 1.68067235e-02 2.52100844e-02 1.68067235e-02
      1.68067235e-02 1.68067235e-02 8.40336177e-03 1.68067235e-02 0.
      2.52100844e-02 0. 8.40336177e-03 5.04201688e-02 4.20168079e-02 0.
      2.52100844e-02 3.36134471e-02 8.40336177e-03 1.68067235e-02
      2.52100844e-02 8.40336177e-03 1.93277314e-01 2.47933883e-02 0. 0.
      0. 8.26446246e-03 0. 0. 0. 0. 0. 0. 8.26446246e-03 8.26446246e-03
      8.26446246e-03 0. 0. 0. 0. 1.65289249e-02 4.13223132e-02
      1.65289249e-02 8.26446246e-03 1.65289249e-02 8.26446246e-03
      9.09090936e-02 6.61156997e-02 1.32231399e-01 8.26446246e-03 0. 0.
      0. 0. 0. 0. 8.26446246e-03 8.26446246e-03 1.65289249e-02 0.
      8.26446246e-03 0. 8.26446246e-03 1.65289249e-02 5.78512400e-02
      8.26446246e-03 2.47933883e-02 1.65289249e-02 2.47933883e-02
      2.47933883e-02 1.65289249e-02 0. 1.65289249e-02 8.26446265e-02
      6.61156997e-02 0. 3.30578499e-02 1.65289249e-02 1.65289249e-02
      6.61156997e-02 8.84955749e-03 0. 0. 0. 3.53982300e-02 0. 0. 0. 0.
      8.84955749e-03 0. 0. 0. 1.76991150e-02 8.84955749e-03 0.
      8.84955749e-03 0. 2.65486725e-02 1.68141589e-01 2.65486725e-02 0.
      4.42477874e-02 8.84955749e-03 0. 1.85840711e-01 1.32743359e-01
      8.84955749e-03 8.84955749e-03 0. 0. 0. 0. 1.76991150e-02 0.
      1.76991150e-02 8.84955749e-03 0. 8.84955749e-03 0. 0. 0. 0.
      1.76991150e-02 8.84955749e-03 0. 0. 0. 8.84955749e-03
      8.84955749e-03 0. 2.65486725e-02 3.53982300e-02 2.65486725e-02
      8.84955749e-03 8.84955749e-03 8.84955749e-03 8.84955749e-02</_>
    <_>
      0. 0. 0. 0. 0. 0. 0. 0. 0. 0. 0. 8.13008100e-03 0. 5.69105707e-02
      8.13008100e-03 6.50406480e-02 0. 8.13008100e-03 4.06504050e-02
      8.13008100e-03 8.13008100e-03 0. 0. 0. 3.25203240e-02
      2.43902430e-02 1.62601620e-02 2.43902430e-02 0. 0. 0. 0. 0. 0. 0.
      0. 0. 0. 0. 0. 0. 0. 0. 8.13008100e-02 0. 0. 0. 4.87804860e-02
      1.46341458e-01 0. 0. 1.62601620e-02 0. 0. 4.87804860e-02 0.
      8.13008100e-03 3.49593490e-01 0. 0. 0. 0. 0. 0. 0. 0. 0. 0. 0.
      6.14035092e-02 0. 6.14035092e-02 1.84210524e-01 3.50877196e-02 0.
      2.63157897e-02 0. 0. 0. 0. 0. 0. 8.77192989e-03 0. 3.50877196e-02
      1.40350878e-01 0. 0. 0. 0. 0. 0. 0. 0. 0. 0. 0. 0. 0. 0. 0.
      5.26315793e-02 0. 0. 0. 1.84210524e-01 1.75438598e-02 0. 0.
      8.77192989e-03 8.77192989e-03 0. 1.05263159e-01 0. 3.50877196e-02
      3.50877196e-02 0. 0. 0. 0. 0. 0. 0. 0. 0. 0. 0. 2.60869563e-02
      8.69565178e-03 1.21739127e-01 1.65217385e-01 1.73913036e-02 0.
      1.73913036e-02 8.69565178e-03 0. 3.47826071e-02 0. 0. 0.
      5.21739125e-02 8.69565178e-03 1.13043480e-01 1.04347825e-01 0. 0.
      0. 0. 0. 0. 0. 0. 0. 0. 0. 0. 0. 0. 0. 0. 0. 0. 0. 5.21739125e-02
      0. 0. 0. 6.95652142e-02 0. 0. 5.21739125e-02 0. 1.73913036e-02
      1.30434781e-01 0. 0. 0. 0. 0. 0. 0. 0. 0. 0. 0. 8.19672123e-02 0.
      6.55737668e-02 1.14754096e-01 1.47540987e-01 0. 0. 0. 0.
      3.27868834e-02 0. 0. 0. 4.09836061e-02 0. 0. 8.19672085e-03 0. 0.
      0. 0. 0. 0. 0. 0. 0. 0. 0. 0. 0. 0. 0. 0. 0. 0. 0. 4.09836061e-02
      4.91803288e-02 0. 0. 0. 0. 0. 0. 0. 4.09836061e-02 3.77049178e-01
      0. 0. 0. 0. 0. 0. 0. 0. 0. 0. 0. 0. 0. 3.90625000e-02
      6.25000000e-02 6.25000000e-02 0. 0. 0. 5.46875000e-02
      7.81250000e-03 0. 0. 0. 0. 7.81250000e-03 2.50000000e-01
      6.25000000e-02 0. 0. 0. 0. 0. 0. 0. 0. 0. 0. 0. 0. 0. 0. 0. 0. 0.
      0. 0. 0. 0. 0. 0. 0. 0. 0. 1.56250000e-02 0. 0. 4.37500000e-01 0.
      0. 0. 0. 0. 0. 0. 0. 0. 0. 0. 0. 0. 1.01562500e-01 1.71875000e-01
      2.34375000e-02 0. 0. 0. 0. 1.56250000e-02 0. 0. 0. 0. 0.
      4.45312500e-01 1.09375000e-01 0. 0. 0. 0. 0. 0. 0. 0. 0. 0. 0. 0.
      0. 0. 0. 0. 0. 0. 0. 0. 0. 0. 0. 0. 0. 0. 6.25000000e-02 0. 0.
      7.03125000e-02 0. 0. 0. 0. 0. 0. 0. 0. 0. 0. 0. 0. 0.
      7.03125000e-02 1.40625000e-01 6.25000000e-02 0. 0. 0. 0.
      4.68750000e-02 7.81250000e-03 0. 0. 0. 0. 2.65625000e-01
      3.90625000e-02 7.81250000e-03 0. 0. 0. 0. 0. 0. 0. 0. 0. 0. 0. 0.
      0. 0. 0. 0. 0. 0. 0. 0. 0. 0. 0. 0. 0. 2.34375000e-02 0. 0.
      3.35937500e-01 0. 0. 0. 0. 0. 0. 0. 0. 0. 0. 0. 0. 0.
      3.12500000e-02 1.17187500e-01 1.64062500e-01 0. 0. 0. 0.
      2.34375000e-02 7.81250000e-03 0. 0. 0. 0. 0. 0. 7.81250000e-03 0.
      0. 0. 0. 0. 0. 0. 0. 0. 0. 0. 0. 0. 0. 0. 0. 0. 0. 0. 0. 0. 0. 0.
      0. 0. 0. 0. 0. 6.48437500e-01 0. 3.99999991e-02 0. 0. 0. 0. 0. 0.
      0. 0. 1.60000008e-02 0. 0. 3.99999991e-02 1.12000003e-01
      1.43999994e-01 0. 0. 0. 8.00000038e-03 0. 0. 0. 0. 0. 0.
      3.20000015e-02 0. 0. 0. 0. 0. 0. 0. 0. 0. 0. 0. 0. 0. 0. 0. 0.
      3.99999991e-02 0. 0. 0. 0. 8.79999995e-02 0. 0. 0. 0. 0. 0. 0. 0.
      4.79999989e-01 0. 2.34375000e-02 0. 7.81250000e-03 0. 0. 0. 0. 0.
      0. 1.56250000e-02 0. 0. 3.90625000e-02 1.48437500e-01
      7.81250000e-02 0. 0. 0. 0. 2.34375000e-02 7.81250000e-03 0. 0.
      3.12500000e-02 0. 3.90625000e-02 3.12500000e-02 7.81250000e-03 0.
      0. 0. 0. 0. 0. 0. 0. 7.81250000e-03 0. 0. 0. 0. 0. 2.34375000e-02
      0. 0. 0. 3.12500000e-02 6.25000000e-02 0. 0. 2.34375000e-02 0. 0.
      7.81250000e-03 0. 0. 3.90625000e-01 0. 0. 0. 0. 0. 0. 0. 0. 0. 0.
      0. 0. 0. 0. 7.81250000e-03 1.48437500e-01 0. 0. 0. 0.
      2.34375000e-02 7.81250000e-03 0. 0. 1.56250000e-02 0.
      1.56250000e-02 3.12500000e-02 7.81250000e-03 0. 0. 0. 0. 0. 0. 0.
      0. 0. 0. 0. 0. 0. 0. 0. 0. 0. 0. 1.32812500e-01 6.25000000e-02 0.
      0. 2.34375000e-02 7.81250000e-03 0. 7.81250000e-03 7.81250000e-03
      0. 5.00000000e-01 0. 0. 0. 0. 0. 0. 0. 0. 0. 0. 0. 0. 0. 0. 0.
      1.25000000e-01 0. 0. 0. 0. 0. 0. 0. 0. 0. 0. 0. 0. 0. 0. 0. 0. 0.
      0. 0. 0. 0. 0. 0. 0. 0. 0. 0. 0. 0. 0. 0. 9.37500000e-02
      1.17187500e-01 0. 0. 0. 7.81250000e-03 0. 0. 7.81250000e-03 0.
      6.48437500e-01</_>
    <_>
      5.81395365e-02 1.16279069e-02 3.48837227e-02 0. 6.97674453e-02 0.
      1.16279069e-02 0. 1.16279069e-02 0. 1.16279069e-02 1.16279069e-02
      1.16279069e-02 0. 0. 0. 1.16279069e-02 1.16279069e-02 0. 0. 0.
      1.16279069e-02 1.16279069e-02 0. 0. 0. 1.16279069e-02 0.
      1.16279069e-02 1.16279069e-02 0. 1.16279069e-02 6.97674453e-02 0.
      3.48837227e-02 2.32558139e-02 1.16279069e-02 0. 1.16279069e-02 0.
      3.48837227e-02 4.65116277e-02 1.16279069e-02 1.16279069e-02 0.
      1.16279069e-02 3.48837227e-02 0. 0. 0. 3.48837227e-02 0. 0.
      3.48837227e-02 2.32558139e-02 1.16279069e-02 2.32558139e-02
      2.44186044e-01 8.98876414e-02 0. 0. 0. 2.24719103e-02
      1.12359552e-02 0. 1.12359552e-02 1.12359552e-02 0. 0. 0.
      1.12359552e-02 1.12359552e-02 0. 3.37078646e-02 1.12359552e-02 0.
      1.12359552e-02 7.86516890e-02 0. 1.12359552e-02 2.24719103e-02 0.
      0. 2.24719103e-02 4.49438207e-02 3.37078646e-02 6.74157292e-02 0.
      1.12359552e-02 0. 0. 1.12359552e-02 1.12359552e-02 1.12359552e-02
      0. 1.12359552e-02 1.12359552e-02 1.12359552e-02 1.12359552e-02
      1.12359552e-02 0. 0. 0. 4.49438207e-02 1.12359552e-02
      1.12359552e-02 0. 0. 0. 0. 0. 2.24719103e-02 4.49438207e-02
      1.12359552e-02 1.12359552e-02 2.35955060e-01 4.34782617e-02 0. 0.
      0. 0. 0. 0. 0. 0. 0. 1.08695654e-02 0. 0. 0. 2.17391308e-02
      4.34782617e-02 0. 0. 0. 0. 0. 0. 0. 3.26086953e-02 0. 0.
      1.08695654e-02 1.08695654e-02 4.34782617e-02 0. 0. 2.17391308e-02
      0. 0. 0. 5.43478243e-02 0. 3.26086953e-02 0. 1.08695654e-02 0.
      3.26086953e-02 0. 1.08695654e-02 0. 0. 2.17391308e-02 0.
      3.26086953e-02 1.08695654e-02 3.26086953e-02 0. 0. 4.34782617e-02
      0. 2.17391308e-02 2.17391308e-02 4.34782594e-01 7.52688199e-02
      1.07526882e-02 0. 0. 2.15053763e-02 1.07526882e-02 0. 0. 0.
      1.07526882e-02 1.07526882e-02 1.07526882e-02 0. 0. 5.37634417e-02
      1.07526882e-02 0. 0. 0. 0. 0. 0. 0. 0. 0. 0. 0. 0. 2.15053763e-02
      0. 3.22580636e-02 1.07526882e-02 1.07526882e-02 0. 3.22580636e-02
      2.15053763e-02 0. 1.07526882e-02 1.07526883e-01 4.30107526e-02
      2.15053763e-02 3.22580636e-02 0. 1.07526882e-02 0. 7.52688199e-02
      2.15053763e-02 0. 2.15053763e-02 4.30107526e-02 3.22580636e-02 0.
      0. 4.30107526e-02 0. 1.07526882e-02 2.15053763e-02 1.61290318e-01
      1.05263162e-02 0. 2.10526325e-02 1.05263162e-02 0. 0. 0. 0. 0. 0.
      1.05263162e-02 1.05263162e-02 0. 0. 1.05263162e-02 2.10526325e-02
      0. 0. 0. 0. 0. 0. 0. 0. 0. 0. 0. 0. 2.10526325e-02 0. 0.
      5.26315793e-02 1.89473689e-01 2.10526325e-02 3.15789469e-02
      3.15789469e-02 1.05263162e-02 0. 1.05263162e-02 6.31578937e-02
      6.31578937e-02 5.26315793e-02 0. 0. 0. 1.05263162e-02
      2.10526325e-02 0. 0. 1.05263162e-02 3.15789469e-02 1.05263162e-02
      1.05263162e-02 2.10526325e-02 0. 3.15789469e-02 2.10526325e-02
      1.89473689e-01 4.85436879e-02 0. 0. 0. 1.94174759e-02 0. 0. 0. 0.
      0. 0. 0. 0. 9.70873795e-03 1.94174759e-02 9.70873795e-03 0. 0.
      1.94174759e-02 6.79611638e-02 9.70873795e-03 3.88349518e-02
      1.94174759e-02 9.70873795e-03 9.70873795e-03 0. 0. 4.85436879e-02
      9.70873795e-03 9.70873795e-03 9.70873795e-03 9.70873795e-03
      9.70873795e-03 9.70873795e-03 1.94174759e-02 9.70873795e-03
      9.70873795e-03 9.70873795e-03 1.94174759e-02 9.70873795e-03
      1.94174759e-02 1.94174759e-02 2.91262139e-02 6.79611638e-02
      9.70873795e-03 2.91262139e-02 1.94174759e-02 4.85436879e-02
      3.88349518e-02 0. 3.88349518e-02 9.70873795e-03 9.70873795e-03
      2.91262139e-02 9.70873795e-03 3.88349518e-02 9.70873795e-03
      1.06796116e-01 1.90476198e-02 0. 9.52380989e-03 9.52380989e-03
      9.52380989e-03 2.85714287e-02 0. 0. 9.52380989e-03 0. 0. 0. 0. 0.
      8.57142881e-02 9.52380989e-03 0. 9.52380989e-03 9.52380989e-03 0.
      0. 0. 9.52380989e-03 0. 2.85714287e-02 0. 0. 0. 9.52380989e-03
      9.52380989e-03 1.90476198e-02 0. 9.52380989e-03 0. 9.52380989e-03
      3.80952395e-02 9.52380989e-03 5.71428575e-02 5.71428575e-02
      9.52380989e-03 9.52380989e-03 2.85714287e-02 9.52380989e-03
      1.42857149e-01 5.71428575e-02 2.85714287e-02 9.52380989e-03
      9.52380989e-03 2.85714287e-02 3.80952395e-02 1.90476198e-02 0.
      9.52380989e-03 2.85714287e-02 0. 9.52380989e-03 0. 1.04761906e-01
      5.68181835e-02 0. 1.13636367e-02 0. 0. 2.27272734e-02 0. 0. 0. 0.
      0. 1.13636367e-02 0. 1.13636367e-02 1.13636367e-02 0.
      2.27272734e-02 0. 2.27272734e-02 0. 0. 1.13636367e-02
      1.13636367e-02 1.13636367e-02 1.13636367e-02 1.13636367e-02 0. 0.
      0. 0. 2.27272734e-02 1.13636367e-02 2.27272734e-02 0. 0.
      3.40909101e-02 3.40909101e-02 3.40909101e-02 0. 1.13636367e-02
      1.13636367e-02 4.54545468e-02 4.54545468e-02 6.81818202e-02
      1.13636367e-02 1.13636367e-02 1.13636367e-02 0. 2.27272734e-02
      1.13636367e-02 3.40909101e-02 0. 1.13636367e-02 7.95454532e-02
      1.13636367e-02 1.13636367e-02 1.13636367e-02 2.04545453e-01
      1.70940179e-02 0. 0. 0. 0. 0. 8.54700897e-03 0. 0. 0. 0. 0. 0. 0.
      0. 0. 0. 0. 0. 0. 0. 0. 0. 0. 0. 0. 0. 8.54700897e-03
      2.56410260e-02 0. 0. 8.54700897e-03 0. 0. 1.70940179e-02
      4.27350439e-02 0. 0. 0. 1.70940179e-02 1.70940179e-02
      5.12820520e-02 0. 0. 0. 8.54700897e-03 3.41880359e-02 0. 0.
      8.54700897e-03 2.56410260e-02 0. 0. 2.56410260e-02 0.
      2.56410260e-02 1.70940179e-02 6.41025662e-01 2.65486725e-02 0. 0.
      8.84955749e-03 8.84955749e-03 1.76991150e-02 3.53982300e-02 0.
      8.84955749e-03 0. 8.84955749e-03 0. 0. 0. 0. 0. 0. 0. 0. 0. 0.
      8.84955749e-03 8.84955749e-03 0. 0. 0. 0. 8.84955749e-03
      1.76991150e-02 0. 8.84955749e-03 1.76991150e-02 1.32743359e-01
      7.07964599e-02 1.76991150e-02 1.76991150e-02 0. 8.84955749e-03 0.
      5.30973449e-02 4.42477874e-02 7.96460211e-02 0. 1.76991150e-02
      8.84955749e-03 8.84955749e-03 2.65486725e-02 8.84955749e-03 0. 0.
      1.76991150e-02 0. 0. 1.76991150e-02 0. 1.76991150e-02
      8.84955749e-03 2.56637156e-01 6.66666701e-02 2.22222228e-02
      2.22222228e-02 1.11111114e-02 1.11111114e-02 1.11111114e-02
      2.22222228e-02 0. 0. 1.11111114e-02 1.77777782e-01 0. 0. 0. 0. 0.
      0. 1.11111114e-02 0. 0. 1.11111114e-02 0. 0. 1.11111114e-02 0.
      1.11111114e-02 1.11111114e-02 0. 1.11111114e-02 0. 0.
      1.11111114e-02 2.22222228e-02 1.11111114e-02 5.55555560e-02
      4.44444455e-02 0. 0. 1.11111114e-02 2.22222228e-02 4.44444455e-02
      2.22222228e-02 0. 0. 0. 1.11111114e-02 4.44444455e-02 0. 0.
      1.11111114e-02 2.22222228e-02 0. 0. 3.33333351e-02 0. 0. 0.
      2.11111113e-01 1.20481931e-01 6.02409653e-02 2.40963846e-02
      1.20481923e-02 1.20481923e-02 0. 0. 1.20481923e-02 1.20481923e-02
      3.61445770e-02 2.40963846e-02 1.20481923e-02 0. 0. 0. 0. 0. 0. 0.
      0. 2.40963846e-02 4.81927693e-02 4.81927693e-02 0. 1.20481923e-02
      0. 1.20481923e-02 0. 2.40963846e-02 1.20481923e-02 0. 0. 0. 0.
      2.40963846e-02 7.22891539e-02 0. 0. 1.20481923e-02 1.20481923e-02
      1.20481923e-02 2.40963846e-02 1.20481923e-02 0. 0. 0.
      1.20481923e-02 0. 0. 0. 1.20481923e-02 1.20481923e-02 0.
      1.20481923e-02 0. 3.61445770e-02 2.40963846e-02 2.16867477e-01</_>
    <_>
      8.84955749e-03 8.84955749e-03 0. 0. 0. 0. 0. 0. 8.84955749e-03
      3.53982300e-02 1.76991150e-02 0. 0. 4.42477874e-02 3.27433616e-01
      9.73451361e-02 0. 8.84955749e-03 0. 2.65486725e-02 1.06194690e-01
      2.65486725e-02 8.84955749e-03 0. 0. 8.84955749e-03 1.76991150e-02
      8.84955749e-03 8.84955749e-03 0. 0. 0. 0. 8.84955749e-03
      8.84955749e-03 8.84955749e-03 0. 8.84955749e-03 0. 0.
      8.84955749e-03 1.76991150e-02 1.76991150e-02 1.76991150e-02
      1.76991150e-02 0. 0. 0. 1.76991150e-02 0. 0. 8.84955749e-03 0. 0.
      0. 8.84955749e-03 1.76991150e-02 6.19469024e-02 0. 8.06451589e-03
      0. 0. 0. 0. 3.22580636e-02 0. 0. 8.06451589e-03 8.06451589e-02
      8.06451589e-03 0. 4.03225794e-02 3.22580636e-01 1.61290318e-01 0.
      0. 0. 0. 3.22580636e-02 8.06451589e-03 0. 0. 0. 0. 8.06451589e-03
      1.61290318e-02 8.06451589e-03 0. 0. 0. 8.06451589e-03
      4.83870953e-02 2.41935477e-02 0. 0. 0. 0. 0. 2.41935477e-02
      4.83870953e-02 0. 0. 0. 0. 8.06451589e-03 0. 0. 0. 0. 0. 0. 0. 0.
      0. 2.41935477e-02 8.06451589e-02 0. 0. 0. 0. 0. 0. 3.12500000e-02
      0. 0. 7.81250000e-03 1.32812500e-01 0. 0. 0. 7.03125000e-02
      2.73437500e-01 0. 0. 0. 0. 2.34375000e-02 2.34375000e-02 0. 0. 0.
      0. 7.81250000e-03 0. 0. 0. 0. 0. 1.56250000e-02 4.68750000e-02
      7.81250000e-02 7.81250000e-03 0. 0. 0. 0. 3.12500000e-02
      7.81250000e-02 0. 0. 0. 0. 7.81250000e-03 0. 0. 0. 7.81250000e-03
      0. 0. 0. 0. 0. 3.12500000e-02 1.25000000e-01 0. 8.84955749e-03 0.
      0. 0. 8.84955749e-03 1.76991150e-02 0. 0. 2.65486725e-02
      8.84955749e-02 0. 0. 0. 6.19469024e-02 1.50442481e-01 0. 0. 0. 0.
      1.76991150e-02 4.42477874e-02 0. 0. 0. 0. 0. 0. 1.76991150e-02 0.
      8.84955749e-03 8.84955749e-03 4.42477874e-02 3.53982300e-02
      1.76991150e-02 3.53982300e-02 0. 8.84955749e-03 2.65486725e-02
      2.65486725e-02 2.65486725e-02 3.53982300e-02 8.84955749e-03 0.
      2.65486725e-02 1.76991150e-02 8.84955749e-03 0. 0. 8.84955749e-03
      8.84955749e-03 0. 0. 0. 0. 0. 1.76991150e-02 1.85840711e-01 0. 0.
      0. 0. 8.13008100e-03 0. 2.43902430e-02 0. 0. 4.87804860e-02
      3.25203240e-02 0. 0. 0. 4.06504050e-02 9.75609720e-02 0. 0. 0. 0.
      8.13008100e-03 2.43902430e-02 0. 0. 0. 0. 0. 1.62601620e-02
      2.43902430e-02 0. 0. 0. 0. 4.87804860e-02 6.50406480e-02
      1.62601620e-02 0. 0. 0. 1.62601620e-02 8.13008100e-03
      6.50406480e-02 0. 0. 0. 8.13008100e-03 0. 0. 0. 0. 8.13008100e-03
      0. 0. 1.62601620e-02 1.62601620e-02 1.62601620e-02 0.
      3.90243888e-01 7.93650839e-03 0. 0. 0. 7.93650839e-03 0.
      3.96825410e-02 0. 0. 0. 4.76190485e-02 7.93650839e-03 0. 0.
      1.58730168e-02 5.55555560e-02 0. 0. 0. 0. 0. 0. 7.93650839e-03 0.
      0. 0. 0. 0. 7.93650839e-03 0. 7.93650839e-03 1.58730168e-02
      3.17460336e-02 1.58730168e-02 3.17460336e-02 0. 0. 7.93650839e-03
      1.19047619e-01 7.14285746e-02 2.38095243e-02 3.96825410e-02 0. 0.
      7.14285746e-02 3.17460336e-02 7.93650839e-03 0. 0. 1.58730168e-02
      4.76190485e-02 0. 0. 0. 0. 0. 0. 2.61904776e-01 0. 0. 0. 0. 0. 0.
      8.00000038e-03 0. 0. 0. 6.40000030e-02 0. 0. 8.00000038e-03 0. 0.
      0. 0. 0. 0. 0. 0. 0. 0. 8.00000038e-03 0. 0. 0. 0. 0.
      8.00000038e-03 2.40000002e-02 2.40000002e-02 8.00000038e-03 0. 0.
      0. 9.60000008e-02 1.43999994e-01 4.80000004e-02 0. 8.00000038e-03
      0. 2.47999996e-01 2.16000006e-01 1.60000008e-02 0. 0.
      8.00000038e-03 1.60000008e-02 8.00000038e-03 0. 0. 0. 0. 0. 0.
      3.99999991e-02 0. 0. 0. 0. 7.87401572e-03 0. 0. 0. 0. 0. 0. 0. 0.
      0. 0. 0. 0. 0. 0. 0. 0. 0. 0. 0. 0. 0. 0. 0. 0. 0. 0.
      1.57480314e-02 0. 0. 0. 0. 0. 8.66141766e-02 8.66141766e-02
      6.29921257e-02 0. 7.87401572e-03 3.93700786e-02 3.38582665e-01
      1.18110240e-01 4.72440943e-02 7.87401572e-03 1.57480314e-02
      6.29921257e-02 3.93700786e-02 2.36220472e-02 7.87401572e-03 0.
      2.36220472e-02 0. 0. 0. 7.87401572e-03 1.70940179e-02 0. 0. 0. 0.
      0. 3.41880359e-02 0. 0. 0. 0. 0. 0. 0. 8.54700897e-03
      3.41880359e-02 0. 0. 0. 0. 8.54700897e-03 0. 1.70940179e-02 0. 0.
      0. 0. 0. 0. 0. 8.54700897e-03 8.54700897e-03 8.54700897e-03 0.
      8.54700897e-03 1.70940179e-02 1.70940179e-02 2.56410260e-02
      3.50427359e-01 1.36752144e-01 8.54700897e-03 8.54700897e-03
      1.70940179e-02 0. 7.69230798e-02 1.70940179e-02 8.54700897e-03 0.
      5.12820520e-02 1.70940179e-02 2.56410260e-02 0. 8.54700897e-03
      2.56410260e-02 0. 8.54700897e-03 0. 2.56410260e-02 0. 0.
      8.13008100e-03 0. 0. 0. 0. 0. 0. 0. 0. 0. 0. 0. 0. 0. 0. 0. 0. 0.
      0. 0. 0. 8.13008100e-03 0. 0. 0. 0. 0. 0. 0. 2.43902430e-02
      1.62601620e-02 0. 0. 0. 0. 5.69105707e-02 4.79674786e-01
      7.31707290e-02 8.13008100e-03 0. 0. 4.06504050e-02 1.54471546e-01
      8.13008100e-03 1.62601620e-02 0. 8.13008100e-03 0. 1.62601620e-02
      0. 0. 8.13008100e-03 0. 1.62601620e-02 1.62601620e-02
      4.06504050e-02 0. 0. 0. 0. 0. 8.62068962e-03 0. 0. 0. 0. 0.
      8.62068962e-03 0. 5.17241396e-02 9.48275849e-02 0. 0. 0.
      5.17241396e-02 4.31034490e-02 8.62068962e-03 0. 8.62068962e-03
      8.62068962e-03 8.62068962e-03 8.62068962e-03 0. 0. 0. 0. 0. 0. 0.
      0. 0. 0. 0. 4.31034490e-02 1.29310340e-01 3.44827585e-02 0.
      1.72413792e-02 0. 7.75862038e-02 1.03448279e-01 0. 0.
      1.72413792e-02 1.72413792e-02 1.72413792e-02 1.72413792e-02
      5.17241396e-02 2.58620698e-02 1.72413792e-02 0. 2.58620698e-02
      8.62068962e-03 9.48275849e-02 8.19672085e-03 0. 0. 0.
      3.27868834e-02 0. 0. 0. 0. 5.73770478e-02 1.63934417e-02
      2.45901644e-02 8.19672085e-03 4.91803288e-02 2.45901644e-01
      1.63934417e-02 0. 0. 1.63934417e-02 5.73770478e-02 1.14754096e-01
      0. 8.19672085e-03 0. 0. 1.63934417e-02 3.27868834e-02
      8.19672085e-03 1.63934417e-02 0. 0. 0. 1.63934417e-02
      8.19672085e-03 1.63934417e-02 0. 0. 1.63934417e-02 2.45901644e-02
      1.63934417e-02 1.63934417e-02 0. 0. 8.19672085e-03 0. 0. 0.
      2.45901644e-02 0. 8.19672085e-03 8.19672085e-03 4.91803288e-02
      8.19672085e-03 8.19672085e-03 1.63934417e-02 1.63934417e-02 0.
      8.19672085e-03</_>
    <_>
      1.75438598e-02 0. 0. 0. 8.77192989e-03 8.77192989e-03 0. 0. 0.
      8.77192989e-03 0. 0. 0. 8.77192989e-03 0. 0. 0. 8.77192989e-03
      1.75438598e-02 4.47368413e-01 0. 0. 1.75438598e-02 0. 0.
      1.75438598e-02 7.89473653e-02 8.77192989e-03 8.77192989e-03 0. 0.
      1.75438598e-02 0. 8.77192989e-03 0. 2.63157897e-02 0. 0.
      2.63157897e-02 2.63157897e-02 1.75438598e-02 0. 8.77192989e-03 0.
      0. 8.77192989e-03 0. 8.77192989e-03 8.77192989e-03 0.
      8.77192989e-03 0. 8.77192989e-03 2.63157897e-02 0. 0.
      8.77192989e-03 1.31578952e-01 8.13008100e-03 0. 0. 0. 0. 0. 0. 0.
      0. 0. 0. 0. 0. 0. 0. 0. 0. 8.13008100e-03 1.62601620e-02
      1.54471546e-01 8.13008100e-03 0. 8.13008100e-03 0. 4.87804860e-02
      8.13008100e-02 1.95121944e-01 8.13008100e-03 8.13008100e-03 0. 0.
      0. 1.62601620e-02 0. 0. 8.13008100e-03 0. 4.06504050e-02 0.
      8.13008100e-03 0. 0. 8.13008100e-03 0. 3.25203240e-02
      3.25203240e-02 0. 0. 2.43902430e-02 3.25203240e-02 2.43902430e-02
      2.43902430e-02 4.06504050e-02 8.13008100e-03 0. 3.25203240e-02
      1.62601620e-02 1.05691060e-01 0. 8.26446246e-03 0. 0. 0. 0. 0. 0.
      0. 0. 0. 0. 0. 0. 0. 0. 0. 0. 0. 8.26446246e-03 0. 0. 0. 0.
      8.26446246e-03 1.65289249e-02 1.65289249e-02 1.65289249e-02
      8.26446246e-03 0. 0. 2.47933883e-02 1.65289249e-02 0. 0. 0.
      8.26446246e-03 3.30578499e-02 1.15702480e-01 3.30578499e-02
      8.26446246e-03 8.26446246e-03 2.47933883e-02 2.47933883e-02
      9.91735533e-02 5.78512400e-02 8.26446246e-03 4.13223132e-02
      8.26446246e-03 2.47933883e-02 8.26446265e-02 8.26446246e-03
      8.26446246e-03 0. 1.65289249e-02 2.47933883e-02 0. 2.39669427e-01
      7.93650839e-03 7.93650839e-03 0. 0. 0. 0. 0. 0. 0. 0. 0. 0. 0. 0.
      0. 0. 0. 0. 0. 0. 0. 0. 0. 0. 0. 0. 0. 0. 0. 0. 0. 3.96825410e-02
      2.38095243e-02 0. 0. 0. 0. 4.76190485e-02 4.76190478e-01
      8.73015895e-02 0. 0. 0. 1.58730168e-02 9.52380970e-02
      3.17460336e-02 0. 0. 1.58730168e-02 1.58730168e-02 7.93650839e-03
      0. 0. 1.03174604e-01 0. 0. 0. 2.38095243e-02 0. 0. 0. 0. 0. 0. 0.
      0. 0. 0. 0. 0. 0. 0. 0. 0. 0. 0. 8.00000038e-03 4.39999998e-01 0.
      0. 8.00000038e-03 1.60000008e-02 8.00000038e-03 9.60000008e-02
      2.96000004e-01 0. 0. 0. 0. 0. 0. 0. 0. 9.60000008e-02 0. 0. 0. 0.
      0. 0. 0. 0. 0. 0. 0. 0. 0. 0. 0. 0. 0. 1.60000008e-02 0. 0. 0.
      1.60000008e-02 1.70940179e-02 0. 0. 0. 0. 8.54700897e-03 0. 0. 0.
      0. 0. 0. 0. 0. 0. 0. 0. 1.70940179e-02 8.54700897e-03 0.
      8.54700897e-03 8.54700897e-03 0. 1.70940179e-02 2.56410260e-02 0.
      3.41880359e-02 8.54700897e-03 2.56410260e-02 0. 0. 0. 0. 0. 0. 0.
      1.70940179e-02 8.54700897e-03 8.54700897e-03 0. 0. 0.
      2.56410260e-02 5.98290600e-02 1.70940179e-02 8.54700897e-03 0.
      1.70940179e-02 5.12820520e-02 5.12820520e-02 5.98290600e-02
      1.70940179e-02 4.27350439e-02 4.27350439e-02 4.27350439e-02
      4.27350439e-02 0. 3.07692319e-01 0. 0. 0. 0. 0. 0. 0. 0. 0. 0. 0.
      0. 0. 0. 0. 0. 0. 0. 0. 0. 0. 0. 0. 0. 0. 0. 0. 0. 0. 0. 0. 0. 0.
      0. 0. 0. 7.87401572e-03 2.36220472e-02 6.37795269e-01
      7.08661452e-02 0. 0. 7.87401572e-03 1.57480314e-02 5.51181100e-02
      1.57480314e-02 0. 2.36220472e-02 3.14960629e-02 0. 2.36220472e-02
      0. 0. 0. 0. 0. 0. 8.66141766e-02 1.69491526e-02 0. 0. 0.
      1.69491526e-02 0. 8.47457629e-03 0. 0. 0. 0. 0. 0. 8.47457629e-03
      0. 8.47457629e-03 0. 0. 8.47457629e-03 0. 1.69491526e-02
      1.69491526e-02 0. 0. 0. 8.47457629e-03 1.69491526e-02 0.
      8.47457629e-03 0. 0. 2.54237279e-02 1.69491526e-02 0.
      2.54237279e-02 0. 0. 3.38983051e-02 3.47457618e-01 4.23728824e-02
      8.47457629e-03 8.47457629e-03 8.47457629e-03 8.47457629e-03
      3.38983051e-02 2.54237279e-02 0. 0. 1.69491526e-02 8.47457629e-03
      1.69491526e-02 1.69491526e-02 8.47457629e-03 3.38983051e-02
      8.47457629e-03 1.69491526e-02 0. 1.52542368e-01 0. 0. 0. 0. 0. 0.
      0. 0. 0. 0. 0. 0. 0. 0. 0. 0. 0. 0. 2.41935477e-02 9.67741907e-02
      0. 0. 0. 8.06451589e-03 4.83870953e-02 2.41935477e-01
      3.70967746e-01 0. 0. 0. 0. 0. 0. 0. 0. 7.25806430e-02 0. 0. 0. 0.
      0. 0. 8.06451589e-03 0. 0. 0. 0. 1.61290318e-02 0. 0. 0.
      8.06451589e-03 1.61290318e-02 8.06451589e-03 3.22580636e-02
      8.06451589e-03 0. 4.03225794e-02 0. 0. 0. 0. 0. 0. 0. 0. 0. 0. 0.
      0. 0. 0. 0. 0. 0. 8.13008100e-03 0. 0. 0. 0. 0. 0. 0.
      8.13008100e-03 8.13008100e-03 8.13008100e-03 0. 8.13008100e-03 0.
      1.62601620e-02 8.13008100e-03 0. 0. 0. 2.43902430e-02
      5.69105707e-02 1.30081296e-01 8.94308910e-02 0. 0. 1.62601620e-02
      3.25203240e-02 1.13821141e-01 5.69105707e-02 8.13008100e-03
      4.87804860e-02 6.50406480e-02 4.87804860e-02 3.25203240e-02
      3.25203240e-02 2.43902430e-02 8.13008100e-03 8.13008100e-03
      1.62601620e-02 0. 1.21951222e-01 0. 0. 0. 0. 0. 8.13008100e-03
      8.13008100e-03 0. 0. 0. 0. 0. 0. 0. 0. 0. 0. 0. 8.13008100e-03 0.
      8.13008100e-03 0. 0. 0. 8.13008100e-03 0. 0. 8.13008100e-03 0. 0.
      0. 8.13008100e-03 1.62601620e-02 0. 0. 8.13008100e-03
      8.13008100e-03 2.43902430e-02 6.50406480e-01 8.94308910e-02 0. 0.
      0. 0. 1.62601620e-02 8.13008100e-03 1.62601620e-02 0. 0.
      8.13008100e-03 1.62601620e-02 8.13008100e-03 8.13008100e-03
      8.13008100e-03 0. 0. 8.13008100e-03 4.87804860e-02 8.54700897e-03
      0. 0. 0. 1.02564104e-01 0. 0. 0. 0. 0. 8.54700897e-03 0. 0.
      8.54700897e-03 0. 0. 0. 0. 2.56410260e-02 1.45299152e-01 0. 0.
      1.70940179e-02 0. 0. 8.54700897e-03 0. 8.54700897e-03
      8.54700897e-03 8.54700897e-03 0. 0. 0. 0. 0. 5.12820520e-02 0.
      8.54700897e-03 6.83760718e-02 9.40170959e-02 0. 2.56410260e-02 0.
      0. 2.56410260e-02 1.70940179e-02 0. 0. 8.54700897e-03
      8.54700897e-03 1.70940179e-02 0. 0. 1.70940179e-02 0. 0. 0.
      3.07692319e-01</_>
    <_>
      8.47457629e-03 8.47457629e-03 0. 8.47457629e-03 0. 0.
      3.38983051e-02 0. 0. 0. 0. 0. 0. 0. 0. 8.47457629e-03 0. 0. 0. 0.
      0. 0. 1.69491526e-02 2.54237279e-02 8.47457629e-03 0. 0. 0. 0. 0.
      0. 0. 0. 0. 0. 1.69491526e-02 0. 1.69491526e-02 2.96610177e-01
      1.52542368e-01 0. 0. 0. 2.54237279e-02 6.77966103e-02
      8.47457647e-02 8.47457629e-03 0. 0. 2.54237279e-02 2.54237279e-02
      0. 0. 2.54237279e-02 0. 0. 8.47457629e-03 1.27118647e-01 0. 0. 0.
      8.00000038e-03 0. 0. 4.80000004e-02 0. 0. 0. 8.00000038e-03 0. 0.
      0. 0. 0. 0. 0. 0. 0. 0. 0. 0. 0. 0. 0. 0. 0. 0. 0. 0.
      3.20000015e-02 0. 0. 0. 0. 0. 2.40000002e-02 4.79999989e-01
      2.56000012e-01 0. 0. 0. 0. 2.40000002e-02 3.20000015e-02 0. 0. 0.
      8.00000038e-03 8.00000038e-03 0. 0. 0. 0. 0. 0. 7.19999969e-02 0.
      0. 0. 2.72727273e-02 9.09090880e-03 9.09090880e-03 0. 0. 0. 0. 0.
      0. 0. 1.81818176e-02 9.09090880e-03 0. 0. 0. 9.09090880e-03
      4.09090906e-01 9.09090880e-03 9.09090880e-03 0. 0. 0. 0.
      6.36363626e-02 2.72727273e-02 2.72727273e-02 0. 0. 0. 0. 0.
      9.09090880e-03 1.81818176e-02 0. 0. 1.09090909e-01 9.09090880e-03
      0. 0. 0. 0. 0. 0. 1.81818176e-02 0. 0. 0. 0. 0. 0. 2.72727273e-02
      0. 0. 2.72727273e-02 1.54545456e-01 0. 0. 0. 0. 8.40336177e-03 0.
      5.04201688e-02 0. 8.40336177e-03 2.52100844e-02 3.36134471e-02 0.
      0. 5.88235296e-02 5.04201688e-02 2.52100844e-02 0. 0.
      8.40336177e-03 9.24369767e-02 4.20168079e-02 8.40336177e-03 0. 0.
      0. 0. 8.40336177e-03 1.68067235e-02 2.52100844e-02 0. 0.
      2.52100844e-02 9.24369767e-02 8.40336177e-03 8.40336177e-03
      2.52100844e-02 0. 0. 2.52100844e-02 1.42857149e-01 1.68067235e-02
      8.40336177e-03 0. 0. 0. 0. 1.68067235e-02 0. 0. 0. 0. 0. 0.
      6.72268942e-02 0. 0. 8.40336177e-03 9.24369767e-02 0. 0. 0. 0. 0.
      0. 8.19672085e-03 0. 0. 0. 0. 0. 0. 0. 0. 8.19672085e-03 0. 0. 0.
      8.19672085e-03 1.63934417e-02 0. 1.63934417e-02 9.01639313e-02
      8.19672085e-03 0. 8.19672085e-03 1.63934417e-02 8.19672085e-03 0.
      0. 0. 8.19672085e-03 8.19672085e-03 8.19672085e-03 1.63934417e-02
      8.19672085e-03 1.22950822e-01 1.14754096e-01 2.45901644e-02 0.
      1.63934417e-02 0. 1.31147534e-01 1.39344260e-01 2.45901644e-02 0.
      0. 2.45901644e-02 2.45901644e-02 8.19672085e-03 0. 0.
      2.45901644e-02 8.19672085e-03 0. 0. 9.83606577e-02 0. 0. 0. 0. 0.
      0. 0. 0. 0. 0. 0. 0. 8.62068962e-03 6.89655170e-02 0. 0. 0. 0.
      1.72413792e-02 3.27586204e-01 7.75862038e-02 3.44827585e-02 0. 0.
      0. 8.62068962e-03 4.31034490e-02 8.62068962e-03 1.72413792e-02
      8.62068962e-03 0. 0. 0. 0. 0. 8.62068962e-03 0. 1.72413792e-02
      2.32758626e-01 0. 0. 0. 0. 0. 2.58620698e-02 8.62068962e-03 0. 0.
      0. 0. 8.62068962e-03 0. 0. 0. 0. 8.62068962e-03 0. 6.89655170e-02
      1.66666675e-02 8.33333377e-03 0. 0. 8.33333377e-03 0. 0. 0. 0.
      1.66666675e-02 0. 1.66666675e-02 8.33333377e-03 4.16666679e-02
      8.33333377e-03 1.66666675e-02 0. 8.33333377e-03 8.33333377e-03
      3.49999994e-01 6.66666701e-02 8.33333377e-03 0. 0. 0.
      3.33333351e-02 8.33333358e-02 1.66666675e-02 3.33333351e-02 0. 0.
      0. 0. 0. 0. 0. 0. 0. 0. 0. 0. 8.33333377e-03 0. 8.33333377e-03 0.
      0. 0. 8.33333377e-03 0. 0. 0. 8.33333377e-03 8.33333377e-03 0.
      8.33333377e-03 3.33333351e-02 2.50000004e-02 1.41666666e-01
      3.84615399e-02 0. 0. 2.88461540e-02 9.61538497e-03 2.88461540e-02
      2.88461540e-02 0. 9.61538497e-03 9.61538497e-03 0. 0. 0. 0. 0.
      9.61538497e-03 0. 0. 0. 0. 0. 9.61538497e-03 1.92307699e-02 0. 0.
      0. 0. 0. 1.92307699e-02 0. 0. 9.61538497e-03 1.92307699e-02
      9.61538497e-03 2.88461540e-02 4.80769239e-02 0. 0. 4.32692319e-01
      7.69230798e-02 0. 0. 0. 0. 0. 0. 0. 0. 0. 9.61538497e-03 0. 0. 0.
      2.88461540e-02 0. 0. 0. 1.25000000e-01 0. 0. 0. 0. 0. 0. 0. 0. 0.
      0. 8.06451589e-03 0. 8.06451589e-03 8.87096748e-02 1.53225809e-01
      0. 0. 0. 3.22580636e-02 9.67741907e-02 8.06451589e-02 0. 0.
      8.06451589e-03 4.03225794e-02 1.61290318e-02 4.83870953e-02
      8.06451589e-03 1.61290318e-02 0. 0. 0. 0. 0. 8.06451589e-03
      2.41935477e-02 0. 0. 0. 0. 0. 0. 0. 8.06451589e-03 0. 0.
      8.06451589e-03 4.03225794e-02 9.67741907e-02 8.06451589e-03 0. 0.
      4.03225794e-02 2.41935477e-02 8.06451589e-03 8.06451589e-03 0.
      1.20967738e-01 2.45901644e-02 0. 0. 0. 0. 0. 0. 0. 0. 0. 0. 0. 0.
      0. 2.45901644e-02 0. 8.19672085e-03 0. 8.19672085e-03
      4.09836061e-02 4.91803288e-02 8.19672085e-03 0. 8.19672085e-03
      3.27868834e-02 2.45901644e-02 3.27868834e-02 1.63934417e-02
      1.63934417e-02 0. 0. 0. 0. 0. 0. 0. 0. 2.45901644e-02 0. 0. 0. 0.
      1.63934417e-02 1.55737698e-01 1.63934417e-02 8.19672085e-03
      2.45901644e-02 8.19672123e-02 8.19672123e-02 0. 1.63934417e-02
      1.63934417e-02 3.27868834e-02 3.27868834e-02 3.27868834e-02
      6.55737668e-02 0. 9.83606577e-02 1.99999996e-02 9.99999978e-03 0.
      0. 9.99999978e-03 0. 0. 0. 0. 0. 0. 0. 0. 0. 0. 0. 0. 0. 0. 0. 0.
      0. 0. 9.99999978e-03 3.99999991e-02 9.99999978e-03 9.99999978e-03
      0. 0. 1.99999996e-02 0. 9.99999978e-03 0. 0. 9.99999978e-03
      9.99999978e-03 2.99999993e-02 7.00000003e-02 1.89999998e-01
      1.99999996e-02 9.99999978e-03 1.99999996e-02 3.99999991e-02
      1.19999997e-01 7.99999982e-02 9.99999978e-03 1.99999996e-02
      9.99999978e-03 2.99999993e-02 0. 2.99999993e-02 9.99999978e-03
      9.99999978e-03 9.99999978e-03 1.99999996e-02 1.99999996e-02 0.
      9.00000036e-02 3.92156877e-02 9.80392192e-03 9.80392192e-03
      1.96078438e-02 1.96078438e-02 0. 9.80392192e-03 0. 0. 0. 0. 0. 0.
      0. 0. 0. 0. 0. 0. 0. 0. 0. 1.96078438e-02 9.80392192e-03 0. 0. 0.
      0. 0. 1.96078438e-02 9.80392192e-03 1.96078438e-02 9.80392192e-03
      9.80392192e-03 0. 9.80392192e-03 3.92156877e-02 2.94117648e-02
      1.27450988e-01 5.88235296e-02 9.80392192e-03 1.96078438e-02
      9.80392192e-03 1.96078438e-02 4.90196086e-02 7.84313753e-02
      1.96078438e-02 0. 2.94117648e-02 3.92156877e-02 2.94117648e-02 0.
      0. 4.90196086e-02 0. 1.96078438e-02 1.96078438e-02 1.37254909e-01</_>
    <_>
      0. 0. 0. 0. 0. 0. 0. 0. 0. 6.61156997e-02 1.65289253e-01 0. 0.
      4.13223132e-02 1.23966940e-01 2.31404960e-01 0. 0. 0.
      9.09090936e-02 5.78512400e-02 4.13223132e-02 0. 0. 0.
      8.26446246e-03 8.26446246e-03 1.65289249e-02 1.65289249e-02 0. 0.
      0. 0. 0. 0. 1.65289249e-02 0. 0. 0. 0. 0. 0. 0. 0. 0. 0.
      1.65289249e-02 0. 0. 0. 0. 0. 0. 1.65289249e-02 8.26446246e-03 0.
      1.65289249e-02 5.78512400e-02 0. 0. 0. 0. 0. 0. 0. 0.
      7.81250000e-03 7.81250000e-03 3.12500000e-02 0. 0. 1.17187500e-01
      2.03125000e-01 9.37500000e-02 0. 0. 0. 3.12500000e-01
      8.59375000e-02 3.12500000e-02 0. 0. 0. 0. 7.81250000e-03
      7.81250000e-03 7.81250000e-03 0. 0. 0. 0. 7.81250000e-03
      1.56250000e-02 0. 0. 0. 0. 1.56250000e-02 7.81250000e-03 0. 0. 0.
      0. 0. 7.81250000e-03 0. 0. 0. 0. 0. 0. 0. 0. 0. 7.81250000e-03
      2.34375000e-02 0. 0. 0. 0. 0. 0. 5.46875000e-02 0. 0.
      5.46875000e-02 9.37500000e-02 0. 0. 3.90625000e-02 3.20312500e-01
      1.56250000e-01 0. 0. 0. 7.81250000e-03 6.25000000e-02
      3.12500000e-02 0. 0. 0. 0. 3.12500000e-02 0. 7.81250000e-03 0. 0.
      0. 2.34375000e-02 2.34375000e-02 1.56250000e-02 0. 0. 0. 0.
      3.90625000e-02 0. 0. 0. 0. 0. 0. 0. 0. 0. 0. 0. 0. 0. 0. 0. 0.
      1.56250000e-02 2.34375000e-02 7.87401572e-03 7.87401572e-03 0. 0.
      0. 0. 3.93700786e-02 0. 0. 2.36220472e-02 2.28346452e-01 0. 0. 0.
      2.36220472e-02 9.44881886e-02 0. 0. 7.87401572e-03 0. 0. 0. 0.
      7.87401572e-03 0. 0. 7.87401572e-03 1.57480314e-02 0. 0. 0.
      7.87401572e-03 2.04724416e-01 8.66141766e-02 2.36220472e-02
      3.14960629e-02 0. 7.87401572e-03 0. 9.44881886e-02 2.36220472e-02
      7.87401572e-03 0. 0. 0. 0. 0. 0. 0. 0. 0. 0. 0. 0. 0. 0. 0.
      4.72440943e-02 0. 0. 0. 0. 0. 0. 0. 0. 0. 0. 0. 0. 0.
      3.12500000e-02 3.12500000e-02 5.46875000e-02 0. 0. 0.
      6.56250000e-01 4.68750000e-02 0. 0. 0. 0. 0. 7.81250000e-02
      7.81250000e-03 0. 0. 0. 0. 0. 0. 0. 8.59375000e-02 0. 0. 0. 0. 0.
      0. 0. 0. 0. 0. 0. 0. 0. 0. 0. 0. 0. 0. 0. 0. 0. 7.81250000e-03 0.
      0. 0. 0. 0. 0. 7.81250000e-03 0. 0. 0. 7.81250000e-03 0. 0.
      4.68750000e-02 1.56250000e-02 4.68750000e-02 0. 0. 0.
      1.79687500e-01 6.25000000e-02 0. 0. 0. 7.81250000e-03
      1.56250000e-02 6.25000000e-02 1.56250000e-02 4.68750000e-02 0. 0.
      0. 0. 0. 0. 0. 0. 0. 0. 0. 0. 7.81250000e-03 0. 0. 0. 0. 0.
      7.81250000e-03 0. 0. 0. 0. 0. 0. 0. 7.81250000e-03 0.
      4.60937500e-01 0. 0. 0. 0. 0. 0. 1.56250000e-02 0. 0. 0. 0. 0. 0.
      0. 0. 1.56250000e-02 0. 0. 0. 0. 0. 0. 0. 0. 0. 0. 0. 0. 0. 0. 0.
      7.81250000e-03 1.25000000e-01 7.81250000e-03 0. 0. 0.
      1.56250000e-02 5.46875000e-02 3.90625000e-01 7.03125000e-02
      3.12500000e-02 0. 0. 0. 7.81250000e-03 0. 0. 0. 0. 7.81250000e-03
      0. 0. 0. 0. 0. 0. 2.50000000e-01 0. 0. 0. 0. 0. 0. 0. 0. 0. 0. 0.
      0. 0. 0. 0. 3.90625000e-02 0. 0. 0. 0. 0. 0. 0. 0. 0. 0. 0. 0. 0.
      0. 0. 0. 2.10937500e-01 6.25000000e-02 3.90625000e-02
      7.81250000e-03 0. 0. 0. 3.28125000e-01 4.68750000e-02
      3.12500000e-02 0. 0. 0. 0. 0. 0. 0. 0. 0. 0. 0. 0. 0. 0. 0.
      2.34375000e-01 0. 0. 0. 0. 0. 0. 0. 0. 0. 0. 0. 0. 0. 0.
      7.93650839e-03 0. 0. 0. 1.58730168e-02 2.61904776e-01
      1.58730168e-02 7.93650839e-03 0. 7.93650839e-03 2.38095243e-02
      1.19047619e-01 2.38095239e-01 2.38095243e-02 7.93650839e-03 0. 0.
      0. 0. 0. 0. 7.93650821e-02 0. 0. 0. 0. 0. 0. 0. 0. 7.93650839e-03
      0. 0. 0. 2.38095243e-02 0. 7.93650839e-03 0. 3.17460336e-02
      2.38095243e-02 1.58730168e-02 7.93650839e-03 0. 7.14285746e-02 0.
      0. 0. 0. 7.87401572e-03 0. 7.87401572e-03 0. 0. 0. 0. 0. 0.
      7.87401572e-03 0. 0. 0. 0. 0. 0. 0. 0. 1.57480314e-02 0.
      2.36220472e-02 1.57480314e-02 3.93700786e-02 1.57480314e-02
      1.57480314e-02 0. 0. 0. 0. 0. 0. 0. 0. 1.57480314e-02
      7.87401572e-03 2.36220472e-02 0. 0. 1.57480314e-02 2.36220472e-02
      2.36220472e-02 1.57480314e-02 0. 2.36220472e-02 2.36220472e-02
      2.36220472e-02 3.14960629e-02 0. 1.57480314e-02 1.57480314e-02
      7.87401572e-03 2.36220472e-02 0. 5.59055090e-01 0. 0. 0. 0. 0. 0.
      0. 0. 0. 0. 0. 0. 0. 0. 0. 0. 0. 0. 0. 0. 0. 0. 0. 0. 0. 0. 0. 0.
      0. 0. 0. 0. 0. 0. 0. 0. 0. 7.81250000e-03 1.48437500e-01
      2.81250000e-01 0. 7.81250000e-03 0. 7.81250000e-03 7.03125000e-02
      7.03125000e-02 0. 0. 0. 0. 1.01562500e-01 0. 0. 0. 0. 0. 0.
      3.04687500e-01 0. 0. 0. 0. 0. 0. 0. 0. 0. 0. 0. 0. 0. 0. 0. 0. 0.
      0. 0. 0. 0. 0. 0. 0. 0. 0. 0. 0. 0. 0. 0. 7.81250000e-03
      5.46875000e-02 0. 0. 0. 0. 0. 6.25000000e-02 1.56250000e-01
      1.56250000e-02 1.56250000e-02 0. 1.56250000e-02 3.90625000e-02
      1.56250000e-02 0. 0. 7.81250000e-03 1.56250000e-02 3.12500000e-02
      0. 0. 1.56250000e-02 0. 0. 0. 5.46875000e-01</_>
    <_>
      4.67289723e-02 0. 9.34579410e-03 1.86915882e-02 4.67289723e-02 0.
      9.34579410e-03 9.34579410e-03 9.34579410e-03 0. 0. 0.
      1.86915882e-02 2.80373823e-02 5.60747646e-02 2.80373823e-02
      9.34579410e-03 0. 0. 5.60747646e-02 5.60747646e-02 1.86915882e-02
      5.60747646e-02 0. 1.86915882e-02 1.86915882e-02 1.86915882e-02
      9.34579410e-03 9.34579410e-03 0. 0. 1.86915882e-02 1.86915882e-02
      9.34579410e-03 4.67289723e-02 4.67289723e-02 0. 0. 9.34579447e-02
      4.67289723e-02 1.86915882e-02 2.80373823e-02 0. 0. 0. 0. 0. 0.
      9.34579410e-03 0. 0. 9.34579410e-03 0. 1.86915882e-02 0. 0.
      2.80373823e-02 5.60747646e-02 0. 2.72727273e-02 9.09090880e-03
      9.09090880e-03 0. 9.09090880e-03 9.09090880e-03 0. 0. 0. 0.
      9.09090880e-03 9.09090880e-03 2.72727273e-02 7.27272704e-02
      1.81818176e-02 0. 0. 4.54545468e-02 3.63636352e-02 1.81818176e-02
      9.09090880e-03 0. 0. 0. 4.54545468e-02 5.45454547e-02
      9.09090880e-03 1.81818176e-02 0. 0. 9.09090880e-03 1.81818176e-02
      0. 9.09090880e-03 9.09090880e-03 0. 9.09090880e-03 6.36363626e-02
      9.09090880e-03 2.72727273e-02 1.81818176e-02 9.09090880e-03
      1.81818176e-02 3.63636352e-02 9.09090880e-03 1.81818176e-02 0.
      9.09090880e-03 9.09090880e-03 1.81818176e-02 9.09090880e-03
      9.09090880e-03 3.63636352e-02 1.81818176e-02 4.54545468e-02
      1.81818176e-02 1.27272725e-01 2.83018872e-02 0. 0. 0.
      9.43396240e-03 0. 1.88679248e-02 0. 0. 1.88679248e-02
      5.66037744e-02 0. 9.43396240e-03 5.66037744e-02 2.83018872e-02
      2.83018872e-02 0. 0. 6.60377368e-02 9.43396240e-03 3.77358496e-02
      0. 2.83018872e-02 0. 2.83018872e-02 1.13207549e-01 1.41509429e-01
      9.43396240e-03 0. 0. 9.43396240e-03 0. 0. 0. 0. 9.43396240e-03 0.
      0. 0. 0. 0. 9.43396240e-03 1.88679248e-02 9.43396240e-03 0. 0. 0.
      9.43396240e-03 9.43396240e-03 0. 0. 5.66037744e-02 0.
      1.88679248e-02 1.88679248e-02 2.83018872e-02 2.83018872e-02
      8.49056616e-02 2.88461540e-02 0. 9.61538497e-03 0. 9.61538497e-03
      0. 2.88461540e-02 0. 0. 0. 9.61538497e-03 2.88461540e-02 0. 0. 0.
      0. 9.61538497e-03 0. 1.92307699e-02 0. 0. 0. 7.69230798e-02 0.
      1.92307699e-02 9.61538479e-02 1.92307699e-02 0. 9.61538497e-03 0.
      0. 1.92307699e-02 1.63461536e-01 4.80769239e-02 0. 3.84615399e-02
      9.61538497e-03 3.84615399e-02 1.92307699e-02 5.76923080e-02
      9.61538497e-03 0. 9.61538497e-03 0. 1.92307699e-02 9.61538497e-03
      0. 0. 0. 0. 1.92307699e-02 3.84615399e-02 0. 2.88461540e-02
      9.61538497e-03 9.61538497e-03 0. 8.65384638e-02 4.62962948e-02 0.
      0. 9.25925933e-03 1.85185187e-02 1.85185187e-02 0. 0. 0. 0. 0. 0.
      0. 0. 9.25925933e-03 0. 9.25925933e-03 0. 0. 0. 0. 0.
      3.70370373e-02 2.77777780e-02 3.70370373e-02 3.70370373e-02
      2.77777780e-02 0. 0. 0. 0. 9.25925933e-03 1.85185187e-02 0.
      9.25925933e-03 2.77777780e-02 2.77777780e-02 2.77777780e-02
      1.11111112e-01 2.40740746e-01 9.25925933e-03 0. 9.25925933e-03 0.
      1.85185187e-02 0. 0. 0. 0. 0. 0. 0. 0. 1.11111112e-01
      9.25925933e-03 0. 0. 9.25925896e-02 8.77192989e-03 0. 0. 0. 0. 0.
      0. 0. 0. 0. 0. 0. 0. 0. 0. 0. 0. 0. 6.14035092e-02 2.63157897e-02
      0. 0. 0. 0. 0. 6.14035092e-02 1.22807018e-01 8.77192989e-03 0. 0.
      0. 1.75438598e-02 8.77192989e-03 0. 0. 8.77192989e-03
      8.77192989e-03 0. 7.89473653e-02 2.54385978e-01 8.77192989e-03 0.
      0. 0. 8.77192989e-03 3.50877196e-02 0. 0. 0. 8.77192989e-03
      1.75438598e-02 8.77192989e-03 8.77192989e-03 3.50877196e-02
      3.50877196e-02 2.63157897e-02 0. 1.40350878e-01 1.99999996e-02 0.
      9.99999978e-03 0. 2.99999993e-02 9.99999978e-03 0. 0.
      9.99999978e-03 0. 0. 9.99999978e-03 0. 1.99999996e-02 0. 0.
      9.99999978e-03 1.99999996e-02 5.00000007e-02 1.09999999e-01 0.
      2.99999993e-02 2.99999993e-02 0. 1.99999996e-02 1.00000001e-01
      1.29999995e-01 1.99999996e-02 2.99999993e-02 0. 0. 9.99999978e-03
      0. 0. 0. 9.99999978e-03 0. 0. 0. 0. 0. 0. 0. 9.99999978e-03
      9.99999978e-03 9.99999978e-03 9.99999978e-03 9.99999978e-03 0.
      1.99999996e-02 0. 9.99999978e-03 0. 1.99999996e-02 1.99999996e-02
      5.00000007e-02 1.99999996e-02 1.29999995e-01 4.12371121e-02
      1.03092780e-02 0. 1.03092780e-02 2.06185561e-02 1.03092780e-02
      1.03092780e-02 0. 1.03092780e-02 1.03092780e-02 2.06185561e-02
      1.03092780e-02 0. 0. 1.03092780e-02 0. 0. 0. 1.03092780e-02 0. 0.
      0. 2.06185561e-02 0. 0. 1.03092780e-02 0. 0. 0. 1.03092780e-02 0.
      1.03092780e-02 3.09278350e-02 0. 0. 1.03092782e-01 2.06185561e-02
      2.06185561e-02 3.09278350e-02 3.09278350e-02 3.09278350e-02
      5.15463911e-02 1.03092780e-02 0. 1.03092780e-02 0. 3.09278350e-02
      0. 0. 1.03092780e-02 2.06185561e-02 1.03092780e-02 1.03092780e-02
      6.18556701e-02 1.03092780e-02 1.03092780e-02 3.09278350e-02
      2.37113401e-01 8.47457629e-03 5.08474559e-02 0. 8.47457629e-03
      6.77966103e-02 1.69491526e-02 4.23728824e-02 0. 0. 5.93220331e-02
      1.27118647e-01 0. 0. 0. 8.47457629e-03 2.54237279e-02 0. 0. 0. 0.
      0. 2.54237279e-02 2.54237279e-02 0. 8.47457629e-03 5.08474559e-02
      8.47457629e-03 8.47457629e-03 0. 8.47457629e-03 0. 8.47457629e-03
      1.77966103e-01 6.77966103e-02 8.47457629e-03 1.69491526e-02 0.
      8.47457629e-03 1.69491526e-02 1.69491526e-02 0. 0. 8.47457629e-03
      0. 0. 8.47457629e-03 0. 0. 0. 0. 8.47457629e-03 8.47457629e-03 0.
      2.54237279e-02 0. 0. 0. 6.77966103e-02 9.09090880e-03
      9.09090880e-03 0. 0. 0. 0. 0. 0. 0. 0. 0. 0. 0. 0. 0. 0. 0.
      1.81818176e-02 3.63636352e-02 8.18181783e-02 9.09090880e-03 0. 0.
      9.09090880e-03 1.81818176e-02 7.27272704e-02 2.00000003e-01 0. 0.
      0. 0. 1.81818176e-02 1.81818176e-02 0. 0. 0. 9.09090880e-03
      9.09090880e-03 4.54545468e-02 1.18181817e-01 0. 9.09090880e-03
      9.09090880e-03 0. 0. 9.09090880e-03 9.09090880e-03 9.09090880e-03
      0. 9.09090880e-03 2.72727273e-02 5.45454547e-02 0. 1.81818176e-02
      9.09090880e-03 2.72727273e-02 0. 1.27272725e-01 3.92156877e-02 0.
      9.80392192e-03 0. 0. 9.80392192e-03 0. 0. 0. 1.96078438e-02 0.
      9.80392192e-03 9.80392192e-03 9.80392192e-03 0. 0. 1.96078438e-02
      9.80392192e-03 3.92156877e-02 5.88235296e-02 1.96078438e-02
      9.80392192e-03 0. 9.80392192e-03 1.96078438e-02 2.94117648e-02
      9.80392173e-02 1.96078438e-02 2.94117648e-02 0. 0. 9.80392192e-03
      1.96078438e-02 0. 1.96078438e-02 1.96078438e-02 9.80392192e-03
      9.80392192e-03 3.92156877e-02 3.92156877e-02 0. 9.80392192e-03
      1.96078438e-02 3.92156877e-02 1.96078438e-02 9.80392192e-03
      4.90196086e-02 1.96078438e-02 9.80392192e-03 0. 1.96078438e-02
      9.80392192e-03 9.80392192e-03 9.80392192e-03 0. 1.96078438e-02
      9.80392192e-03 1.07843138e-01 3.99999991e-02 0. 0. 0.
      7.99999982e-02 0. 0. 0. 0. 9.99999978e-03 0. 9.99999978e-03
      9.99999978e-03 0. 0. 0. 0. 0. 3.99999991e-02 1.00000001e-01
      9.99999978e-03 0. 9.99999978e-03 0. 0. 0. 1.99999996e-02 0. 0. 0.
      0. 9.99999978e-03 9.99999978e-03 9.99999978e-03 0. 2.99999993e-02
      1.99999996e-02 1.99999996e-02 1.80000007e-01 2.99999993e-02 0. 0.
      9.99999978e-03 9.99999978e-03 1.99999996e-02 1.99999996e-02
      2.99999993e-02 0. 9.99999978e-03 1.99999996e-02 9.99999978e-03
      9.99999978e-03 9.99999978e-03 5.00000007e-02 0. 1.99999996e-02 0.
      1.40000001e-01</_>
    <_>
      0. 0. 0. 0. 8.00000038e-03 0. 0. 0. 1.60000008e-02 0. 0. 0. 0.
      7.19999969e-02 8.00000038e-03 2.40000002e-02 0. 0. 0.
      4.56000000e-01 1.19999997e-01 8.00000038e-03 0. 0. 0.
      8.00000038e-03 4.80000004e-02 4.80000004e-02 1.60000008e-02 0. 0.
      0. 0. 0. 8.00000038e-03 4.80000004e-02 0. 0. 0. 0. 0. 0. 0. 0. 0.
      0. 0. 0. 0. 0. 0. 0. 0. 0. 0. 0. 1.60000008e-02 9.60000008e-02 0.
      0. 8.13008100e-03 0. 0. 0. 0. 0. 8.13008100e-03 0. 8.13008100e-03
      0. 0. 9.75609720e-02 4.06504050e-02 4.06504050e-02 8.13008100e-03
      0. 0. 5.85365832e-01 5.69105707e-02 2.43902430e-02 0. 0. 0. 0.
      2.43902430e-02 1.62601620e-02 1.62601620e-02 0. 0. 0. 0. 0. 0. 0.
      0. 0. 0. 0. 0. 0. 0. 0. 0. 0. 0. 0. 0. 0. 0. 0. 0. 0. 0. 0.
      2.43902430e-02 4.06504050e-02 0. 0. 0. 8.00000038e-03 0.
      8.00000038e-03 0. 0. 0. 8.00000038e-03 0. 0. 0. 5.60000017e-02
      1.04000002e-01 0. 8.00000038e-03 0. 0. 6.40000030e-02
      7.99999982e-02 0. 0. 0. 0. 8.00000038e-03 3.20000015e-02
      1.60000008e-02 4.80000004e-02 0. 0. 0. 0. 0. 0. 8.00000038e-03 0.
      0. 8.00000038e-03 0. 0. 0. 0. 8.00000038e-03 0. 0. 0.
      1.60000008e-02 8.00000038e-03 0. 8.00000038e-03 1.60000008e-02 0.
      8.00000038e-03 8.00000038e-03 3.20000015e-02 4.80000004e-02
      3.91999990e-01 0. 0. 0. 0. 0. 0. 0. 0. 0. 0. 8.13008100e-03 0. 0.
      0. 1.62601620e-02 8.13008100e-03 0. 0. 0. 0. 8.13008100e-03
      1.62601620e-02 0. 0. 0. 0. 8.13008100e-03 0. 2.43902430e-02 0. 0.
      0. 8.13008100e-03 0. 0. 4.06504050e-02 0. 1.62601620e-02
      1.46341458e-01 1.13821141e-01 0. 8.13008100e-03 0. 0.
      1.62601620e-02 4.87804860e-02 0. 0. 0. 8.13008100e-03
      5.69105707e-02 0. 0. 4.87804860e-02 0. 0. 2.43902430e-02
      3.73983741e-01 0. 0. 0. 0. 8.00000038e-03 0. 0. 0. 8.00000038e-03
      0. 0. 0. 0. 8.00000038e-03 8.00000038e-03 0. 0. 0. 0.
      7.36000001e-01 3.20000015e-02 0. 0. 0. 0. 0. 0. 8.00000038e-03
      1.60000008e-02 0. 0. 0. 0. 0. 0. 1.28000006e-01 0. 0. 0. 0. 0. 0.
      0. 0. 0. 0. 0. 0. 0. 0. 0. 0. 0. 0. 0. 0. 0. 4.80000004e-02 0.
      8.84955749e-03 0. 0. 1.76991150e-02 0. 0. 1.76991150e-02
      8.84955749e-03 0. 0. 0. 8.84955749e-03 1.76991150e-02 0.
      8.84955749e-03 8.84955749e-03 8.84955749e-03 0. 1.41592920e-01
      2.65486725e-02 0. 8.84955749e-03 0. 8.84955749e-03 0.
      1.76991150e-02 3.53982300e-02 5.30973449e-02 0. 0. 0. 0. 0.
      8.84955749e-03 1.76991150e-02 8.84955749e-03 8.84955749e-03 0. 0.
      0. 8.84955749e-03 0. 0. 0. 0. 0. 0. 1.15044251e-01 0. 0. 0. 0. 0.
      0. 0. 0. 4.33628321e-01 0. 0. 0. 0. 0. 7.93650839e-03
      7.93650839e-03 0. 0. 0. 0. 0. 7.93650839e-03 0. 0. 7.93650839e-03
      0. 0. 0. 7.93650839e-03 0. 0. 0. 0. 1.58730168e-02 7.93650839e-03
      0. 0. 0. 0. 7.93650839e-03 0. 0. 0. 0. 0. 7.93650839e-03
      1.58730168e-02 1.98412701e-01 3.17460336e-02 0. 0. 0.
      1.58730168e-02 3.17460336e-02 3.17460336e-02 0. 0. 1.58730168e-02
      0. 3.96825410e-02 0. 0. 0. 0. 0. 0. 5.39682567e-01 0. 0. 0. 0. 0.
      0. 0. 0. 0. 0. 0. 0. 0. 0. 0. 0. 0. 0. 0. 0. 0. 0. 0. 0. 0. 0. 0.
      0. 0. 0. 0. 0. 0. 0. 0. 0. 0. 1.02362208e-01 5.11811018e-01
      1.57480314e-02 0. 0. 0. 7.87401572e-03 1.73228353e-01
      1.57480314e-02 0. 0. 1.57480314e-02 0. 2.36220472e-02 0. 0.
      9.44881886e-02 0. 0. 0. 3.93700786e-02 0. 0. 0. 0. 0. 0. 0. 0. 0.
      0. 0. 0. 0. 0. 0. 0. 0. 0. 8.13008100e-03 5.69105707e-02
      1.62601620e-02 0. 0. 0. 2.43902430e-02 1.62601620e-02
      2.43902430e-02 2.43902430e-02 3.25203240e-02 0. 0. 0. 0. 0. 0.
      5.69105707e-02 8.13008100e-03 0. 0. 0. 0. 0. 8.13008100e-03
      1.62601620e-02 8.13008100e-03 0. 2.43902430e-02 0. 3.25203240e-02
      8.13008100e-03 4.06504050e-02 8.13008100e-03 1.62601620e-02
      2.43902430e-02 1.62601620e-02 2.43902430e-02 1.62601620e-02
      4.87804890e-01 0. 0. 0. 0. 0. 0. 0. 0. 0. 0. 0. 0. 0. 0. 0. 0. 0.
      0. 0. 0. 0. 0. 0. 0. 0. 0. 0. 0. 0. 0. 0. 0. 0. 0. 0. 0.
      7.81250000e-03 1.32812500e-01 7.03125000e-02 7.81250000e-03 0. 0.
      0. 4.68750000e-02 1.32812500e-01 3.12500000e-02 5.46875000e-02 0.
      8.59375000e-02 3.12500000e-02 4.68750000e-02 0. 0. 0. 0. 0. 0.
      3.51562500e-01 0. 0. 0. 0. 0. 0. 0. 0. 0. 0. 0. 0. 0. 0. 0. 0. 0.
      0. 0. 0. 0. 0. 0. 0. 0. 0. 0. 0. 0. 0. 0. 0. 0. 0. 0. 0.
      7.81250000e-03 1.48437500e-01 3.90625000e-01 0. 0. 0. 0.
      1.32812500e-01 2.10937500e-01 1.56250000e-02 6.25000000e-02 0. 0.
      7.81250000e-03 1.56250000e-02 0. 0. 0. 0. 0. 0. 7.81250000e-03 0.
      0. 0. 0. 0. 0. 0. 0. 0. 0. 0. 0. 0. 0. 0. 0. 0. 0. 0. 0. 0. 0.
      8.26446246e-03 8.26446246e-03 3.30578499e-02 0. 0. 0. 0. 0. 0. 0.
      0. 0. 0. 0. 2.47933883e-02 1.73553720e-01 1.15702480e-01
      1.65289249e-02 0. 0. 2.47933883e-02 1.07438013e-01 1.40495867e-01
      0. 3.30578499e-02 8.26446246e-03 9.91735533e-02 4.95867766e-02
      1.65289249e-02 0. 2.47933883e-02 7.43801668e-02 1.65289249e-02 0.
      0. 2.47933883e-02</_>
    <_>
      2.80373823e-02 0. 9.34579410e-03 0. 9.34579410e-03 0.
      9.34579410e-03 0. 0. 0. 0. 0. 9.34579410e-03 9.34579447e-02
      2.80373823e-02 0. 0. 0. 2.80373823e-02 3.45794380e-01
      9.34579447e-02 9.34579410e-03 9.34579410e-03 0. 0. 0.
      4.67289723e-02 9.34579410e-03 0. 9.34579410e-03 0. 3.73831764e-02
      0. 0. 0. 5.60747646e-02 0. 9.34579410e-03 0. 9.34579410e-03
      9.34579410e-03 9.34579410e-03 1.86915882e-02 0. 0. 0. 0. 0. 0. 0.
      9.34579410e-03 0. 0. 9.34579410e-03 9.34579410e-03 0. 0.
      8.41121525e-02 0. 0. 0. 0. 8.26446246e-03 8.26446246e-03 0. 0.
      1.65289249e-02 9.09090936e-02 1.65289249e-02 0. 8.26446246e-03
      9.09090936e-02 2.89256185e-01 1.65289253e-01 0. 0. 0.
      4.13223132e-02 1.15702480e-01 4.95867766e-02 0. 0. 0. 0. 0. 0.
      1.65289249e-02 0. 0. 0. 0. 0. 0. 8.26446246e-03 0. 0. 0. 0. 0. 0.
      0. 0. 0. 0. 8.26446246e-03 0. 0. 0. 0. 0. 0. 0. 0. 0.
      3.30578499e-02 3.30578499e-02 0. 0. 0. 0. 8.13008100e-03
      1.62601620e-02 1.13821141e-01 0. 0. 1.62601620e-02 2.84552842e-01
      0. 0. 0. 3.25203240e-02 8.94308910e-02 0. 0. 0. 0. 0.
      8.13008100e-03 0. 0. 0. 0. 0. 0. 8.13008100e-03 0. 0. 0.
      1.30081296e-01 7.31707290e-02 7.31707290e-02 0. 0. 0.
      8.13008100e-03 3.25203240e-02 1.62601620e-02 3.25203240e-02 0. 0.
      0. 0. 4.06504050e-02 0. 0. 0. 8.13008100e-03 0. 0. 0. 0. 0. 0.
      8.13008100e-03 5.55555560e-02 0. 0. 0. 1.85185187e-02 0.
      5.55555560e-02 0. 0. 9.25925933e-03 9.25925933e-03 9.25925933e-03
      0. 0. 0. 0. 0. 0. 1.85185187e-02 0. 0. 9.25925933e-03
      2.77777780e-02 0. 9.25925933e-03 5.55555560e-02 1.85185187e-02
      1.85185187e-02 3.70370373e-02 0. 0. 1.85185187e-02 3.79629642e-01
      9.25925933e-03 0. 7.40740746e-02 0. 0. 9.25925933e-03
      4.62962948e-02 0. 0. 1.85185187e-02 0. 0. 0. 0. 0. 0. 0. 0.
      1.85185187e-02 0. 0. 0. 0. 0. 7.40740746e-02 0. 0. 0. 0. 0. 0. 0.
      0. 0. 0. 0. 0. 0. 0. 0. 0. 0. 0. 1.04000002e-01 1.67999998e-01 0.
      0. 0. 0. 2.40000002e-02 2.16000006e-01 3.51999998e-01 0. 0. 0. 0.
      0. 0. 0. 0. 3.99999991e-02 0. 0. 0. 0. 0. 0. 0. 0. 0. 0. 0.
      8.00000038e-03 0. 0. 0. 8.00000038e-03 0. 3.99999991e-02
      8.00000038e-03 0. 0. 3.20000015e-02 1.75438598e-02 0. 0. 0. 0. 0.
      0. 1.75438598e-02 8.77192989e-03 0. 8.77192989e-03 0. 0. 0.
      8.77192989e-03 8.77192989e-03 0. 0. 3.50877196e-02 2.63157897e-02
      1.75438598e-02 8.77192989e-03 8.77192989e-03 1.75438598e-02
      3.50877196e-02 3.50877196e-02 1.49122804e-01 1.75438598e-02
      3.50877196e-02 8.77192989e-03 8.77192989e-03 0. 0. 0. 0.
      8.77192989e-03 0. 0. 0. 0. 0. 0. 5.26315793e-02 1.75438598e-02
      8.77192989e-03 0. 0. 1.75438598e-02 8.77192989e-03 0.
      1.75438598e-02 8.77192989e-03 1.75438598e-02 2.63157897e-02
      1.75438598e-02 2.63157897e-02 8.77192989e-03 2.89473683e-01
      1.66666675e-02 0. 0. 0. 0. 0. 0. 0. 0. 0. 0. 0. 0. 0. 0. 0. 0. 0.
      0. 0. 0. 0. 8.33333377e-03 0. 0. 0. 0. 0. 0. 0. 0. 2.50000004e-02
      5.00000007e-02 8.33333377e-03 0. 0. 8.33333377e-03 5.83333336e-02
      2.41666660e-01 2.50000000e-01 1.66666675e-02 8.33333377e-03 0.
      8.33333377e-03 4.16666679e-02 4.16666679e-02 0. 0. 0.
      4.16666679e-02 5.00000007e-02 0. 0. 8.33333377e-03 0. 0. 0.
      1.16666667e-01 0. 0. 0. 0. 0. 0. 0. 0. 0. 0. 0. 0. 0. 0. 0. 0. 0.
      0. 0. 0. 0. 0. 0. 0. 0. 0. 0. 0. 0. 0. 0. 5.64516112e-02
      1.85483873e-01 0. 0. 2.41935477e-02 0. 0. 3.54838699e-01
      2.98387110e-01 0. 0. 0. 0. 0. 0. 0. 0. 0. 0. 0. 0. 0.
      2.41935477e-02 0. 0. 0. 5.64516112e-02 5.15463911e-02
      1.03092780e-02 2.06185561e-02 0. 3.09278350e-02 0. 0.
      1.03092780e-02 0. 1.03092780e-02 1.03092780e-02 0. 0. 0. 0.
      1.03092780e-02 0. 1.03092780e-02 2.06185561e-02 0. 0. 0. 0. 0.
      8.24742243e-02 2.26804122e-01 3.09278350e-02 1.03092780e-02
      3.09278350e-02 1.03092780e-02 0. 0. 1.03092780e-02 0. 0.
      2.06185561e-02 0. 0. 0. 0. 0. 2.06185561e-02 0. 0. 0. 0. 0.
      7.21649453e-02 0. 0. 1.03092780e-02 1.34020612e-01 0.
      2.06185561e-02 2.06185561e-02 0. 0. 1.13402061e-01 8.47457629e-03
      0. 0. 0. 0. 0. 0. 0. 0. 0. 0. 0. 0. 0. 0. 0. 0. 0. 0. 0. 0. 0. 0.
      1.69491526e-02 5.93220331e-02 1.69491526e-02 8.47457629e-03 0. 0.
      0. 0. 0. 0. 0. 0. 0. 0. 0. 0. 0. 0. 0. 8.47457647e-02
      6.77966103e-02 0. 0. 0. 3.81355941e-01 1.94915250e-01
      8.47457629e-03 1.69491526e-02 6.77966103e-02 2.54237279e-02 0.
      8.47457629e-03 0. 8.47457629e-03 2.54237279e-02 8.19672085e-03 0.
      0. 0. 0. 0. 0. 0. 0. 0. 0. 0. 0. 0. 0. 0. 0. 0. 0. 0. 0. 0. 0. 0.
      0. 0. 0. 0. 0. 8.19672085e-03 8.19672085e-03 8.19672085e-03 0. 0.
      0. 0. 0. 1.31147534e-01 8.19672123e-02 1.63934417e-02 0. 0.
      2.45901644e-02 3.93442631e-01 1.55737698e-01 8.19672085e-03
      8.19672085e-03 8.19672085e-03 5.73770478e-02 3.27868834e-02
      8.19672085e-03 0. 0. 0. 0. 0. 2.45901644e-02 1.63934417e-02
      3.06122452e-02 0. 0. 0. 4.08163257e-02 0. 0. 1.02040814e-02 0.
      1.02040814e-02 0. 0. 1.02040814e-02 1.02040814e-02 0. 0.
      1.02040814e-02 0. 1.02040814e-02 6.12244904e-02 3.06122452e-02 0.
      1.02040814e-02 0. 0. 0. 1.02040814e-02 1.02040814e-02
      2.04081628e-02 2.04081628e-02 0. 0. 0. 0. 0. 2.04081628e-02 0.
      3.06122452e-02 4.08163279e-01 2.04081628e-02 0. 1.02040814e-02
      1.02040814e-02 1.02040814e-02 2.04081628e-02 1.02040814e-02 0. 0.
      0. 0. 2.04081628e-02 0. 0. 2.04081628e-02 0. 2.04081628e-02
      1.02040814e-02 9.18367356e-02</_>
    <_>
      0. 0. 0. 0. 0. 0. 0. 0. 0. 0. 0. 3.41880359e-02 0. 0.
      1.53846160e-01 2.22222224e-01 0. 0. 0. 0. 0. 0. 0. 0. 0. 0. 0.
      8.54700897e-03 0. 0. 0. 0. 0. 0. 0. 0. 0. 0. 0. 0. 0. 0. 0.
      2.56410260e-02 0. 0. 0. 2.56410260e-02 1.62393168e-01
      8.54700897e-03 8.54700897e-03 0. 1.70940179e-02 0. 8.54700897e-03
      1.70940179e-02 1.70940179e-02 2.90598303e-01 0. 1.69491526e-02 0.
      0. 0. 0. 0. 0. 0. 0. 1.69491526e-02 0. 0. 8.47457629e-03
      2.37288132e-01 1.77966103e-01 0. 0. 0. 0. 1.69491526e-02
      1.69491526e-02 0. 0. 1.69491526e-02 0. 0. 0. 1.69491526e-02 0.
      8.47457629e-03 0. 0. 0. 0. 0. 0. 0. 0. 0. 0. 0. 0. 4.23728824e-02
      0. 0. 8.47457629e-03 0. 1.69491529e-01 0. 0. 0. 1.69491526e-02 0.
      8.47457629e-03 8.47457629e-03 2.54237279e-02 1.86440676e-01 0. 0.
      0. 0. 0. 0. 0. 0. 0. 0. 0. 1.66666675e-02 0. 8.33333377e-03
      2.75000006e-01 1.50000006e-01 0. 8.33333377e-03 0. 0. 0.
      8.33333377e-03 0. 0. 0. 0. 0. 1.66666675e-02 8.33333377e-03 0. 0.
      8.33333377e-03 0. 0. 8.33333377e-03 0. 0. 0. 0. 0. 0.
      8.33333377e-03 0. 2.50000004e-02 0. 0. 8.33333377e-03
      8.33333377e-03 1.50000006e-01 0. 0. 0. 8.33333377e-03 0.
      8.33333377e-03 8.33333377e-03 2.50000004e-02 2.41666660e-01 0. 0.
      0. 0. 0. 0. 0. 0. 0. 0. 0. 5.08474559e-02 0. 1.69491526e-02
      2.96610177e-01 1.44067794e-01 0. 0. 0. 0. 8.47457629e-03 0. 0. 0.
      0. 0. 0. 0. 0. 0. 0. 0. 0. 0. 0. 0. 0. 0. 0. 0. 0. 0. 0. 0. 0. 0.
      0. 2.54237279e-02 7.62711838e-02 0. 0. 8.47457629e-03
      1.69491526e-02 0. 8.47457629e-03 3.38983051e-02 1.69491526e-02
      2.96610177e-01 0. 3.38983051e-02 0. 8.47457629e-03 0. 0. 0. 0. 0.
      0. 0. 1.69491526e-02 0. 0. 3.05084735e-01 2.54237294e-01 0.
      1.69491526e-02 0. 0. 0. 8.47457629e-03 0. 0. 8.47457629e-03 0. 0.
      4.23728824e-02 8.47457629e-03 0. 0. 0. 0. 0. 0. 0. 0. 0. 0. 0. 0.
      0. 8.47457629e-03 5.93220331e-02 1.69491526e-02 0. 0. 0.
      5.08474559e-02 0. 0. 4.23728824e-02 8.47457629e-03 0. 0.
      8.47457629e-03 8.47457629e-03 9.32203382e-02 0. 1.66666675e-02 0.
      8.33333377e-03 0. 0. 0. 0. 0. 1.66666675e-02 7.50000030e-02
      5.00000007e-02 0. 0. 3.75000000e-01 4.16666679e-02 0. 0. 0. 0.
      1.66666675e-02 0. 0. 0. 0. 0. 0. 8.33333377e-03 0. 0. 0. 0. 0. 0.
      0. 0. 0. 0. 0. 0. 0. 0. 0. 1.50000006e-01 0. 0. 0. 5.00000007e-02
      5.83333336e-02 0. 0. 8.33333377e-03 0. 0. 2.50000004e-02 0.
      5.00000007e-02 5.00000007e-02 8.40336177e-03 2.52100844e-02 0.
      1.68067235e-02 0. 0. 2.52100844e-02 0. 8.40336177e-03
      1.68067235e-02 2.18487397e-01 2.52100844e-02 0. 8.40336177e-03
      2.01680675e-01 5.88235296e-02 8.40336177e-03 0. 0. 0.
      8.40336177e-03 0. 0. 0. 0. 0. 0. 8.40336177e-03 0. 0.
      8.40336177e-03 0. 8.40336177e-03 3.36134471e-02 0. 0. 0.
      8.40336177e-03 0. 8.40336177e-03 8.40336177e-03 8.40336177e-03 0.
      1.68067232e-01 1.68067235e-02 4.20168079e-02 8.40336177e-03 0.
      8.40336177e-03 0. 0. 0. 8.40336177e-03 0. 8.40336177e-03 0. 0.
      1.68067235e-02 0. 0. 0. 7.93650839e-03 0. 0. 7.14285746e-02 0. 0.
      0. 1.19047619e-01 2.38095243e-02 0. 0. 2.38095243e-02
      1.66666672e-01 0. 1.58730168e-02 0. 7.93650839e-03 0. 0. 0. 0.
      1.58730168e-02 0. 0. 0. 0. 0. 0. 3.17460336e-02 1.58730168e-02
      3.96825410e-02 3.17460336e-02 0. 0. 3.96825410e-02 0. 0.
      7.93650839e-03 7.93650839e-03 0. 1.03174604e-01 7.93650839e-03 0.
      4.76190485e-02 7.93650839e-03 1.03174604e-01 7.93650839e-03 0. 0.
      0. 0. 0. 0. 0. 9.52380970e-02 0. 5.55555560e-02 0. 2.38095243e-02
      0. 0. 4.76190485e-02 0. 0. 0. 7.93650821e-02 0. 0. 0.
      7.93650821e-02 1.74603179e-01 0. 0. 0. 0. 0. 0. 0. 0. 0. 0. 0. 0.
      0. 0. 0. 2.38095243e-02 1.58730168e-02 1.58730168e-02 0. 0. 0.
      2.38095243e-02 6.34920672e-02 6.34920672e-02 2.38095243e-02 0. 0.
      1.58730168e-02 8.73015895e-02 2.38095243e-02 7.93650839e-03
      2.38095243e-02 5.55555560e-02 0. 0. 0. 0. 0. 0. 0. 3.96825410e-02
      5.55555560e-02 0. 7.19999969e-02 0. 1.60000008e-02 0. 0.
      1.60000008e-02 0. 0. 0. 1.75999999e-01 0. 0. 0. 1.60000008e-02
      5.60000017e-02 0. 0. 0. 0. 0. 0. 0. 0. 0. 0. 0. 0. 0. 0.
      1.60000008e-02 0. 0. 3.99999991e-02 0. 0. 0. 3.99999991e-02
      8.79999995e-02 4.80000004e-02 2.40000002e-02 8.00000038e-03 0.
      1.51999995e-01 8.79999995e-02 0. 1.60000008e-02 0. 3.20000015e-02
      1.60000008e-02 0. 0. 0. 0. 0. 0. 8.00000038e-03 7.19999969e-02 0.
      2.45901644e-02 0. 8.19672085e-03 0. 0. 5.73770478e-02 0. 0. 0.
      2.13114753e-01 0. 8.19672085e-03 8.19672085e-03 4.09836061e-02
      4.91803288e-02 0. 8.19672085e-03 8.19672085e-03 8.19672085e-03
      8.19672085e-03 8.19672085e-03 0. 0. 0. 8.19672085e-03
      4.91803288e-02 0. 0. 0. 2.45901644e-02 1.63934417e-02
      8.19672085e-03 0. 0. 0. 0. 1.63934417e-02 1.63934417e-02
      8.19672085e-03 0. 0. 0. 1.47540987e-01 0. 0. 0. 8.19672085e-03
      5.73770478e-02 0. 0. 1.63934417e-02 3.27868834e-02 0.
      8.19672085e-03 8.19672085e-03 4.09836061e-02 8.19672123e-02 0.
      8.19672085e-03 0. 1.63934417e-02 0. 0. 1.63934417e-02 0. 0. 0. 0.
      1.63934417e-02 0. 0. 8.19672123e-02 2.54098356e-01 0. 0. 0. 0.
      8.19672085e-03 1.63934417e-02 0. 0. 0. 0. 0. 0. 2.45901644e-02 0.
      0. 2.45901644e-02 0. 8.19672085e-03 2.45901644e-02 0. 0.
      1.63934417e-02 1.63934417e-02 1.63934417e-02 2.45901644e-02
      8.19672085e-03 0. 2.45901644e-02 5.73770478e-02 2.45901644e-02
      8.19672085e-03 0. 8.19672123e-02 1.63934417e-02 0. 0.
      8.19672085e-03 0. 0. 8.19672085e-03 2.45901644e-02 1.63934425e-01</_>
    <_>
      0. 0. 0. 0. 0. 0. 0. 0. 0. 0. 0. 0. 0. 0. 7.81250000e-03
      1.17187500e-01 0. 0. 0. 0. 0. 0. 0. 0. 1.56250000e-02 0.
      1.56250000e-02 1.56250000e-02 0. 0. 0. 0. 0. 0. 0. 0. 0. 0. 0. 0.
      0. 0. 0. 5.46875000e-02 0. 0. 0. 4.68750000e-02 5.07812500e-01 0.
      0. 0. 0. 0. 1.56250000e-02 0. 0. 2.03125000e-01 0. 0. 0. 0. 0. 0.
      0. 0. 0. 0. 0. 0. 0. 0. 3.90625000e-02 6.25000000e-02 0. 0.
      1.56250000e-02 0. 7.81250000e-03 7.81250000e-03 0. 0.
      6.25000000e-02 0. 4.68750000e-02 6.25000000e-02 7.81250000e-03 0.
      0. 0. 0. 0. 0. 0. 0. 0. 0. 0. 0. 0. 0. 1.09375000e-01 0. 0. 0.
      1.64062500e-01 2.57812500e-01 0. 0. 7.81250000e-03 0. 0.
      6.25000000e-02 0. 0. 8.59375000e-02 0. 0. 0. 0. 0. 0. 0. 0. 0. 0.
      0. 0. 0. 0. 0. 0. 0. 0. 0. 0. 0. 0. 0. 0. 2.34375000e-02 0.
      7.81250000e-03 7.81250000e-03 7.81250000e-03 0. 0. 0. 0. 0. 0. 0.
      0. 0. 0. 0. 0. 0. 0. 0. 0. 0. 0. 2.42187500e-01 3.28125000e-01 0.
      0. 7.81250000e-03 0. 0. 0. 0. 0. 3.75000000e-01 0. 0. 0. 0. 0. 0.
      0. 0. 0. 0. 0. 0. 0. 0. 0. 0. 0. 0. 0. 0. 0. 0. 0. 0. 0. 0. 0. 0.
      0. 0. 0. 0. 0. 0. 0. 0. 0. 0. 0. 0. 0. 0. 0. 0. 0. 0. 0.
      1.17187500e-01 4.53125000e-01 0. 0. 0. 7.81250000e-03 0. 0.
      7.81250000e-03 0. 4.14062500e-01 0. 0. 0. 0. 0. 0. 0. 0. 0. 0. 0.
      0. 0. 2.34375000e-02 7.81250000e-03 2.34375000e-01 0. 0. 0. 0. 0.
      0. 0. 0. 2.34375000e-02 0. 0. 2.34375000e-02 0. 0. 0. 0. 0. 0. 0.
      0. 0. 0. 0. 0. 0. 0. 0. 0. 0. 0. 0. 3.90625000e-02 2.96875000e-01
      0. 0. 4.68750000e-02 0. 0. 0. 0. 7.81250000e-03 2.96875000e-01 0.
      0. 0. 0. 0. 0. 0. 0. 0. 0. 0. 0. 0. 6.25000000e-02 8.59375000e-02
      1.56250000e-01 0. 0. 0. 0. 7.81250000e-03 0. 0. 0. 6.25000000e-02
      0. 0. 6.25000000e-02 0. 0. 0. 0. 0. 0. 0. 0. 0. 0. 0. 0. 0. 0. 0.
      0. 0. 0. 0. 2.26562500e-01 9.37500000e-02 0. 0. 8.59375000e-02
      1.56250000e-02 0. 1.56250000e-02 0. 6.25000000e-02 6.25000000e-02
      0. 0. 0. 0. 0. 0. 0. 0. 0. 0. 0. 0. 0. 7.81250000e-03
      1.09375000e-01 1.79687500e-01 0. 0. 0. 0. 1.56250000e-02 0. 0. 0.
      1.56250000e-02 0. 0. 7.81250000e-03 0. 0. 0. 0. 0. 0. 0. 0. 0. 0.
      0. 0. 0. 0. 0. 0. 0. 0. 0. 1.79687500e-01 1.56250000e-01 0. 0. 0.
      0. 0. 1.56250000e-02 7.81250000e-03 6.25000000e-02 2.42187500e-01
      0. 0. 0. 0. 0. 0. 0. 0. 0. 0. 0. 0. 0. 0. 2.34375000e-02
      1.71875000e-01 0. 0. 0. 0. 2.34375000e-02 7.81250000e-03 0. 0. 0.
      0. 1.56250000e-02 7.81250000e-03 1.56250000e-02 0. 0. 0. 0. 0. 0.
      0. 0. 0. 0. 0. 0. 0. 0. 0. 0. 0. 0. 5.46875000e-02 1.56250000e-01
      0. 0. 1.56250000e-02 1.56250000e-02 0. 1.56250000e-02
      1.56250000e-02 7.81250000e-03 4.53125000e-01 0. 0. 0. 0. 0. 0. 0.
      0. 0. 0. 0. 1.56250000e-02 0. 1.56250000e-02 3.12500000e-02
      1.32812500e-01 0. 0. 0. 7.81250000e-03 2.34375000e-02 0. 0. 0.
      1.56250000e-02 7.81250000e-03 7.81250000e-03 0. 0. 0. 0. 0. 0. 0.
      0. 0. 0. 0. 0. 0. 0. 0. 0. 0. 0. 0. 0. 2.34375000e-02
      1.01562500e-01 0. 0. 0. 0. 0. 1.56250000e-02 0. 0. 6.01562500e-01
      0. 0. 0. 0. 0. 0. 0. 0. 0. 0. 0. 3.90625000e-02 7.81250000e-03
      7.03125000e-02 1.71875000e-01 0. 0. 1.56250000e-02 0. 0. 0. 0. 0.
      0. 7.03125000e-02 4.68750000e-02 7.81250000e-03 1.56250000e-02 0.
      0. 0. 0. 0. 0. 0. 0. 0. 0. 0. 0. 0. 0. 0. 0. 0. 0. 0.
      7.03125000e-02 8.59375000e-02 0. 0. 3.12500000e-02 0. 0. 0. 0.
      4.68750000e-02 3.20312500e-01 0. 0. 0. 0. 0. 0. 0. 0. 0. 0. 0.
      8.26446246e-03 0. 8.26446246e-03 1.32231399e-01 5.78512400e-02 0.
      0. 0. 0. 0. 0. 0. 0. 1.65289249e-02 8.26446246e-03 4.13223132e-02
      6.61156997e-02 0. 0. 0. 0. 0. 0. 0. 0. 0. 0. 0. 0. 0. 0. 0. 0. 0.
      0. 0. 1.32231399e-01 1.73553720e-01 0. 0. 5.78512400e-02 0. 0.
      2.47933883e-02 0. 0. 2.72727281e-01 0. 0. 0. 0. 0. 0. 0. 0. 0. 0.
      0. 0. 0. 0. 2.38095243e-02 4.76190485e-02 0. 0. 0. 0.
      2.38095243e-02 7.93650839e-03 0. 0. 0. 0. 3.17460336e-02
      2.38095243e-02 2.38095243e-02 0. 0. 0. 0. 0. 0. 0. 0. 0. 0. 0. 0.
      0. 0. 0. 0. 0. 0. 3.96825410e-02 1.03174604e-01 0. 0.
      3.17460336e-02 7.93650839e-03 0. 1.58730168e-02 3.17460336e-02 0.
      5.87301612e-01</_>
    <_>
      0. 5.51181100e-02 0. 0. 0. 0. 0. 0. 0. 0. 0. 1.57480314e-02
      7.87401572e-03 1.57480314e-02 7.87401572e-03 5.51181100e-02 0.
      7.87401572e-03 4.72440943e-02 8.66141766e-02 2.36220472e-02
      7.87401572e-03 0. 0. 2.36220472e-02 9.44881886e-02 1.02362208e-01
      0. 0. 0. 0. 0. 0. 0. 0. 0. 0. 0. 0. 0. 0. 0. 0. 7.87401572e-03 0.
      0. 1.57480314e-02 5.51181100e-02 1.65354326e-01 0. 0.
      7.08661452e-02 0. 0. 3.14960629e-02 0. 1.57480314e-02
      8.66141766e-02 0. 6.03448264e-02 0. 3.44827585e-02 0. 0.
      8.62068962e-03 0. 0. 0. 2.58620698e-02 0. 0. 0. 0. 6.89655170e-02
      0. 0. 0. 0. 0. 0. 0. 0. 0. 0. 0. 0. 0. 0. 4.31034490e-02
      1.72413792e-02 5.17241396e-02 2.58620698e-02 0. 0. 0.
      4.31034490e-02 2.58620698e-02 1.29310340e-01 2.58620698e-02 0. 0.
      8.62068962e-03 3.44827585e-02 3.44827585e-02 9.48275849e-02 0.
      8.62068981e-02 0. 8.62068962e-03 0. 0. 0. 0. 0. 0. 1.72413796e-01
      0. 1.76991150e-02 0. 0. 0. 0. 0. 0. 0. 0. 0. 0. 8.84955749e-03 0.
      1.76991150e-02 1.59292042e-01 0. 0. 0. 0. 0. 0. 0. 0. 0.
      8.84955749e-03 0. 0. 0. 0. 8.84955749e-03 0. 0. 0. 8.84955749e-03
      0. 0. 8.84955749e-03 8.84955749e-03 0. 0. 0. 0. 3.53982300e-02 0.
      1.76991150e-02 3.53982300e-02 1.76991150e-02 2.21238941e-01
      1.76991150e-02 8.84955749e-03 0. 0. 0. 8.84955749e-03
      8.84955749e-03 2.65486725e-02 3.53982300e-01 0. 0. 0. 0. 0. 0. 0.
      0. 0. 0. 2.45901644e-02 1.63934417e-02 0. 8.19672085e-03
      8.19672085e-03 1.22950822e-01 0. 0. 8.19672085e-03 0. 0.
      8.19672085e-03 0. 0. 8.19672085e-03 0. 8.19672085e-03 0.
      8.19672085e-03 0. 0. 0. 0. 0. 0. 0. 0. 2.45901644e-02 0. 0. 0. 0.
      0. 0. 0. 2.45901644e-02 8.19672085e-03 3.27868834e-02
      2.62295067e-01 8.19672085e-03 8.19672085e-03 0. 2.45901644e-02 0.
      0. 1.63934417e-02 2.45901644e-02 3.44262302e-01 0. 0. 0. 0. 0. 0.
      0. 0. 0. 0. 0. 0. 0. 4.76190485e-02 0. 0. 0. 0. 4.76190485e-02
      3.17460336e-02 0. 0. 0. 0. 1.58730168e-02 3.33333343e-01
      1.82539687e-01 7.93650839e-03 0. 0. 0. 0. 0. 0. 0. 0. 0. 0. 0. 0.
      0. 0. 0. 0. 0. 0. 0. 0. 1.82539687e-01 0. 0. 7.93650821e-02
      3.96825410e-02 0. 1.58730168e-02 0. 0. 1.58730168e-02 0. 0. 0.
      7.81250000e-03 0. 0. 4.68750000e-02 0. 0. 0. 6.25000000e-02 0. 0.
      0. 0. 1.32812500e-01 0. 0. 0. 0. 0. 0. 0. 0. 0. 0. 0. 0. 0. 0. 0.
      1.56250000e-02 7.03125000e-02 3.12500000e-02 2.34375000e-02 0. 0.
      2.34375000e-02 5.46875000e-02 7.81250000e-02 7.81250000e-03
      3.12500000e-02 0. 7.81250000e-03 1.56250000e-02 7.81250000e-03
      3.90625000e-02 0. 7.81250000e-02 0. 7.81250000e-03 0. 0. 0. 0. 0.
      0. 2.57812500e-01 0. 0. 0. 0. 0. 0. 7.87401572e-03 0. 0. 0.
      3.14960629e-02 0. 0. 0. 2.36220472e-02 2.20472440e-01 0.
      7.87401572e-03 0. 0. 7.87401572e-03 1.57480314e-02 0. 0. 0. 0. 0.
      0. 7.87401572e-03 0. 0. 0. 7.87401572e-03 0. 3.93700786e-02 0. 0.
      1.57480314e-02 0. 1.57480314e-02 0. 2.36220472e-02 0. 0. 0. 0.
      1.57480314e-02 7.87401572e-03 1.73228353e-01 1.57480314e-02
      7.87401572e-03 0. 1.57480314e-02 0. 0. 0. 1.57480314e-02
      3.22834641e-01 0. 0. 0. 7.93650839e-03 0. 0. 7.93650839e-03 0. 0.
      0. 0. 0. 0. 0. 3.96825410e-02 2.93650806e-01 0. 7.93650839e-03 0.
      0. 0. 7.93650839e-03 0. 0. 0. 0. 0. 0. 1.58730168e-02 0. 0. 0. 0.
      0. 0. 0. 0. 7.93650839e-03 0. 0. 0. 0. 0. 1.58730168e-02 0. 0. 0.
      3.96825410e-02 1.74603179e-01 0. 0. 0. 7.93650839e-03 0. 0.
      1.58730168e-02 7.93650839e-03 3.49206358e-01 0. 0. 0. 0. 0. 0. 0.
      0. 0. 0. 0. 8.33333377e-03 0. 1.66666675e-02 2.50000004e-02
      2.50000004e-02 0. 0. 4.16666679e-02 5.83333336e-02 2.50000004e-02
      8.33333377e-03 0. 0. 2.50000004e-02 3.24999988e-01 1.25000000e-01
      2.50000004e-02 0. 0. 0. 0. 0. 0. 0. 0. 0. 0. 0. 0. 0. 0. 0. 0. 0.
      0. 1.66666675e-02 8.33333377e-03 9.16666687e-02 0. 0.
      1.66666675e-02 5.83333336e-02 0. 0. 0. 0. 1.00000001e-01 0.
      1.65289249e-02 0. 0. 0. 0. 2.47933883e-02 0. 0. 8.26446246e-03 0.
      1.65289249e-02 0. 0. 1.65289249e-02 3.30578499e-02 0. 0. 0. 0.
      2.47933883e-02 8.26446246e-03 0. 0. 0. 1.65289249e-02
      5.78512400e-02 2.47933883e-02 1.65289249e-02 0. 8.26446246e-03
      1.65289249e-02 8.26446246e-03 8.26446246e-03 8.26446246e-03 0. 0.
      6.61156997e-02 0. 8.26446246e-03 2.47933883e-02 2.47933883e-02 0.
      8.26446246e-03 0. 8.26446246e-03 4.13223132e-02 0. 9.09090936e-02
      8.26446246e-03 8.26446246e-03 4.95867766e-02 1.65289249e-02 0.
      1.65289249e-02 1.65289249e-02 4.95867766e-02 2.47933879e-01 0.
      1.69491526e-02 0. 1.69491526e-02 0. 0. 1.69491526e-02 0. 0. 0.
      8.47457629e-03 8.47457629e-03 0. 0. 0. 3.38983051e-02 0. 0. 0. 0.
      0. 0. 0. 0. 0. 0. 0. 0. 0. 0. 0. 8.47457629e-03 1.69491526e-02
      1.69491526e-02 2.54237279e-02 0. 0. 8.47457629e-03 1.69491526e-02
      5.93220331e-02 3.38983051e-02 1.69491526e-02 0. 1.69491526e-02 0.
      1.69491526e-02 3.38983051e-02 0. 1.69491526e-02 8.47457629e-03
      8.47457629e-03 0. 0. 0. 0. 0. 8.47457629e-03 5.84745765e-01 0. 0.
      0. 0. 0. 0. 0. 0. 0. 0. 0. 5.30973449e-02 8.84955749e-03 0.
      1.76991150e-02 1.06194690e-01 0. 0. 0. 0. 8.84955749e-03 0. 0. 0.
      8.84955749e-03 0. 0. 0. 0. 0. 0. 0. 0. 0. 0. 0. 0. 0. 0. 0. 0. 0.
      0. 0. 0. 0. 0. 1.76991150e-02 1.50442481e-01 0. 0. 0. 0. 0.
      8.84955749e-03 0. 0. 6.19469047e-01</_>
    <_>
      6.12244904e-02 1.02040814e-02 0. 0. 3.06122452e-02 0. 0. 0. 0.
      1.02040814e-02 0. 2.04081628e-02 1.02040814e-02 1.02040814e-02
      2.04081628e-02 0. 0. 1.02040814e-02 2.04081628e-02 5.10204099e-02
      1.02040814e-02 1.02040814e-02 5.10204099e-02 1.02040814e-02
      3.06122452e-02 4.08163257e-02 4.08163257e-02 2.04081628e-02
      2.04081628e-02 1.02040814e-02 0. 0. 0. 0. 0. 7.14285746e-02
      3.06122452e-02 0. 0. 0. 0. 0. 1.02040814e-02 1.02040814e-02 0.
      1.02040814e-02 2.04081628e-02 0. 1.02040814e-02 4.08163257e-02
      2.04081628e-02 2.04081628e-02 2.04081628e-02 1.02040820e-01
      1.02040814e-02 0. 1.02040814e-02 1.12244897e-01 7.52688199e-02 0.
      1.07526882e-02 0. 4.30107526e-02 2.15053763e-02 1.07526882e-02 0.
      0. 0. 0. 1.07526882e-02 0. 0. 0. 1.07526882e-02 0. 1.07526882e-02
      2.15053763e-02 0. 0. 0. 1.29032254e-01 0. 0. 1.07526882e-02
      1.07526882e-02 0. 0. 0. 0. 2.15053763e-02 1.07526882e-02 0.
      1.07526882e-02 4.30107526e-02 2.15053763e-02 1.07526882e-02
      5.37634417e-02 1.07526882e-02 2.15053763e-02 1.07526882e-02 0. 0.
      1.07526882e-02 0. 0. 1.07526882e-02 0. 2.15053763e-02 0.
      3.22580636e-02 2.15053763e-02 1.18279569e-01 0. 2.15053763e-02
      5.37634417e-02 1.29032254e-01 3.06122452e-02 0. 0. 0.
      2.04081628e-02 0. 1.02040814e-02 0. 2.04081628e-02 0. 0. 0.
      2.04081628e-02 0. 0. 2.04081628e-02 0. 1.02040814e-02
      1.02040814e-02 3.06122452e-02 4.08163257e-02 0. 0. 3.06122452e-02
      1.02040814e-02 1.02040814e-02 4.08163257e-02 0. 0. 1.02040814e-02
      0. 1.02040814e-02 3.06122452e-02 0. 3.06122452e-02 4.08163257e-02
      0. 2.04081628e-02 4.08163257e-02 5.10204099e-02 2.04081628e-02 0.
      2.04081628e-02 1.02040814e-02 1.02040814e-02 1.02040814e-02
      1.02040814e-02 3.06122452e-02 2.04081628e-02 2.04081628e-02
      2.04081628e-02 1.02040814e-02 1.02040814e-02 9.18367356e-02
      1.02040814e-02 2.04081628e-02 0. 1.42857149e-01 4.67289723e-02 0.
      0. 9.34579410e-03 2.80373823e-02 0. 2.80373823e-02 0. 0. 0.
      1.86915882e-02 0. 0. 0. 0. 1.86915882e-02 0. 1.86915882e-02 0. 0.
      0. 0. 4.67289723e-02 3.73831764e-02 9.34579410e-03 9.34579410e-03
      9.34579410e-03 0. 0. 1.86915882e-02 1.86915882e-02 9.34579410e-03
      5.60747646e-02 9.34579410e-03 0. 5.60747646e-02 2.80373823e-02
      9.34579410e-03 6.54205605e-02 1.86915882e-02 9.34579410e-03 0.
      1.86915882e-02 0. 0. 1.86915882e-02 4.67289723e-02 3.73831764e-02
      0. 1.86915882e-02 1.86915882e-02 9.34579410e-03 3.73831764e-02
      1.12149529e-01 9.34579410e-03 9.34579410e-03 9.34579410e-03
      7.47663528e-02 7.69230798e-02 0. 0. 0. 5.49450554e-02 0. 0.
      2.19780225e-02 3.29670347e-02 1.09890113e-02 0. 0. 1.09890113e-02
      0. 0. 0. 2.19780225e-02 0. 4.39560451e-02 8.79120901e-02
      1.09890113e-02 1.09890113e-02 2.19780225e-02 0. 1.09890113e-02
      7.69230798e-02 6.59340695e-02 2.19780225e-02 2.19780225e-02 0.
      1.09890113e-02 0. 1.09890113e-02 2.19780225e-02 1.09890113e-02
      3.29670347e-02 0. 0. 0. 0. 0. 0. 0. 0. 0. 0. 0. 0. 0. 0. 0.
      1.09890113e-02 0. 1.09890111e-01 4.39560451e-02 2.19780225e-02 0.
      1.20879121e-01 7.69230798e-02 1.09890113e-02 2.19780225e-02
      1.09890113e-02 5.49450554e-02 0. 1.09890113e-02 0. 1.09890113e-02
      0. 0. 1.09890113e-02 0. 0. 0. 0. 1.09890113e-02 0. 2.19780225e-02
      0. 0. 0. 3.29670347e-02 0. 2.19780225e-02 1.09890113e-02
      2.19780225e-02 2.19780225e-02 0. 1.09890113e-02 1.09890113e-02
      1.09890113e-02 2.19780225e-02 1.09890113e-02 0. 4.39560451e-02
      1.09890113e-02 2.19780225e-02 1.09890113e-02 4.39560451e-02
      1.09890113e-02 1.09890113e-02 0. 3.29670347e-02 1.09890113e-02
      2.19780225e-02 1.09890113e-02 3.29670347e-02 2.19780225e-02
      1.09890113e-02 1.09890113e-02 0. 0. 5.49450554e-02 2.19780225e-02
      2.19780225e-02 0. 1.75824180e-01 7.07070678e-02 0. 0.
      1.01010101e-02 4.04040404e-02 0. 0. 0. 0. 0. 1.01010101e-02 0. 0.
      2.02020202e-02 0. 0. 1.01010101e-02 0. 0. 0. 3.03030312e-02
      1.01010101e-02 5.05050495e-02 3.03030312e-02 1.01010101e-02
      1.01010101e-02 1.01010101e-02 0. 1.01010101e-02 4.04040404e-02
      1.01010101e-02 1.01010101e-02 2.02020202e-02 0. 1.01010101e-02
      1.01010101e-02 0. 1.01010101e-02 1.01010101e-02 3.03030312e-02 0.
      2.02020202e-02 2.02020202e-02 5.05050495e-02 2.02020202e-02
      1.01010101e-02 0. 0. 2.02020202e-02 4.04040404e-02 3.03030312e-02
      1.01010101e-02 3.03030312e-02 4.04040404e-02 1.01010101e-02
      1.01010101e-02 1.01010101e-02 2.02020198e-01 2.99999993e-02 0. 0.
      1.99999996e-02 9.99999978e-03 9.99999978e-03 0. 0. 0. 0. 0. 0.
      1.99999996e-02 1.99999996e-02 0. 0. 9.99999978e-03 1.99999996e-02
      9.99999978e-03 9.99999978e-03 9.99999978e-03 9.99999978e-03
      5.99999987e-02 9.99999978e-03 9.99999978e-03 9.99999978e-03
      9.99999978e-03 9.99999978e-03 9.99999978e-03 9.99999978e-03 0.
      3.99999991e-02 0. 0. 0. 5.99999987e-02 1.99999996e-02
      2.99999993e-02 9.00000036e-02 5.99999987e-02 9.99999978e-03
      1.99999996e-02 0. 0. 1.99999996e-02 9.99999978e-03 0. 0.
      3.99999991e-02 9.99999978e-03 9.99999978e-03 0. 0. 5.99999987e-02
      9.99999978e-03 1.99999996e-02 1.99999996e-02 1.59999996e-01
      7.07070678e-02 0. 0. 0. 3.03030312e-02 2.02020202e-02
      2.02020202e-02 0. 0. 1.01010101e-02 0. 3.03030312e-02
      1.01010101e-02 2.02020202e-02 2.02020202e-02 2.02020202e-02
      1.01010101e-02 1.01010101e-02 6.06060624e-02 7.07070678e-02
      3.03030312e-02 0. 3.03030312e-02 0. 2.02020202e-02 2.02020202e-02
      8.08080807e-02 3.03030312e-02 0. 0. 0. 0. 0. 0. 1.01010101e-02
      6.06060624e-02 1.01010101e-02 0. 3.03030312e-02 0. 1.01010101e-02
      0. 1.01010101e-02 1.01010101e-02 0. 1.01010101e-02 0. 0.
      1.01010101e-02 0. 1.01010101e-02 1.01010101e-02 2.02020202e-02
      4.04040404e-02 1.01010101e-02 1.01010101e-02 0. 1.21212125e-01
      8.60215053e-02 2.15053763e-02 1.07526882e-02 3.22580636e-02
      1.07526882e-02 1.07526882e-02 3.22580636e-02 0. 1.07526882e-02
      2.15053763e-02 1.07526882e-02 2.15053763e-02 0. 1.07526882e-02
      1.07526882e-02 2.15053763e-02 0. 0. 0. 0. 1.07526882e-02 0.
      5.37634417e-02 2.15053763e-02 0. 0. 0. 1.07526882e-02
      2.15053763e-02 0. 0. 2.15053763e-02 3.22580636e-02 0.
      1.07526882e-02 1.07526882e-02 1.07526882e-02 0. 8.60215053e-02
      5.37634417e-02 2.15053763e-02 1.07526882e-02 0. 0. 2.15053763e-02
      2.15053763e-02 2.15053763e-02 0. 1.07526882e-02 1.07526882e-02
      1.07526882e-02 0. 1.07526882e-02 1.07526882e-02 1.07526882e-02
      1.07526882e-02 2.15053763e-02 1.50537640e-01 9.78260860e-02 0. 0.
      0. 7.60869533e-02 2.17391308e-02 1.08695654e-02 3.26086953e-02 0.
      1.08695654e-02 1.08695654e-02 0. 0. 1.08695654e-02 1.08695654e-02
      1.08695654e-02 3.26086953e-02 0. 3.26086953e-02 1.08695654e-02
      1.08695654e-02 0. 1.08695654e-02 1.08695654e-02 1.08695654e-02 0.
      3.26086953e-02 3.26086953e-02 3.26086953e-02 0. 0. 2.17391308e-02
      1.08695654e-02 0. 2.17391308e-02 5.43478243e-02 1.08695654e-02 0.
      0. 0. 0. 3.26086953e-02 1.08695654e-02 0. 1.08695654e-02 0.
      3.26086953e-02 1.08695654e-02 0. 2.17391308e-02 1.08695654e-02 0.
      2.17391308e-02 2.17391308e-02 1.08695654e-02 4.34782617e-02 0.
      1.41304344e-01 6.12244904e-02 1.02040814e-02 1.02040814e-02
      2.04081628e-02 2.04081628e-02 1.02040814e-02 2.04081628e-02 0. 0.
      0. 2.04081628e-02 1.02040814e-02 0. 1.02040814e-02 0.
      1.02040814e-02 0. 0. 0. 0. 0. 0. 3.06122452e-02 0. 0. 0. 0.
      1.02040814e-02 0. 0. 2.04081628e-02 2.04081628e-02 3.06122452e-02
      1.02040814e-02 0. 8.16326514e-02 1.02040814e-02 6.12244904e-02
      4.08163257e-02 8.16326514e-02 1.02040814e-02 2.04081628e-02 0.
      1.02040814e-02 2.04081628e-02 1.02040814e-02 2.04081628e-02
      1.02040814e-02 1.02040814e-02 1.02040814e-02 0. 0. 0.
      6.12244904e-02 0. 1.02040814e-02 1.02040814e-02 1.93877548e-01</_>
    <_>
      0. 0. 0. 0. 0. 0. 0. 0. 0. 0. 0. 0. 0. 0. 0. 0. 0. 0.
      2.36220472e-02 1.49606302e-01 0. 0. 0. 0. 3.14960629e-02
      1.57480314e-01 3.46456707e-01 7.87401572e-03 7.87401572e-03 0. 0.
      0. 0. 0. 0. 1.57480314e-02 0. 0. 0. 0. 0. 0. 0. 0. 0. 0. 0. 0.
      1.57480314e-02 0. 0. 2.36220472e-02 1.57480314e-02 7.87401572e-03
      3.14960629e-02 1.57480314e-02 0. 1.49606302e-01 0. 0. 0. 0. 0. 0.
      0. 0. 0. 0. 0. 0. 7.81250000e-03 1.56250000e-02 0. 0. 0. 0.
      5.46875000e-02 3.12500000e-02 0. 1.56250000e-02 0. 0.
      1.56250000e-02 5.23437500e-01 2.34375000e-01 1.56250000e-02 0. 0.
      0. 0. 0. 0. 0. 0. 0. 0. 0. 0. 0. 0. 0. 0. 0. 0. 0. 7.81250000e-03
      0. 0. 0. 4.68750000e-02 7.81250000e-03 0. 7.81250000e-03 0. 0.
      1.56250000e-02 0. 0. 0. 0. 0. 0. 0. 0. 0. 0. 0. 0. 0. 0. 0. 0. 0.
      0. 3.20000015e-02 0. 0. 0. 0. 0. 8.79999995e-02 6.32000029e-01
      5.60000017e-02 0. 0. 0. 0. 0. 0. 0. 0. 0. 0. 0. 0. 0. 0. 0.
      8.00000038e-03 0. 0. 0. 0. 3.20000015e-02 0. 0. 0. 1.04000002e-01
      8.00000038e-03 8.00000038e-03 8.00000038e-03 2.40000002e-02 0. 0.
      8.19672085e-03 0. 0. 0. 8.19672085e-03 0. 0. 0. 0. 0. 0. 0. 0. 0.
      0. 0. 0. 0. 1.63934417e-02 0. 0. 0. 3.27868834e-02 0.
      5.73770478e-02 1.47540987e-01 4.91803288e-02 0. 0. 0. 0. 0. 0. 0.
      0. 0. 0. 0. 0. 0. 0. 0. 1.63934417e-02 1.63934417e-02 0. 0. 0.
      2.45901644e-02 4.91803288e-02 1.63934417e-02 8.19672085e-03
      8.19672123e-02 9.83606577e-02 0. 4.91803288e-02 4.91803288e-02 0.
      2.70491809e-01 0. 0. 0. 0. 0. 0. 0. 0. 0. 0. 0. 0. 0. 0. 0. 0. 0.
      7.93650839e-03 3.17460336e-02 3.96825410e-02 0. 0. 0. 0.
      1.19047619e-01 1.98412701e-01 1.19047619e-01 1.58730168e-02 0. 0.
      0. 0. 0. 0. 0. 7.93650839e-03 0. 0. 0. 0. 0. 0. 0. 0. 0. 0. 0.
      1.26984134e-01 3.17460336e-02 0. 0. 9.52380970e-02 3.96825410e-02
      7.14285746e-02 1.58730168e-02 0. 0. 7.93650821e-02 0. 0. 0. 0. 0.
      0. 0. 0. 0. 0. 0. 0. 0. 0. 0. 0. 0. 0. 0. 0. 0. 0. 0. 0.
      1.02362208e-01 2.44094491e-01 7.87401572e-02 0. 0. 0. 0. 0. 0. 0.
      0. 0. 0. 0. 0. 0. 0. 0. 3.14960629e-02 0. 0. 0. 0. 1.49606302e-01
      1.33858263e-01 7.87401572e-03 0. 1.25984251e-01 5.51181100e-02 0.
      1.57480314e-02 7.87401572e-03 0. 4.72440943e-02 0. 0. 0. 0. 0. 0.
      0. 0. 0. 0. 0. 0. 0. 0. 0. 0. 0. 0. 0. 3.14960629e-02 0. 0.
      7.87401572e-03 7.87401572e-03 1.02362208e-01 4.96062994e-01
      7.87401572e-03 0. 0. 0. 0. 0. 0. 0. 0. 0. 0. 0. 0. 0. 0. 0. 0.
      1.57480314e-02 0. 0. 0. 3.14960629e-02 3.93700786e-02 0. 0.
      2.04724416e-01 2.36220472e-02 1.57480314e-02 0. 0. 0.
      1.57480314e-02 0. 0. 0. 0. 0. 0. 0. 0. 0. 0. 0. 0. 0. 0. 0. 0. 0.
      0. 0. 0. 0. 0. 5.55555560e-02 0. 1.03174604e-01 5.07936537e-01 0.
      0. 0. 0. 0. 0. 0. 0. 0. 0. 7.93650839e-03 0. 0. 0. 0. 0.
      4.76190485e-02 0. 0. 0. 0. 3.96825410e-02 7.93650839e-03 0. 0.
      1.42857149e-01 7.93650839e-03 1.58730168e-02 7.93650839e-03
      1.58730168e-02 0. 3.96825410e-02 0. 0. 0. 0. 0. 0. 0. 0. 0. 0. 0.
      0. 0. 0. 0. 0. 0. 0. 0. 2.41935477e-02 0. 0. 0. 3.22580636e-02
      9.67741907e-02 8.87096748e-02 3.22580636e-02 0. 8.06451589e-03 0.
      0. 0. 0. 0. 0. 8.06451589e-03 0. 0. 0. 0. 0. 0. 4.83870953e-02
      6.45161271e-02 1.61290318e-02 0. 0. 8.06451589e-02 1.61290318e-01
      8.06451589e-03 0. 4.03225794e-02 4.83870953e-02 5.64516112e-02
      3.22580636e-02 2.41935477e-02 8.06451589e-03 1.20967738e-01 0. 0.
      0. 0. 0. 0. 0. 0. 0. 0. 0. 0. 0. 0. 0. 0. 0. 0. 1.62601620e-02 0.
      8.13008100e-03 8.13008100e-03 0. 2.43902430e-02 8.13008100e-02
      1.21951222e-01 3.25203240e-02 8.13008100e-03 8.13008100e-03 0. 0.
      0. 0. 0. 8.13008100e-03 8.13008100e-03 8.13008100e-03
      8.13008100e-03 1.62601620e-02 8.13008100e-03 0. 0. 1.62601620e-02
      7.31707290e-02 3.25203240e-02 1.62601620e-02 0. 5.69105707e-02
      8.94308910e-02 2.43902430e-02 8.13008100e-03 1.05691060e-01
      8.13008100e-02 8.13008100e-03 8.13008100e-03 0. 2.43902430e-02
      8.94308910e-02 0. 0. 0. 0. 0. 0. 0. 0. 0. 0. 0. 0. 7.93650839e-03
      0. 0. 0. 0. 7.93650839e-03 0. 0. 0. 0. 0. 1.58730168e-02
